kernel
(5, 5, 3, 6)
[[[[-2.52165012e-02  1.32274581e-02 -9.59998295e-02 -4.40087914e-02
     1.23275377e-01  7.78061226e-02]
   [-1.00201160e-01 -1.75661623e-01 -6.85206205e-02 -5.01813926e-03
     2.59862039e-02  1.71353936e-01]
   [-1.09853996e-02 -1.75100386e-01  1.43340766e-01 -8.52202699e-02
     2.97808517e-02 -7.61793256e-02]]

  [[-8.24971125e-02  1.16457315e-02 -7.07453415e-02  1.84925403e-02
     1.61993563e-01  4.93467674e-02]
   [ 1.13345154e-01 -6.08057529e-02  8.55303407e-02 -7.68298507e-02
     1.77499115e-01  1.58357382e-01]
   [-5.17715104e-02 -4.10791561e-02  4.11698334e-02  1.71789631e-01
    -7.38582090e-02 -1.26353309e-01]]

  [[ 4.62429710e-02  6.18841574e-02 -1.04636373e-02  1.51708350e-01
     8.30221474e-02 -1.93427369e-01]
   [-1.02700144e-01 -8.09221938e-02 -5.36128208e-02  5.48335090e-02
     1.00470744e-02 -1.68991297e-01]
   [-1.33628622e-01  2.09238276e-01  6.13804534e-02  2.05248907e-01
     1.62681311e-01 -4.95298654e-02]]

  [[ 5.32580316e-02 -6.13679513e-02 -7.85639957e-02 -3.49768065e-02
     6.06972985e-02 -1.71510115e-01]
   [ 1.39236584e-01  1.34727508e-01 -7.88932666e-02  1.23788789e-01
    -1.11643039e-01  1.00500770e-01]
   [-1.09795459e-01  2.08610266e-01  4.54485826e-02 -4.60781455e-02
     1.78954720e-01 -4.83847037e-03]]

  [[-2.73934845e-02 -1.63998201e-01 -1.26613826e-01  5.18026985e-02
     4.87992577e-02  1.73298400e-02]
   [-9.16037522e-03 -1.22868717e-01  8.02496150e-02  1.41323030e-01
    -1.82890788e-01  1.37233868e-01]
   [ 1.83160976e-01  1.47632867e-01 -1.33188674e-02  8.48312750e-02
    -1.45385444e-01  1.20698012e-01]]]


 [[[-3.23044918e-02 -8.24099630e-02 -1.04027987e-01  8.82936642e-03
    -5.91119714e-02  2.13804618e-02]
   [ 1.09844431e-02 -1.61416352e-01  1.30274206e-01  3.89938541e-02
    -3.02843690e-01 -1.09192289e-01]
   [ 1.26993386e-02 -8.25699605e-03 -6.18372522e-02  1.69238880e-01
    -2.94037938e-01 -1.54621735e-01]]

  [[ 2.79711578e-02  3.15389894e-02 -1.31058320e-01 -1.13024175e-01
    -1.46645932e-02  1.54754788e-01]
   [-7.61735812e-02 -9.22174752e-02  1.82516053e-02 -5.64539954e-02
     3.03929765e-02 -1.13058938e-02]
   [-5.66697493e-03  1.52242079e-01  1.97994336e-01  1.62561655e-01
    -6.11843355e-02 -5.78407161e-02]]

  [[ 1.57188296e-01  3.74556370e-02 -1.60092548e-01  1.37932554e-01
     1.87872767e-01 -4.27776836e-02]
   [-1.11729309e-01 -7.94783118e-05  1.66703284e-01  1.41964793e-01
     7.96795189e-02 -3.24927978e-02]
   [ 5.51724099e-02  2.22885668e-01  1.90479577e-01  7.33057857e-02
    -8.49940702e-02  9.22999904e-02]]

  [[-4.14159633e-02  1.08671963e-01 -1.23435393e-01 -8.81488696e-02
     3.14715743e-01  1.30087718e-01]
   [-2.57483143e-02 -8.96275640e-02  5.91878630e-02 -8.77244920e-02
    -5.00730276e-02  1.98422130e-02]
   [ 1.34851545e-01  2.11506873e-01 -6.44466728e-02 -1.19470343e-01
     1.62875205e-01 -1.21735781e-01]]

  [[ 5.49299978e-02  1.91674959e-02 -4.98059317e-02 -1.04151443e-01
     6.46725819e-02  1.01744212e-01]
   [-9.92231444e-02  1.09286252e-02  1.00736700e-01 -2.16331966e-02
    -5.61989918e-02  1.54908136e-01]
   [-1.03565842e-01 -3.79623361e-02  2.19045594e-01 -1.16650239e-01
     3.39000486e-02 -1.10853814e-01]]]


 [[[-1.11813806e-01  3.65958698e-02 -8.10133666e-02  1.09819852e-01
     5.43511249e-02 -2.09144711e-01]
   [-9.69282910e-02 -3.23335547e-03  1.98306769e-01 -7.50189871e-02
    -2.26110801e-01  1.94804341e-01]
   [-1.97183162e-01 -3.11446339e-02  1.57290801e-01  1.21189512e-01
     1.06949352e-01 -2.13153705e-01]]

  [[-1.77315056e-01  1.16029531e-01 -3.37073803e-02 -2.48147443e-01
    -4.95621152e-02  5.82511760e-02]
   [-2.56459355e-01 -2.73879934e-02  4.27236818e-02 -1.10663190e-01
    -2.29654416e-01  2.37634942e-01]
   [ 6.53311983e-03  2.74875343e-01 -9.75775570e-02 -1.05344601e-01
    -3.56914192e-01  6.81471452e-02]]

  [[-1.26640033e-02  1.12645358e-01  5.80606051e-03 -1.88676164e-01
     5.17846532e-02  9.10235494e-02]
   [ 1.32897273e-01  2.85895281e-02  2.15213463e-01 -3.07011724e-01
    -1.37434318e-03  1.23948112e-01]
   [-4.09964100e-02  3.44664603e-02  5.24586649e-04 -2.62721479e-01
     3.69202159e-02 -3.09151448e-02]]

  [[ 2.23815992e-01 -1.18740790e-01 -1.77640736e-01 -5.11726774e-02
     1.24297671e-01 -2.29802728e-01]
   [ 2.12398425e-01 -4.77732252e-03  1.93940952e-01 -2.22023994e-01
     1.96824390e-02 -3.71590778e-02]
   [ 2.72683382e-01  7.49391913e-02  1.43755063e-01 -1.23330563e-01
    -1.09306142e-01 -1.52014226e-01]]

  [[ 3.00480090e-02 -1.12665243e-01  1.27188206e-01 -1.82503834e-01
     2.82678932e-01  8.42733756e-02]
   [ 5.61908372e-02 -5.98160326e-02  6.56141294e-03 -1.93629920e-01
    -7.12575391e-02 -1.20251223e-01]
   [-7.11883456e-02 -1.07880875e-01 -5.49617857e-02 -9.31207463e-02
    -8.36790167e-03 -8.14098679e-03]]]


 [[[-6.05259947e-02  1.34796754e-01  2.20980644e-02 -6.12567514e-02
     1.53596178e-01 -2.03305259e-02]
   [-2.00027209e-02  7.41277263e-02  6.52368665e-02 -1.79603547e-01
    -7.95640871e-02  6.40500337e-02]
   [-7.44039416e-02  1.06585212e-01  1.11407507e-02 -3.39403562e-02
     1.53726608e-01 -9.35409516e-02]]

  [[-1.49784088e-01  9.35958140e-03 -9.97670293e-02  3.63124162e-02
     5.75832315e-02  5.78015037e-02]
   [-3.03178012e-01  1.59328967e-01  5.03199035e-03 -1.27246857e-01
    -1.25195444e-01  6.94225281e-02]
   [-1.71662182e-01  2.02599779e-01 -1.48127284e-02  1.15117207e-01
    -1.13153383e-01 -1.55787274e-01]]

  [[ 1.24836333e-01  1.76103804e-02 -2.03891531e-01 -4.69597951e-02
    -1.48738354e-01 -1.67207420e-01]
   [ 1.79155290e-01  1.35933459e-01 -2.44536940e-02  1.25541791e-01
    -1.62043348e-01  1.70982942e-01]
   [ 1.73852876e-01  4.75678630e-02  1.31750956e-01 -1.93801686e-01
    -2.52789348e-01 -1.01310275e-01]]

  [[ 1.47040457e-01 -1.04351819e-03  1.14167035e-02 -1.50258645e-01
     1.73843969e-02 -2.51185000e-01]
   [ 1.04968689e-01 -9.91380215e-02 -6.61500245e-02 -1.27654150e-01
    -1.36148678e-02 -7.30776228e-03]
   [ 1.81216732e-01 -6.20083213e-02  4.38942015e-03 -1.40782803e-01
    -1.67359993e-01 -1.98188141e-01]]

  [[-8.80641565e-02 -5.77953411e-03 -3.99272628e-02  1.57889441e-01
     1.32672144e-02  1.13246359e-01]
   [-4.37203459e-02 -7.02087656e-02  1.13957353e-01  5.87504283e-02
    -2.44021099e-02  4.62238453e-02]
   [-3.11786635e-03 -1.67977124e-01  7.64494762e-02 -1.06931560e-01
    -7.76247457e-02  1.56700298e-01]]]


 [[[ 3.89636233e-02  1.09143183e-01 -1.41568050e-01 -9.89466626e-03
    -7.02276528e-02  2.91634351e-02]
   [-1.34445308e-02 -5.25148101e-02  8.88493955e-02  6.49372339e-02
     2.86508828e-01  1.50627106e-01]
   [-1.30946562e-01  9.92052108e-02 -1.74019352e-01 -1.34198880e-02
     3.20197940e-01 -5.12715578e-02]]

  [[-2.03608900e-01  3.19635123e-02 -1.39203995e-01 -4.09160480e-02
    -1.55648336e-01 -2.03533947e-01]
   [-2.91299373e-01  1.24842159e-01 -4.12303805e-02  1.96208566e-01
    -5.70536703e-02  1.81069762e-01]
   [-1.33116290e-01  1.51256025e-01 -1.20264284e-01 -1.08261943e-01
     3.25774968e-01 -1.46862224e-01]]

  [[ 1.42548542e-05 -1.15156971e-01 -2.41350621e-01  1.02745198e-01
    -8.51726085e-02  9.86788571e-02]
   [-5.26922755e-03 -7.65947029e-02 -9.44472030e-02  2.61608541e-01
     6.63689598e-02  1.63368315e-01]
   [-8.24858062e-03 -9.75949168e-02 -8.73629302e-02  1.57163888e-01
    -8.01051855e-02 -5.10530658e-02]]

  [[ 2.33170599e-01  1.14082888e-01 -1.67742833e-01  2.33179629e-01
    -7.23914504e-02 -2.60531176e-02]
   [ 1.73096195e-01 -1.25632599e-01 -2.07622975e-01  1.90861911e-01
    -1.45340875e-01 -9.15887132e-02]
   [ 2.12712616e-01 -9.85562429e-02  5.84602877e-02  2.33470991e-01
     3.96785885e-02 -1.38726354e-01]]

  [[-1.07036389e-01  3.41205597e-02 -1.84872195e-01  2.67688572e-01
    -2.44050533e-01  6.30109534e-02]
   [ 9.83668715e-02 -3.08385417e-02  1.83122650e-01  5.25934063e-02
    -1.90668628e-01  1.12842605e-01]
   [-8.91635045e-02 -1.42332077e-01 -3.41519602e-02  1.65891975e-01
     1.23881504e-01  1.28927112e-01]]]]
bias
(6,)
[ 0.04752509 -0.215547    0.07660296 -0.00507106  0.03614929  0.00481585]
gamma
(6,)
[1.2561146 1.0058712 0.8386248 1.3299499 1.6945918 1.0484265]
beta
(6,)
[ 0.04909544 -0.2129124   0.07896774 -0.00291149  0.0368197   0.0067645 ]
kernel
(1536, 128)
[[ 5.09806797e-02  2.73088925e-02  1.68636397e-01 -2.75120195e-02
   5.74309789e-02 -7.16909990e-02 -3.24471109e-02 -3.26161757e-02
   7.35059604e-02  5.95495058e-03 -6.80994242e-02 -1.29685134e-01
  -9.81586352e-02 -6.88280985e-02  4.51417528e-02  8.25636741e-03
  -1.40552614e-02 -5.76370060e-02  2.18802094e-02 -2.22360604e-02
  -3.91651057e-02  3.37423617e-03 -4.30308841e-02  2.68439651e-02
   3.02199796e-02  2.53237747e-02 -7.97348842e-03  9.06539634e-02
   1.83265060e-02 -4.92026620e-02 -3.43427882e-02  1.77745670e-02
   1.29973339e-02 -3.71862389e-02  1.64370481e-02  5.74786924e-02
  -2.77080983e-02 -5.87117858e-04 -1.23310816e-02 -5.06452546e-02
  -3.99493352e-02  1.15367100e-01  7.24948645e-02  1.02456585e-01
   4.30814959e-02  2.86056451e-03 -7.19958469e-02 -7.36807734e-02
  -2.26425212e-02 -4.92872670e-02 -2.41641197e-02  3.31186205e-02
   4.66985032e-02 -3.13284732e-02  5.23387976e-02 -1.74308252e-02
   3.23716253e-02 -1.86315756e-02 -3.70392203e-02 -4.84222248e-02
  -6.01612031e-02  1.49443783e-02  2.95195468e-02  4.68630679e-02
   1.80728380e-02 -5.74857071e-02  3.70506197e-02  3.11156698e-02
   5.98858222e-02  2.79413238e-02  3.14364098e-02  2.18273364e-02
   4.30946872e-02 -3.94974798e-02  4.77939621e-02 -5.03933132e-02
  -6.73529431e-02 -3.73823643e-02 -1.04200393e-02 -2.94586029e-02
  -1.90780330e-02 -6.30568117e-02  5.09423614e-02  4.94769663e-02
  -1.17625706e-02  3.57731320e-02 -1.17501169e-02 -6.15719296e-02
  -4.36483733e-02 -2.57037636e-02  3.35840508e-02 -4.71713245e-02
   6.70758039e-02 -1.73679311e-02 -8.06748420e-02 -1.32107055e-02
  -1.57586604e-01  3.88843380e-02  7.60054076e-03 -4.61508594e-02
  -4.08575274e-02  6.04822934e-02  3.07745915e-02  7.47777475e-03
  -5.45590185e-02 -1.89799722e-02 -4.90892716e-02 -5.17004170e-02
   2.35337019e-03  6.69704229e-02 -8.89158398e-02  9.10811722e-02
   2.32751835e-02  9.32933539e-02 -6.03106208e-02  8.01711977e-02
   2.33640108e-04  2.88732233e-03  2.07592361e-02 -3.23357224e-03
  -5.52278422e-02 -2.46363189e-02  3.82097661e-02  6.30794540e-02
   3.05399615e-02 -1.07605718e-01 -1.91287659e-02  9.54781249e-02]
 [ 3.54893655e-02  1.66496024e-01  3.12973559e-02  3.45593318e-02
  -4.90639322e-02  1.22108776e-02  1.15718851e-02 -2.51098704e-02
   1.92111321e-02 -2.24724188e-01 -5.01547707e-03 -1.02701411e-01
  -2.85391323e-02 -2.80690603e-02  7.79039832e-03  1.91533063e-02
  -5.05155176e-02 -7.39019513e-02 -4.09351289e-02 -4.33038175e-02
  -1.76192716e-01  9.18257609e-02 -4.12472785e-02 -1.80917047e-02
  -5.91256581e-02  1.02058426e-01  1.20104617e-02  5.91681302e-02
  -1.56589840e-02 -5.66142574e-02  2.95736082e-02 -1.47623653e-02
  -5.46823964e-02 -6.20088652e-02  2.23314643e-01  2.21570417e-01
  -2.12750901e-02 -1.35059515e-02 -5.95203228e-02 -2.30349917e-02
  -9.04067513e-03 -6.38141334e-02  7.50182047e-02 -1.63169950e-01
   8.15710798e-03  3.90790962e-02 -6.72535747e-02 -9.71542299e-02
  -2.29118273e-01  2.26414967e-02 -1.59917437e-02 -8.31240490e-02
  -5.87118417e-02  1.42136337e-02 -3.12905908e-02  3.27017047e-02
  -1.39738689e-03 -2.99246665e-02 -7.34657561e-03  2.49783006e-02
   1.01567376e-02 -3.06402566e-03 -7.31063783e-02  6.94182366e-02
  -5.20492345e-02 -2.05823202e-02 -6.00449890e-02 -4.94931974e-02
  -3.51876058e-02 -1.19614238e-02  6.27615256e-03 -1.54823497e-01
  -5.25717484e-03  1.46708533e-03  7.14462548e-02  1.05113984e-04
  -5.69881611e-02 -1.86192840e-01  3.79920565e-02 -1.26714176e-02
   1.08296290e-01 -1.56216770e-01 -1.92452610e-01  4.44853939e-02
  -4.69108410e-02 -1.28598064e-01 -7.06644654e-02 -2.97674891e-02
  -3.70419514e-03 -4.21211645e-02  4.79176529e-02  3.89744528e-02
  -7.66799003e-02  2.14186590e-02 -9.11857560e-02 -2.63578817e-02
  -1.23010106e-01  1.61148757e-02  1.81917958e-02 -7.37393871e-02
   1.64634269e-03 -5.27078770e-02  3.10433637e-02  1.91384368e-02
   1.32575314e-02  3.33832130e-02 -4.39756876e-03 -3.22654575e-01
   1.65969431e-02 -4.06858092e-03 -3.58687788e-02 -2.50828862e-02
  -1.14212699e-01 -5.60150445e-02  7.45659275e-03  1.36807382e-01
   2.07957923e-01  6.41045421e-02 -1.90532301e-02  8.49964693e-02
  -3.39767411e-02 -1.67058520e-02 -7.62509033e-02 -2.56365910e-02
  -1.52780801e-01  3.50415967e-02 -2.86756326e-02  1.49215767e-02]
 [-6.55748099e-02  1.27620073e-02  7.75464699e-02 -5.90905659e-02
  -8.53103027e-03  1.59718152e-02 -9.61863399e-02 -5.38874753e-02
   1.04907274e-01 -3.94238643e-02  5.52372076e-02 -4.98992838e-02
   1.60543271e-03  3.63361649e-02  3.29577029e-02 -3.76598649e-02
   3.93384881e-02  5.67723252e-03 -6.57081380e-02 -4.87945527e-02
  -1.37965351e-01  3.95252258e-02 -6.47557154e-02  4.36030291e-02
  -1.20407298e-01  1.37558982e-01 -2.96439957e-02 -6.09788485e-02
  -9.53142531e-03  2.79634949e-02 -4.38823961e-02 -4.01675180e-02
  -2.59068664e-02 -4.83067073e-02  1.15674272e-01  6.19193725e-02
  -4.89989147e-02  1.26254400e-02 -6.77103698e-02 -5.12219407e-02
  -6.72465563e-02  1.21159144e-01  6.85410202e-02 -6.68787584e-02
   3.96528877e-02 -2.01049186e-02  1.40305966e-01  6.05059713e-02
  -2.08329931e-01 -2.38373969e-03 -5.44866286e-02  6.47202134e-02
   8.61757994e-02 -6.84622154e-02  2.58590095e-02  5.91941224e-03
   8.04498233e-03 -2.03462746e-02  1.69337168e-01 -6.44697472e-02
  -7.62740709e-03  1.46487027e-01  1.18170984e-01  1.89655144e-02
  -7.15340972e-02  1.24174831e-02  4.97479700e-02 -5.46441488e-02
   7.97649622e-02  2.93759145e-02 -3.86455841e-02 -5.85329570e-02
   2.96331923e-02 -2.44868156e-02  8.28090683e-02  4.08528931e-02
  -3.86070088e-02 -6.53690323e-02  2.39490066e-02 -4.66658063e-02
   1.93994157e-02  3.42505313e-02 -2.82081729e-03  6.42841160e-02
   9.16514844e-02  9.32382867e-02 -5.12100905e-02 -7.56218880e-02
  -4.90080193e-03  1.28400186e-02 -3.62893827e-02 -4.77465540e-02
  -1.17784023e-01 -1.99543685e-02  3.93621810e-03  2.13400293e-02
  -5.51793911e-02 -6.86647668e-02 -7.14952912e-05 -1.44060450e-02
  -4.51124981e-02 -6.07736595e-02  6.02919376e-03  4.45122533e-02
   1.29404992e-01 -5.91570213e-02 -8.74057636e-02 -1.09513730e-01
   3.20588239e-02  5.38095273e-02 -2.59217303e-02  8.51301663e-03
   2.61977986e-02  8.15398917e-02 -7.34118223e-02  1.63167566e-01
   7.79913515e-02 -7.42135346e-02  2.46540271e-02  1.32908121e-01
   5.84693514e-02  3.92942391e-02  1.30138779e-02  4.47931215e-02
   7.06527606e-02 -3.09002362e-02 -5.74034452e-02  2.04598233e-01]
 [-1.50275696e-02  4.67429422e-02 -3.77883129e-02 -4.24352176e-02
  -2.71612108e-01  1.26637099e-03  3.56099084e-02  4.18162346e-02
   1.80606142e-01 -3.34362507e-01  2.37987220e-01  2.73239166e-01
   1.43167198e-01 -5.72783872e-02 -2.62226793e-03 -4.43643443e-02
  -6.90632239e-02 -9.99017283e-02 -1.35896625e-02  3.36425714e-02
   3.03312868e-01 -4.05648835e-02 -5.80361597e-02 -3.26114185e-02
  -2.10786149e-01 -8.76539946e-02  1.14602176e-02  5.16282059e-02
   2.03671679e-03 -1.78814516e-03  1.63641423e-02  8.53008963e-03
   3.86389829e-02 -6.64283633e-02 -6.14445247e-02 -7.20822737e-02
   5.88327833e-02 -3.70396823e-02 -4.45572920e-02 -2.24825088e-03
  -8.02739989e-03  1.09919026e-01 -1.38707966e-01 -1.21926107e-01
   4.05882858e-02  1.31807700e-01 -2.49505222e-01 -4.24008369e-02
   1.13078840e-01 -2.78586950e-02 -5.30884834e-03  3.68939415e-02
   1.65105954e-01 -8.54684692e-03 -1.07479189e-02 -2.52567112e-01
  -9.91131440e-02 -1.40283238e-02  6.60619736e-02  5.21614701e-02
   3.10001206e-02 -4.30594534e-02  1.90719679e-01  6.84279948e-02
   1.89976424e-01 -2.43583061e-02  4.85887229e-02 -5.41054793e-02
   1.37258008e-01 -1.20925605e-01  1.11944519e-03  7.34388977e-02
  -8.56602564e-02 -4.45632972e-02  2.15941325e-01 -3.91280800e-02
   1.82103813e-02  1.41569182e-01 -4.66576070e-02 -3.31592709e-02
   9.28827450e-02 -3.52380350e-02  2.89562792e-01 -1.96849257e-01
  -7.29617476e-02 -9.39560831e-02 -1.77195773e-01 -4.71516885e-02
   5.73352957e-03  3.82863767e-02  5.55097312e-03 -1.03906598e-02
  -7.74044096e-02  8.77266657e-03 -6.37242571e-02 -1.11451253e-01
   7.63371936e-04  6.34944513e-02  5.90291480e-03 -1.23235455e-03
   2.92323474e-02 -7.09323436e-02  3.23077530e-01 -7.90380761e-02
   2.96897680e-01 -4.87429649e-02 -3.85322094e-01 -2.99045444e-01
  -5.17608374e-02 -1.06084393e-02  5.45294471e-02  1.36650885e-02
  -1.67026579e-01 -1.58408582e-01 -3.24128978e-02 -2.94836223e-01
  -3.00354540e-01 -5.03725596e-02 -1.58548467e-02 -4.83223572e-02
   4.80977781e-02 -5.48015088e-02 -1.70282461e-02 -7.92863294e-02
  -5.10551035e-03 -1.77591011e-01 -3.68606336e-02 -4.47636843e-02]
 [ 1.74155924e-02  4.09497581e-02  2.19025865e-01 -5.27371690e-02
   1.03983201e-01 -1.00245476e-02  1.12347063e-02 -1.54428445e-02
   2.74859041e-01  8.90806466e-02  1.53402358e-01  2.95744799e-02
   1.49045348e-01 -2.50088833e-02 -3.55360284e-02  3.58120501e-02
  -4.55836430e-02 -3.26546729e-01 -5.06156571e-02 -5.96612357e-02
   5.22033237e-02  1.07264094e-01  1.92655101e-02 -6.40986413e-02
  -1.72947094e-01  5.68016991e-02 -1.75253507e-02  4.42629457e-02
   3.48588005e-02 -1.68963484e-02  1.98194049e-02  1.99177023e-02
  -3.92373279e-03 -3.05294134e-02 -1.29619658e-01  9.34116393e-02
  -3.93040627e-02  4.03751396e-02 -9.70798451e-03 -3.62322181e-02
   3.30035873e-02  2.73728549e-01 -6.07771389e-02  9.55671296e-02
  -6.59555197e-02 -3.08321506e-01 -1.41024413e-02  1.14529906e-02
  -3.85590464e-01 -1.16930194e-02  4.39584837e-04 -1.41461104e-01
   1.24164462e-01 -9.57393870e-02 -8.07289779e-02  2.02362314e-02
  -6.56239316e-02  5.84450886e-02 -4.74340506e-02 -5.96857769e-03
   8.99258330e-02 -1.77616462e-01  2.09507309e-02  4.92284223e-02
  -1.52124494e-01  3.21825147e-02 -6.93608299e-02 -4.72405739e-02
   3.68800431e-01 -6.75694793e-02  4.45361920e-02  1.52525874e-02
   8.05140734e-02  1.01842564e-02 -4.70724031e-02 -4.25263308e-02
  -3.55096944e-02 -2.17609897e-01  3.46970409e-02  3.98159549e-02
  -1.39056891e-01  1.77516118e-01  6.22185767e-02  4.86710630e-02
   1.49091586e-01  5.95583618e-02 -1.06836051e-01 -3.20456401e-02
   8.13188963e-03  3.10423411e-03  3.00740059e-02  2.61634700e-02
  -1.20013366e-02 -2.17789523e-02  1.68430373e-01 -1.73837781e-01
   1.57015249e-01  1.01784188e-02  5.76840295e-03 -1.20165395e-02
   1.61842071e-02 -5.59748039e-02 -2.19668418e-01 -8.39987099e-02
   1.19737171e-01 -6.72023296e-02 -1.89581603e-01 -7.03749508e-02
  -5.47414366e-03  1.55284986e-01  3.95217091e-02 -6.01251982e-02
   1.83067679e-01  9.56341065e-03  5.73553378e-03  1.39432207e-01
   9.22975913e-02 -1.06894217e-01 -2.99486686e-02  7.07203597e-02
  -2.04246002e-03  1.10995593e-02  3.36750522e-02 -9.38342810e-02
  -6.47294670e-02 -2.67304957e-01  3.50581333e-02  2.91349124e-02]
 [ 4.84850965e-02 -8.31782725e-03  1.82170108e-01 -6.27732426e-02
  -1.39057070e-01 -6.52130991e-02 -6.91625848e-02 -6.33028671e-02
  -1.22704849e-01  9.83671173e-02 -1.75436839e-01 -1.15406893e-01
  -5.68554886e-02 -2.48181578e-02 -5.10133132e-02  1.34263774e-02
  -1.46217793e-02 -5.20815216e-02 -2.93309651e-02 -5.81165068e-02
   9.12687555e-02  1.24389015e-01  1.01000015e-02  1.56838819e-03
   1.04475833e-01  3.19198258e-02 -8.02267641e-02 -7.56336972e-02
  -4.67943922e-02 -2.75263265e-02  1.10242106e-02 -7.58044422e-03
  -3.37258242e-02  3.31267975e-02 -1.59978017e-01 -5.69061525e-02
  -3.19619812e-02 -2.69128382e-02 -7.60826692e-02 -4.96576764e-02
   4.62467745e-02  7.76012465e-02  6.46784529e-02  2.33634859e-02
   2.51120292e-02 -2.82748312e-01 -1.61940586e-02 -5.04624136e-02
   6.65360913e-02 -4.89314832e-02  5.54708671e-03 -3.47114429e-02
  -8.03079903e-02  1.42612725e-01 -8.56356025e-02 -8.34275112e-02
   5.19475900e-02 -4.98678312e-02 -1.51791528e-01  3.32000889e-02
   2.15944555e-02 -2.12933823e-01  8.50246325e-02  1.78196393e-02
  -8.26407671e-02  1.91637711e-03 -5.42290322e-02  7.78378593e-03
   7.40356594e-02 -6.38263673e-02  1.64371487e-02  4.70196418e-02
   8.77473280e-02 -1.63076576e-02  9.74804685e-02 -2.77899951e-02
  -4.28440720e-02 -1.17236860e-02  2.39679348e-02 -6.39511943e-02
  -1.78667926e-03 -1.20265640e-01  1.11397859e-02 -2.26342455e-02
   5.35768922e-03  3.89776491e-02  3.19006406e-02 -4.24646167e-03
   3.09243668e-02 -2.42126063e-02  2.49162558e-02 -5.98760135e-02
   4.78350297e-02  8.90742522e-04 -1.28849238e-01  1.29984319e-01
  -5.35665043e-02  1.03839021e-02 -3.59709226e-02 -4.10480127e-02
  -5.26268817e-02  6.70358539e-02 -1.56657577e-01  1.47259668e-01
  -1.10780761e-01 -6.36720881e-02  7.13894442e-02  5.70903048e-02
   1.21479649e-02  3.44702937e-02 -2.50272844e-02  1.43148854e-01
   1.39716581e-01  1.61387682e-01  2.33307797e-02 -1.15375794e-01
   4.82698064e-03 -3.71244997e-02 -1.82619821e-02  2.74483170e-02
  -5.81403775e-03 -4.50993096e-03 -3.39057408e-02 -7.82326795e-03
  -7.04496726e-02  2.82413643e-02 -3.33124995e-02  7.40681738e-02]
 [-2.56691389e-02 -8.98658112e-03 -1.38495788e-01 -6.63761795e-02
  -4.37517941e-01  5.30129671e-02 -2.30309386e-02  3.98341566e-03
  -1.60547197e-01  1.48562461e-01  5.00442795e-02  2.81232018e-02
   9.02437121e-02 -1.52762225e-02  5.48406132e-02  3.26495692e-02
   1.62200555e-02 -2.24015743e-01 -6.65324479e-02 -1.95674654e-02
   4.48455036e-01 -1.54492661e-01  1.47883715e-02 -1.81350019e-02
  -3.18288624e-01 -2.18430728e-01  2.63671465e-02  3.23945954e-02
   2.76204441e-02  4.34428975e-02 -1.84049699e-02 -1.40569953e-03
   2.13494636e-02  1.50614353e-02 -2.87238479e-01  2.09129062e-02
  -6.96911663e-02  1.80210974e-02 -7.50841498e-02  4.06979956e-02
   3.49630415e-02  1.09257415e-01 -6.86197877e-02  3.73316593e-02
  -5.60725518e-02 -2.70439714e-01 -1.13253713e-01  1.12802006e-01
   2.10490882e-01 -3.22395861e-02 -7.77054876e-02  7.23267570e-02
   2.25892588e-02 -3.82686928e-02 -1.38384616e-02 -7.11980648e-03
   1.97576076e-01  4.22618948e-02 -3.89138758e-02 -5.68706393e-02
   5.36361933e-02 -4.36950803e-01  2.50074267e-01 -4.27735364e-03
   1.60566062e-01  2.18768604e-02 -2.35189013e-02 -2.35633645e-02
   9.23506171e-02  2.53268450e-01  5.07904179e-02 -2.24238709e-01
   9.10327807e-02 -5.44409342e-02 -1.70488179e-01  1.18639972e-02
  -2.15502530e-02  8.96141902e-02  3.03841289e-03 -2.46799346e-02
  -6.66690245e-02  1.61086798e-01  9.94991791e-03  1.23498730e-01
   9.30503234e-02  2.46270314e-01 -2.14932095e-02 -5.32955676e-02
  -7.45940432e-02  2.36817496e-03 -3.24575976e-02 -5.65787498e-03
   4.49566096e-02  3.04647395e-03  1.67795494e-01 -9.44647640e-02
   3.54592688e-02  4.61797928e-04  2.78679770e-03 -1.60047337e-02
   2.57562883e-02  1.58285677e-01  3.63190889e-01  9.21766609e-02
   2.44836107e-01 -1.15513084e-02 -7.62508018e-04  2.33998388e-01
  -5.90620190e-02  8.45292583e-02 -1.61633287e-02  5.04980385e-02
  -5.45579717e-02  1.62678912e-01  1.77731104e-02  2.90833339e-02
   8.00182205e-03 -3.85744907e-02 -3.31292823e-02  1.00891635e-01
   1.70912623e-01 -9.53119714e-03 -1.03897005e-02 -3.51830930e-01
  -1.83334768e-01 -2.72406489e-01 -3.54137830e-02 -2.61887237e-02]
 [-5.15745394e-02  1.37648180e-01 -1.58742780e-03  4.41046944e-03
  -9.13115293e-02 -3.24704312e-03  1.19506735e-02 -1.49028772e-03
  -9.48375538e-02  4.75567812e-03 -2.22327739e-01 -1.54328555e-01
   3.64252403e-02  6.68998389e-03  3.06856004e-03 -2.86195315e-02
  -2.41577532e-02 -7.50588179e-02  9.79955215e-03 -2.15755515e-02
  -4.38013040e-02 -4.16635722e-02  2.54524611e-02 -1.43619662e-03
  -1.75055161e-01  1.12969510e-01 -8.62712637e-02 -2.18322929e-02
  -5.69870807e-02 -4.33258526e-03  3.48459631e-02 -5.98322088e-03
  -2.28463523e-02 -1.16582513e-02  5.88855781e-02  7.57584944e-02
   3.63760889e-02  4.03462024e-03 -4.43445817e-02  2.03424208e-02
  -8.60405434e-03  6.26472309e-02 -7.70758390e-02 -1.25792250e-01
   3.97281675e-03 -6.06538914e-02 -1.55085355e-01 -8.08770359e-02
  -5.03836796e-02 -2.44075246e-02  4.12324183e-02  3.08309235e-02
  -6.81239218e-02 -3.30615789e-02 -2.44533084e-02  3.01413704e-02
   1.27754867e-01 -8.52239877e-02 -5.94254173e-02 -5.66227250e-02
   1.14049148e-02 -3.53574343e-02 -4.87899929e-02 -1.80383958e-02
   6.77217543e-02  5.81111386e-03  2.21495461e-02  1.71250869e-02
  -2.43987292e-02  9.06162411e-02  2.34724749e-02 -3.65271717e-02
   3.57296914e-02 -5.96736325e-03  1.25623688e-01  4.50470522e-02
   2.77078152e-02 -8.93705934e-02 -6.00217916e-02 -2.29648035e-02
   1.20083176e-01 -1.23759456e-01 -2.99769551e-01  4.30390052e-02
  -6.37563467e-02 -6.16299398e-02  8.89196321e-02 -7.88259730e-02
  -1.68272238e-02 -2.77000223e-03  3.61941643e-02 -4.14235890e-02
   2.11562980e-02 -3.87156010e-02  1.03922067e-02 -6.66284636e-02
  -5.97388782e-02  2.19768174e-02  2.05493923e-02 -1.69453342e-02
   4.55887392e-02 -4.28222828e-02  4.74542342e-02  6.21509366e-02
  -8.96383151e-02  4.62810621e-02 -6.32651374e-02 -1.30934015e-01
  -2.04136595e-02 -1.24523863e-01 -1.05530240e-01  9.89556760e-02
  -6.13634987e-03  6.43033460e-02  4.41498570e-02  2.02210266e-02
   1.46864206e-01 -4.41209087e-03 -1.50005138e-02  1.22477002e-01
  -1.34422198e-01  9.85133345e-04 -1.72071741e-03 -1.16950974e-01
  -2.57272065e-01 -4.57208119e-02  2.54587252e-02  1.46414461e-02]
 [ 4.47369460e-03 -3.54411751e-02  7.11155161e-02 -6.93441257e-02
  -2.29113176e-03 -2.63400041e-02 -6.39507920e-02 -5.22492677e-02
   5.56165501e-02 -1.11242697e-01  3.60788964e-02 -5.56011759e-02
  -1.75777357e-03 -3.30082490e-03 -4.14302722e-02 -4.85504530e-02
   2.00218633e-02  2.77791992e-02 -3.16263624e-02 -2.30457932e-02
  -1.56006396e-01 -4.94475588e-02  4.37332503e-02  1.04577160e-02
  -8.58238861e-02  1.05089195e-01 -2.23042201e-02  1.20438449e-02
   2.72967331e-02 -2.36542094e-02 -3.31093138e-03  5.46892062e-02
   7.75621831e-03  5.01928777e-02  1.77788064e-01 -2.96316147e-02
  -5.59720099e-02 -4.41858470e-02  1.96414981e-02  4.68536951e-02
   4.76135612e-02  1.43529877e-01  4.23898175e-02 -3.91108505e-02
   2.04590964e-03 -3.89342196e-02  1.54339612e-01  7.29761794e-02
  -2.78277695e-01 -4.23531458e-02 -5.91701157e-02  5.37556410e-02
   5.81257604e-02 -4.15663840e-03 -7.77771249e-02  8.30899924e-02
  -3.76262665e-02  8.66270810e-03  1.82792202e-01 -2.92841475e-02
   1.15391031e-01  1.33442000e-01  9.66247171e-02  1.09309657e-02
  -1.10754378e-01 -5.57665378e-02 -5.89747541e-02 -4.84261774e-02
   8.89658462e-03 -3.56894881e-02  3.39908749e-02 -2.47372519e-02
  -2.26150900e-02 -5.68550602e-02  8.46118182e-02 -6.10779561e-02
  -2.45367829e-02 -7.22018704e-02  1.79256387e-02 -5.78205809e-02
  -2.34675705e-02 -3.57424803e-02 -7.75967762e-02 -7.00454786e-02
   1.66861296e-01  1.15959108e-01 -1.02552831e-01  3.34027447e-02
  -6.58439472e-02 -3.50345112e-02 -1.07952692e-02  2.29171459e-02
  -8.62719938e-02 -1.84195600e-02  1.90240480e-02 -1.76488105e-02
  -1.67283744e-01 -5.85362725e-02 -5.00455201e-02 -4.06808816e-02
   4.16944548e-02 -1.18216582e-01 -6.15644492e-02 -1.82040483e-02
  -2.30106972e-02 -5.07432967e-02 -7.97692612e-02 -6.55131340e-02
   9.27450806e-02  9.18216109e-02  4.34425995e-02 -1.17870234e-01
  -1.32040372e-02  2.56076790e-02  9.05062072e-03  1.12028621e-01
   3.42668705e-02 -1.44537240e-01  2.69433018e-02  1.06564514e-01
  -8.90488476e-02 -1.20096272e-02 -3.79770994e-02  1.12770669e-01
   1.96166988e-02 -1.61916971e-01 -6.14926144e-02  1.57858253e-01]
 [-5.11540510e-02  4.16745991e-02  6.72025457e-02  1.86732449e-02
  -2.83857305e-02  7.24511147e-02  3.18917781e-02  2.71300375e-02
   4.18845564e-02 -2.74674147e-01  1.42541945e-01  3.01884800e-01
   8.08496028e-02 -6.44700229e-02 -7.20889866e-03  3.21225785e-02
  -5.70860468e-02 -8.03928077e-02  4.84671183e-02 -2.05257647e-02
  -6.52650818e-02  1.60116181e-01 -4.33995128e-02 -6.12186231e-02
   3.57686169e-02  5.11648916e-02 -2.03089155e-02 -1.19279154e-01
   2.89930142e-02  3.58496308e-02 -3.02911978e-02  2.45735515e-02
   1.59022585e-02  5.34549803e-02  3.52784321e-02 -1.74510822e-01
   1.27978520e-02 -2.66741514e-02 -3.53206135e-02  3.99373472e-02
   3.17992270e-03  2.98459250e-02  7.85962343e-02 -2.18619958e-01
  -2.92033292e-02  3.05773765e-01 -1.26919836e-01 -2.02847067e-02
   2.38230545e-02  1.26679884e-02 -6.91172481e-03 -6.35124817e-02
   5.07867709e-02  8.27084035e-02 -2.84520760e-02 -2.83153504e-01
  -1.62673831e-01  9.04876739e-02  5.92350923e-02 -1.07086003e-02
   2.80156136e-02 -5.31925298e-02  4.67216969e-02  1.40684590e-01
   1.79519221e-01 -2.23375782e-02  6.16311245e-02  2.21676342e-02
   1.81357116e-01 -3.05191964e-01 -4.92175063e-03  2.23250389e-01
  -1.39709085e-01 -3.43980044e-02  1.41310588e-01 -1.75497122e-02
   3.73762324e-02 -3.36273275e-02  1.70029923e-02  1.23686194e-02
   6.67799339e-02  1.40705518e-02  2.00515255e-01 -2.56856143e-01
   3.27755027e-02 -1.29887611e-01 -2.30872914e-01 -5.18727377e-02
  -8.52600206e-03  1.78990215e-02  5.38184214e-03 -6.29192963e-02
  -4.03170846e-02 -5.13989031e-02 -3.12308799e-02  2.88353972e-02
   1.28243595e-01 -6.51953593e-02  1.81020573e-02  3.43627185e-02
   4.78192195e-02 -6.76936135e-02  1.48192793e-01 -1.43015794e-02
   3.68389972e-02  1.51511878e-02 -2.15872437e-01 -1.13786131e-01
   2.22665742e-02  6.34158030e-02  1.78401619e-02  2.30240434e-01
   2.92270761e-02 -1.05119780e-01 -5.82246147e-02 -2.55633056e-01
  -4.03637052e-01 -3.53974476e-02 -4.80737761e-02  3.59602533e-02
   1.70584127e-01 -1.22574493e-02 -7.16108382e-02  1.22611910e-01
   1.16449594e-01 -9.25924629e-02  6.03916235e-02  2.14065872e-02]
 [-3.91037688e-02 -3.93674299e-02 -3.10979545e-01 -1.63418520e-02
   1.96609706e-01  3.72426808e-02 -3.31507921e-02 -6.07803538e-02
  -8.42527598e-02 -1.92648426e-01 -1.63372785e-01  2.16083705e-01
   9.05490369e-02  8.49421194e-04  1.49868056e-02  1.62195414e-03
  -2.74300436e-03  1.66499928e-01 -6.79527223e-02 -6.66135922e-02
   9.43204686e-02  8.62198249e-02  9.42231435e-03 -1.07374974e-02
  -4.77003530e-02 -1.23974845e-01 -3.91300432e-02 -1.13865703e-01
  -5.07299937e-02  2.64740381e-02  1.58413462e-02  2.83316663e-03
  -1.40061043e-02  4.88704070e-02 -3.54286581e-01 -2.50933729e-02
  -2.97791660e-02  3.75496782e-02 -7.07371384e-02 -6.53373674e-02
   7.36570172e-03 -1.21235773e-02  1.13574773e-01 -1.81856304e-01
   1.09693957e-02 -7.66189247e-02 -1.19343907e-01  2.68218201e-02
   2.31778488e-01  5.26869744e-02  3.78022939e-02  3.43701988e-02
  -2.03054726e-01  1.25662237e-01 -7.42994621e-02 -2.79083997e-01
   1.72118023e-01 -8.78339782e-02 -7.78479204e-02  3.22303362e-02
  -3.78527977e-02 -1.76570043e-02  9.18874443e-02  1.43942311e-01
   8.41675401e-02  1.06620695e-02 -1.85626391e-02 -5.34444340e-02
  -1.80607941e-02  6.36065081e-02 -5.16930642e-03  1.62488759e-01
   1.99648082e-01 -2.38362700e-03 -2.51257390e-01  1.96930673e-02
  -6.62617236e-02  2.43489340e-01  6.49568439e-03 -4.11153808e-02
   6.99590072e-02 -9.25530493e-02 -1.98019743e-01 -2.05317736e-01
   1.43469527e-01 -1.34619683e-01  1.42576084e-01 -3.36874425e-02
   4.49209772e-02 -3.31105404e-02 -5.34862913e-02 -5.16129322e-02
  -6.77871555e-02 -3.79772810e-03  1.74316540e-01  2.10005105e-01
  -2.41696239e-02 -5.93761802e-02  4.04216873e-04  4.41771485e-02
   2.63054157e-03  2.41949290e-01 -2.73149043e-01 -4.17217836e-02
  -7.78708756e-02 -6.34448081e-02 -1.84769899e-01 -1.44284979e-01
  -1.10913500e-01 -1.42357126e-01 -1.45977000e-02  2.34123439e-01
   1.27074003e-01 -1.20828018e-01 -5.61610349e-02 -1.66861743e-01
   1.69490576e-01 -1.12043485e-01 -9.92950425e-03  4.68490198e-02
  -4.41643856e-02  3.34373154e-02  4.11510020e-02 -1.57937109e-01
   3.83070856e-02  2.69823134e-01 -4.40157391e-02  8.68604407e-02]
 [-1.75470561e-02 -1.49203464e-02 -2.31977627e-01  6.37263507e-02
   1.19634494e-01  1.85286952e-03  1.71736430e-03 -1.82657763e-02
  -4.20846969e-01  1.57253891e-01 -8.57554972e-02 -1.93228610e-02
  -9.53440219e-02 -2.57468764e-02 -7.33998278e-03 -3.18944687e-03
  -5.40026464e-02 -8.12317710e-03  9.33553372e-03 -9.02437977e-03
   2.27990150e-01 -1.29627511e-01  2.70190723e-02 -1.11843832e-03
   9.70649943e-02 -2.73871068e-02 -1.05194613e-01  8.09725467e-03
  -4.11859639e-02  4.81150001e-02 -2.17164457e-02  5.15661091e-02
  -6.62989616e-02  3.58881056e-02 -9.79787186e-02 -8.01705346e-02
   6.78191520e-03  4.07097340e-02 -4.76462133e-02  2.85443105e-02
  -5.06073423e-03  2.95593422e-02 -1.95269108e-01  4.70255837e-02
  -1.97283234e-02 -4.82169949e-02 -7.22695738e-02 -5.50605403e-03
   1.62704736e-01  5.50027192e-03  1.59083381e-02  9.11316574e-02
  -9.10970196e-02  9.17939246e-02 -2.72657536e-02  8.10068399e-02
   1.14829093e-01  7.90237337e-02 -9.44013000e-02 -9.13228653e-03
  -9.88828018e-02 -5.44487655e-01  8.85005742e-02  7.78196529e-02
  -1.52274296e-01 -9.40170214e-02  5.30153029e-02  2.59434339e-02
  -2.77153542e-03 -2.82536279e-02 -3.63651812e-02  7.72176981e-02
  -8.48259702e-02 -1.55523298e-02 -8.00881758e-02  8.60673562e-03
   3.76668945e-02  6.21382855e-02 -6.49069995e-02 -5.62460870e-02
   3.95912044e-02 -5.09411730e-02  1.18683450e-01  4.64849621e-02
  -1.27642348e-01  1.67779699e-01  6.95648417e-02 -2.48753675e-03
   4.58154194e-02 -3.17825302e-02 -2.03988887e-02  3.12584918e-03
   2.07886130e-01 -1.22455098e-02 -8.83173645e-02  8.12554061e-02
   6.87053502e-02  7.58090289e-03 -7.67818559e-03  1.94938686e-02
   1.00529725e-02  1.84625566e-01  2.62157293e-03  7.08524138e-02
  -7.80564249e-02  1.85616203e-02  2.55352914e-01  1.65325940e-01
  -2.00171378e-02 -2.32305884e-01 -5.68111334e-03  1.79007351e-01
  -1.18741728e-01 -3.69885713e-02 -1.62858758e-02 -1.72858953e-01
  -5.65863550e-02 -2.32864078e-02 -4.35147919e-02  7.65977055e-02
   6.03161799e-03  3.19368169e-02 -3.93004753e-02 -2.34503657e-01
   8.76888186e-02 -4.86025736e-02  1.57535207e-02 -1.98328406e-01]
 [ 3.13354358e-02  2.74108090e-02 -2.53698826e-01 -2.15965342e-02
  -9.17489529e-02 -2.53022425e-02 -6.38716146e-02 -1.54199665e-02
   5.41959107e-02  1.00316659e-01  1.02556087e-01 -1.31333247e-01
  -6.94136471e-02 -4.05607931e-02  2.55749878e-02 -3.44726443e-02
   5.63009037e-03  2.05283985e-02 -3.81559655e-02  3.84602370e-03
   2.90756077e-01  3.98897715e-02 -2.76837442e-02 -6.47788644e-02
  -2.30681539e-01 -1.81078404e-01 -5.78431366e-03  8.91641080e-02
   1.15777021e-02 -1.97230130e-02 -5.35659790e-02 -4.04188745e-02
  -6.59857318e-02 -5.84920980e-02 -1.84890162e-02 -1.15751170e-01
  -7.02416226e-02  3.95089239e-02 -7.33809173e-03 -5.59770095e-04
  -2.60538515e-02 -7.20167384e-02 -1.90951973e-01  3.00390571e-02
   1.62660852e-02 -1.65803403e-01 -5.86869083e-02  5.98361008e-02
   1.66176438e-01 -2.73478329e-02 -6.04780316e-02  1.90145612e-01
  -4.74132486e-02  1.92417771e-01 -4.83426824e-02  2.23111957e-02
   2.41466433e-01 -7.27277249e-02  4.35958849e-03  1.23954788e-02
   4.56033610e-02 -2.50169128e-01  5.76610975e-02  1.98883060e-02
   4.30755876e-02 -1.03488453e-01 -3.76697890e-02 -5.36568798e-02
   8.81634206e-02  1.67793438e-01  2.61813793e-02 -7.39213377e-02
   2.48562526e-02  4.44375053e-02 -1.16870709e-01 -2.55401130e-03
   5.05750515e-02  6.24501929e-02  3.20530534e-02  7.92048872e-04
   1.81029022e-01 -3.24902199e-02 -5.63808940e-02  1.97315663e-02
   9.31006446e-02  3.96462902e-02  2.32550532e-01 -2.96533536e-02
  -8.91036727e-03 -3.13747600e-02  4.92843688e-02  7.94596318e-03
   2.86584496e-02 -6.42210394e-02  7.87065625e-02 -1.32659644e-01
   2.62024556e-03  1.87180601e-02 -1.02651073e-02 -2.43302025e-02
  -1.10017285e-02  1.37221087e-02  2.23326981e-01 -2.39322931e-02
   1.28473237e-01 -6.18593097e-02 -7.54230618e-02  5.74761666e-02
  -2.86092572e-02 -3.97833735e-02 -3.21852528e-02  9.55563858e-02
  -4.15088423e-02  1.09233940e-02 -7.75058717e-02  3.70992832e-02
   4.98821735e-02 -5.39633371e-02  5.15923351e-02  1.69231489e-01
   5.23392633e-02 -2.64123715e-02  2.40430254e-02 -1.25980983e-02
  -7.62341637e-03  2.10269280e-02 -7.16552278e-03  1.03484772e-01]
 [-2.86206789e-03  5.14339916e-02  1.14561748e-02 -5.02468161e-02
  -1.59976661e-01 -4.74869125e-02 -2.98883766e-02 -1.71391685e-02
  -7.00837374e-02 -3.39237601e-02 -2.61944234e-01 -6.68992624e-02
  -2.97799576e-02  1.99615359e-02 -6.53905468e-03 -2.14683898e-02
  -6.46056840e-03 -5.26377745e-03 -2.34073121e-02 -4.77349712e-03
  -1.36079580e-01  7.22741999e-04 -4.40961830e-02 -4.35094535e-02
  -1.43766999e-01  1.75213348e-02 -2.21952405e-02 -6.78671673e-02
  -4.30618878e-04  4.33495417e-02 -4.24077436e-02 -2.49631982e-02
  -6.31819814e-02 -3.33499201e-02 -5.43103134e-03  5.29256873e-02
   4.24374379e-02  8.93859565e-03 -4.31179767e-03  3.08027165e-03
   3.92234065e-02  1.21671282e-01 -8.12564269e-02 -1.22651681e-01
  -3.00861113e-02 -1.20858274e-01 -1.05063565e-01  1.61187127e-02
  -8.23774263e-02 -3.42744216e-02 -2.51050573e-03 -6.00118861e-02
  -5.64755946e-02 -6.64073527e-02 -2.06038263e-02 -5.01597635e-02
   1.08876243e-01  1.08011775e-02 -2.96152625e-02  1.59512013e-02
   6.91755936e-02  8.50857142e-03 -1.36312759e-02 -8.12932923e-02
   6.77366741e-04  6.13133889e-03 -3.85414697e-02 -6.65614456e-02
   2.57241447e-02  1.20186694e-01  1.70198530e-02  8.73683486e-03
  -2.87338570e-02  2.23726463e-02  7.32571036e-02 -2.56884564e-02
   5.54253021e-03 -2.38740146e-01 -1.73132779e-04 -2.56242994e-02
  -7.39515424e-02 -5.24634570e-02 -1.61403477e-01  9.46351662e-02
  -6.15722649e-02 -2.12516710e-01  3.62615567e-04 -8.07352215e-02
  -3.97123061e-02  1.48079554e-02 -1.23879323e-02 -1.79347973e-02
  -1.19070113e-01 -6.82662427e-02  3.66447493e-02 -1.62916426e-02
  -3.06980684e-02 -3.86370979e-02  1.90438610e-02  2.67820638e-02
  -1.82504661e-03 -1.19132727e-01  1.62260106e-03  9.63586476e-03
  -3.21581997e-02  5.15307253e-03  4.45954641e-03 -9.03120413e-02
   3.90319489e-02 -5.53802885e-02 -9.35218409e-02 -6.82335049e-02
  -1.69217009e-02  1.27672642e-01  7.92252831e-03  2.64114682e-02
   3.61389630e-02 -2.66215224e-02 -5.29231317e-02  1.64047852e-01
  -3.17102484e-02  6.01721043e-03 -2.73617897e-02 -7.43813738e-02
  -1.21970169e-01 -8.85600671e-02 -5.75847887e-02  1.20733097e-01]
 [ 2.61676740e-02 -6.08445108e-02  8.65708664e-02 -3.08203213e-02
  -7.83443823e-02 -8.24284703e-02  1.67908636e-03 -5.68944812e-02
   2.65367292e-02 -1.41938388e-01  7.79088736e-02 -9.67592224e-02
   4.99234013e-02  2.23861411e-02 -5.92758553e-03 -7.41367182e-03
  -1.65351778e-02 -4.95118648e-02 -2.23737210e-02 -7.65373115e-04
   1.87517069e-02 -5.46606891e-02 -2.10021120e-02 -1.44677535e-02
  -6.41549751e-02  4.50964682e-02 -2.79567316e-02 -3.27243209e-02
   3.06384955e-02  2.47746636e-03  1.38202030e-02 -3.69249023e-02
   5.98129258e-02  1.83491074e-02  1.49869218e-01  4.25948873e-02
  -1.03900731e-01 -6.04428118e-03  3.98083366e-02 -5.34087531e-02
   3.09233814e-02  8.68670046e-02  9.06577259e-02 -2.15115339e-01
   2.69442033e-02  2.45843586e-02  1.09972402e-01  1.45009644e-02
  -1.67762086e-01 -4.59644943e-03 -8.00829846e-04 -5.23664691e-02
  -4.93266843e-02 -1.87057778e-02 -5.42801283e-02  2.50209076e-03
  -5.18838875e-02  1.97407473e-02  2.15601102e-01 -1.59580056e-02
   9.41500738e-02  3.48918885e-02 -1.45072071e-02  7.63943121e-02
  -6.31774440e-02 -5.12820669e-02 -2.79674251e-02 -7.99029991e-02
  -3.31705734e-02 -2.92108003e-02  1.09866988e-02 -1.93832740e-02
  -4.11968632e-03  9.32825170e-03  3.70758586e-02  2.59142201e-02
   2.81081721e-02 -6.09010123e-02 -6.20070584e-02 -2.50855461e-02
   8.34682360e-02 -5.84395491e-02 -7.37933517e-02 -3.45243253e-02
   3.52228768e-02  1.84851829e-02 -1.78925276e-01  4.25072014e-02
  -1.32905683e-02  3.00896242e-02 -4.68691587e-02 -2.39548013e-02
  -1.14507079e-01 -2.08254755e-02  1.07120469e-01 -9.56092179e-02
  -1.31132096e-01 -5.05951047e-02  9.01232008e-03 -9.15331207e-03
   4.89690155e-03 -5.78978658e-02  7.07690269e-02  4.81952988e-02
  -1.12836773e-03 -3.43581401e-02 -5.55549748e-03 -1.59860045e-01
   5.01982272e-02  1.19217627e-01 -5.17849587e-02 -8.49700943e-02
   3.25903036e-02  5.04991598e-02 -1.58621985e-02  5.69913201e-02
   1.60139084e-01 -1.37077659e-01 -4.86448146e-02  5.19722886e-02
  -6.63486719e-02  3.85677218e-02 -5.06346524e-02  8.45471919e-02
  -2.95335595e-02 -7.52920434e-02  4.23464887e-02  7.71287531e-02]
 [-7.57014984e-03  3.48178968e-02 -1.15470504e-02  3.06572169e-02
   2.56169140e-02 -5.91684058e-02  2.44299136e-02 -1.47145707e-03
  -8.57294500e-02 -1.59751490e-01 -5.19988425e-02  2.81011432e-01
  -1.75452027e-02 -3.56639512e-02  6.19473495e-02 -9.20050219e-03
  -1.95973143e-02  5.46276420e-02 -1.05171623e-02  3.31195034e-02
   8.21449086e-02  1.90025106e-01 -1.33608263e-02  4.17319573e-02
  -1.04041919e-01  2.51261555e-02 -5.57863042e-02 -1.57459423e-01
  -6.77788705e-02  1.88227408e-02 -3.96049097e-02  1.61400046e-02
   5.70572242e-02 -1.62548348e-02  7.34440759e-02 -2.05220222e-01
  -1.30456369e-02  1.90058947e-02  8.43377188e-02 -3.26958932e-02
  -4.33384776e-02 -1.57618653e-02 -1.51902661e-01 -1.74650043e-01
   1.24702239e-02  1.84524119e-01 -1.12639070e-01  8.83795097e-02
   1.50179759e-01 -4.24189791e-02 -1.92826223e-02  1.34318545e-01
  -2.13066190e-02  1.15664959e-01  2.08706153e-03 -2.35509932e-01
  -4.01083566e-02  4.55814637e-02 -5.02278507e-02 -4.45389412e-02
   4.98144366e-02 -7.33557343e-02  1.95267610e-02  1.83767602e-01
   1.07867181e-01 -2.91437358e-02  1.75160682e-03  1.35668367e-02
   2.07550868e-01 -1.37426883e-01  6.45999685e-02  9.48157459e-02
  -1.83035731e-01 -1.20513886e-03  1.67219177e-01  1.42846629e-02
  -3.60144414e-02 -9.87133756e-02  1.08697265e-03 -5.55894338e-02
   1.97325841e-01  9.07551050e-02  1.23828188e-01 -9.50149968e-02
   1.37554174e-02 -1.75779507e-01 -5.43614430e-03  3.19864303e-02
   2.42022853e-02 -4.87505496e-02  1.19516887e-02 -4.34203260e-03
  -6.46286681e-02 -1.00330021e-02 -1.44988596e-01 -5.88918589e-02
   5.90362400e-02  3.75382826e-02 -2.04317644e-03  1.03408319e-03
  -1.06799486e-03 -4.33397740e-02  1.99553311e-01  1.52681870e-02
  -1.21956542e-01 -3.75454836e-02 -8.34226683e-02 -1.31581962e-01
  -6.23076688e-03 -6.72173202e-02  2.05380213e-03  2.41960794e-01
   3.29153165e-02 -1.11247830e-01 -1.67348981e-02 -2.09202513e-01
  -1.60894841e-01 -2.08724607e-02 -5.44123240e-02  1.34813666e-01
   1.22851975e-01 -3.30484509e-02 -6.91398233e-03  1.38833329e-01
   1.39416426e-01 -3.39720547e-02 -3.52542698e-02  8.27957541e-02]
 [ 1.60096362e-02 -9.31684300e-02 -3.05236578e-01 -4.27440219e-02
  -1.26826810e-02  3.10461386e-03 -5.91136813e-02 -4.62008417e-02
   3.80568653e-02 -5.38203456e-02 -3.28025781e-02  3.85810256e-01
   8.71139616e-02 -7.27532580e-02 -1.83765864e-04 -4.07744870e-02
   3.55239324e-02  7.25267380e-02 -9.37859621e-03 -8.28413442e-02
  -1.17209442e-01 -9.95451957e-02 -2.83435509e-02  1.06488829e-02
   4.86829132e-02 -2.09229648e-01 -4.74929065e-02 -9.07350332e-02
   4.22094092e-02  1.81132965e-02  2.32312435e-04  2.43994128e-02
  -4.35258076e-03 -1.61138773e-02 -3.81661266e-01 -3.91211025e-02
  -8.76867101e-02 -3.56542245e-02 -3.96356359e-03 -5.47314882e-02
  -7.92980008e-03  1.08000413e-01  2.42687061e-01  1.54625066e-02
  -2.10116245e-02 -8.37786496e-02 -2.02375308e-01 -9.83790606e-02
   2.17824042e-01 -1.71423480e-02 -2.68674679e-02  1.99348964e-02
  -1.16512448e-01  2.18039267e-02  2.40238085e-02 -3.53694081e-01
   4.64027002e-02 -3.73165607e-02 -1.85447764e-02  5.43426014e-02
  -4.05007116e-02 -1.33059591e-01  4.86488603e-02  7.97495991e-02
   1.57831367e-02 -5.85309695e-03 -5.77739179e-02 -6.43880069e-02
   1.88106578e-02 -8.40161070e-02  6.51613763e-03  1.11114159e-01
   5.57927601e-02  4.91974689e-02 -9.92766470e-02  2.80303042e-03
  -2.32017823e-02  1.27191126e-01  3.47080529e-02  3.81095558e-02
   1.10353291e-01 -1.12750590e-01 -4.17450964e-02 -1.58205733e-01
   1.06407352e-01  2.09608555e-01  2.16467410e-01  7.19122589e-04
   6.07810169e-02 -1.26116453e-02  3.28341424e-02  5.36099300e-02
  -6.09963015e-03 -4.74766418e-02  1.65028214e-01  3.62367421e-01
  -1.07513536e-02  4.40220796e-02  2.62333918e-02 -1.84541959e-02
   7.30238110e-03  8.72293040e-02 -3.46029013e-01 -1.55882478e-01
  -6.65726736e-02 -2.32190154e-02 -2.14022949e-01 -9.76037905e-02
  -8.71256813e-02  2.76517421e-02  3.39377373e-02  2.55114734e-01
   1.19451940e-01 -3.22284587e-02 -8.05730000e-02 -1.49063751e-01
  -1.18807435e-01 -1.06697895e-01  4.37290519e-02  3.70049216e-02
  -4.45406474e-02  3.34105194e-02 -3.33312862e-02 -2.34794050e-01
  -9.90261286e-02  2.85131276e-01 -4.16638404e-02  4.41777855e-02]
 [-4.00314219e-02 -1.78873286e-01 -1.60884082e-01 -1.21050328e-02
  -1.25323776e-02  3.45864296e-02 -5.54889850e-02 -4.44535213e-03
  -4.73194659e-01  1.06808916e-01 -2.53384203e-01 -3.85101885e-02
  -6.70487210e-02 -2.86197811e-02  4.15729582e-02 -3.74177955e-02
  -2.54108217e-02 -1.64112207e-02 -1.74799375e-02 -1.13972193e-02
   1.15535751e-01 -9.54456255e-02 -3.17017920e-03 -1.42128151e-02
   2.51269549e-01 -6.11663722e-02 -1.22218803e-01 -1.14014871e-01
  -4.50677685e-02 -5.31709790e-02  5.85040264e-02 -4.58468348e-02
   4.86924127e-02 -2.16418551e-03 -2.22949803e-01 -6.56563342e-02
  -8.53511617e-02 -2.32961141e-02 -3.69006954e-02  4.01052348e-02
   5.00069596e-02 -6.01088777e-02 -2.16072917e-01  1.66433662e-01
  -9.27457958e-02 -1.89877063e-01 -2.81490516e-02 -1.20372429e-01
   1.51731014e-01  1.41844926e-02 -7.82093033e-03  1.17894867e-02
  -8.57373327e-02  1.32562995e-01 -4.01419178e-02 -7.61391595e-02
   1.08421564e-01  2.64155562e-03 -8.05495381e-02  3.16876639e-03
  -4.04186919e-02 -5.06861389e-01  1.19933657e-01  1.84454154e-02
  -4.80433516e-02 -4.79970686e-03  1.12748705e-02  3.44725363e-02
  -6.67728158e-03  2.83030178e-02  5.16602583e-03  1.79065078e-01
   8.10179636e-02  3.79719213e-02 -5.13578020e-02 -1.09282713e-02
  -4.21060026e-02  2.45584697e-02  3.02175898e-02 -1.57210864e-02
   8.56197774e-02 -1.59862649e-03  7.86108077e-02  7.91675746e-02
  -2.79796291e-02  8.18671435e-02  1.37433082e-01  3.73104401e-02
  -6.52844384e-02  3.99941877e-02 -6.00371957e-02 -3.23649943e-02
   6.88088760e-02  2.73036845e-02 -1.41219035e-01  1.34639561e-01
   1.07911177e-01  9.33877600e-04 -3.66812982e-02 -4.15102206e-02
   4.52323370e-02  1.74065039e-01 -6.12962916e-02  5.68023510e-02
  -7.79255182e-02  6.53271237e-03  2.09201694e-01  1.12803265e-01
   5.90612297e-04 -1.24479465e-01 -4.67419997e-02  1.20118469e-01
  -1.25746399e-01  4.68742885e-02 -6.83300495e-02 -3.24663550e-01
  -8.22129920e-02 -5.38626162e-04  9.08402074e-03  7.34140128e-02
   1.72863044e-02 -2.47519314e-02 -7.77354836e-02 -1.62130386e-01
   7.74386227e-02  9.97340831e-05 -8.41999520e-03 -5.66479899e-02]
 [ 4.40324768e-02 -1.45873502e-01 -1.09907120e-01 -7.80875683e-02
  -1.86241508e-01 -2.74212901e-02 -6.31699786e-02 -6.46510199e-02
  -2.72897035e-01  1.27513275e-01 -6.15309961e-02 -3.48285772e-02
  -5.37933037e-02 -3.37840281e-02  2.65407860e-02  1.97143313e-02
   1.73683949e-02  1.68302208e-02 -1.51259061e-02 -3.30861425e-04
   2.60058433e-01 -2.39541844e-01 -3.48826908e-02 -5.15153110e-02
  -1.88735902e-01 -3.26573193e-01 -7.37311989e-02 -1.58459526e-02
  -3.30002382e-02 -6.15713513e-03 -3.58494855e-02  2.40764972e-02
  -4.89387996e-02 -4.13652062e-02 -5.05090430e-02  1.05636500e-01
  -1.00582587e-02  3.69825698e-02 -5.32803610e-02  3.28039117e-02
  -7.38892630e-02 -7.52774579e-03 -8.94131362e-02  1.41377598e-01
  -2.43680663e-02 -4.07913476e-01 -6.22062981e-02  6.31590486e-02
   1.89456791e-01  2.97886655e-02 -3.39613371e-02  7.67798573e-02
  -7.34488815e-02  6.15055487e-02 -5.89856543e-02 -3.99714857e-02
   2.08591446e-01  1.80890039e-02 -5.34867570e-02 -2.80125756e-02
   2.77478388e-03 -3.30264121e-01 -7.02549070e-02 -7.35023618e-02
   2.96807855e-01 -6.85564652e-02 -4.06875461e-02 -7.61237741e-02
   5.94082884e-02  3.52345616e-01  3.24359424e-02  5.55104837e-02
   6.28506616e-02  2.88177244e-02 -1.56730846e-01 -1.13848345e-02
  -4.20283712e-02  1.73732221e-01  3.14965583e-02  5.21147102e-02
   1.24479339e-01  4.19749692e-02  3.13030668e-02  1.52910769e-01
   1.83846783e-02  5.73560447e-02  2.51044869e-01  3.31592187e-02
   6.80074096e-02 -4.37094495e-02  2.27680765e-02 -5.44293672e-02
   9.19672623e-02 -1.32115334e-02 -6.42677024e-02 -2.50541240e-01
   3.39804962e-02  1.89366974e-02 -7.85016045e-02 -1.86116975e-02
   2.17950642e-02  4.08376940e-02 -7.89007265e-03  8.92816335e-02
   9.13714096e-02 -5.57861142e-02 -3.66657227e-02  1.49478570e-01
  -5.06257899e-02 -1.39083527e-03  4.02883478e-02  1.97584480e-02
  -3.26351114e-02  1.90722987e-01 -2.25824453e-02  4.20664297e-03
   1.25036538e-01 -2.56832670e-02  4.37483862e-02  7.80292004e-02
  -5.00490097e-03 -1.08221956e-02  3.80247757e-02 -3.24528180e-02
  -1.33291215e-01 -1.38071507e-01 -6.83522299e-02  1.56332105e-01]
 [ 3.08983084e-02  7.77589604e-02  1.15960725e-01 -6.86175898e-02
  -1.58374131e-01 -6.18348047e-02  1.54788159e-02  2.20144335e-02
   5.55445552e-02  8.29978064e-02 -1.99002415e-01 -9.03823748e-02
  -2.07002964e-02 -5.94237298e-02  4.12218682e-02  4.07637805e-02
   4.20480072e-02 -9.64556262e-02 -6.11357018e-02  5.46872541e-02
  -1.61810845e-01  4.70816270e-02 -5.96825518e-02 -3.06792315e-02
  -1.08123116e-01  4.48974334e-02 -7.60078477e-03  2.84355991e-02
   5.22120893e-02 -5.22164330e-02  3.53184491e-02 -4.08950187e-02
   6.89573062e-04 -3.81819680e-02 -2.54755132e-02 -1.71832349e-02
   5.21333851e-02 -2.23423522e-02 -7.15402439e-02 -7.14688003e-02
  -4.76733781e-02  5.05146869e-02  1.77797899e-02 -1.69045120e-01
  -2.34244894e-02  1.90205742e-02 -1.75831839e-01 -3.72116780e-03
  -1.16570361e-01 -9.19030514e-03  3.25059481e-02 -2.23218650e-01
   3.78302038e-02 -7.42084393e-03 -4.98463586e-03 -1.78493019e-02
   4.59284186e-02 -9.55900624e-02 -4.99301702e-02  1.27292201e-02
   3.60403061e-02 -2.79281959e-02 -2.75555961e-02 -1.32114321e-01
   5.38958013e-02 -2.89722234e-02 -6.32935241e-02  4.74947244e-02
   5.12967147e-02 -2.04114635e-02  2.26450209e-02 -4.81510647e-02
  -7.01281056e-02 -2.69230995e-02  1.35873362e-01 -3.80849047e-03
   1.31422449e-02 -2.08943546e-01  3.49810869e-02 -3.99520956e-02
  -5.13326842e-03 -1.72790792e-02 -8.35956931e-02  3.44445668e-02
   3.96862552e-02 -3.01154912e-01 -1.00988865e-01 -7.92376921e-02
  -2.97206137e-02 -3.96353789e-02  1.98735553e-03 -4.17869501e-02
  -4.98391688e-02 -7.68430810e-03  1.10403322e-01  5.26166297e-02
   5.11981361e-03  7.06172781e-03  2.20481772e-02 -6.23904988e-02
   4.69628312e-02 -1.95311196e-02 -8.13491568e-02  5.32957800e-02
  -3.18457969e-02 -3.14926803e-02 -9.31651592e-02 -5.18673137e-02
  -2.93907952e-02  9.89959463e-02 -9.29492805e-03 -4.89657745e-02
  -2.28699651e-02  6.02538809e-02 -7.19061494e-02  5.69256954e-02
   4.69214804e-02 -7.46726012e-03 -3.10570542e-02  1.02889597e-01
  -3.28203999e-02 -4.26123664e-02  1.74728092e-02 -2.58217193e-02
  -4.47194278e-02 -1.05040945e-01 -3.09472419e-02  1.72372963e-02]
 [-5.54000102e-02 -5.43314368e-02 -3.94314826e-02 -3.03863753e-02
  -7.04095438e-02  2.22607423e-02 -5.49386069e-02  4.92581129e-02
   1.49724297e-02 -1.22555539e-01 -1.24270814e-02 -8.84606838e-02
  -1.15716085e-02 -5.58671169e-02  1.62216485e-04 -1.90526675e-02
  -2.01247968e-02  1.11472473e-01 -3.47215533e-02 -5.96338548e-02
   2.28417050e-02  7.78769748e-03  3.04826666e-02  1.15909530e-02
  -3.09282281e-02  3.39916646e-02  4.39694710e-02  9.13148839e-03
   1.97789278e-02 -5.26128672e-02 -7.73534272e-03 -3.96814272e-02
   5.84075525e-02  2.43327133e-02  1.16197653e-01 -4.73426916e-02
  -4.25101370e-02 -3.93345729e-02 -5.22719659e-02  2.45705638e-02
  -6.65882528e-02  1.36164890e-03  1.94880515e-02 -2.91514456e-01
  -2.22120155e-02  7.31121795e-03  2.48788912e-02  6.74017966e-02
  -1.28216237e-01 -5.01084775e-02  2.88929953e-03  8.28835368e-02
  -2.05496494e-02  1.33429661e-01 -7.46684074e-02  4.25866209e-02
   6.10714480e-02 -5.84398843e-02  2.11727440e-01  3.12247612e-02
   5.74028194e-02 -1.11242160e-02 -3.27418521e-02 -6.95826635e-02
   3.68182771e-02 -2.86279526e-02 -5.05103450e-03 -1.00566596e-02
   6.05422370e-02  5.60466498e-02 -6.99615618e-03 -5.58779463e-02
  -9.40439776e-02  1.89992785e-02  2.71136817e-02 -4.11502644e-02
  -5.70364855e-02  2.37454865e-02 -5.55144027e-02 -6.06790707e-02
   2.01766826e-02 -7.44618326e-02  3.11006177e-02 -1.55270025e-02
  -1.59950517e-02 -1.61469041e-03 -7.78792202e-02 -6.96879849e-02
  -4.12533395e-02  3.38725187e-02 -1.41553832e-02 -4.49496172e-02
  -1.92033593e-02 -2.55270898e-02  2.47232243e-02  7.91883469e-02
  -2.14905422e-02  2.02068835e-02 -3.27509902e-02  1.26154674e-02
   6.23797551e-02 -9.80527028e-02  2.81696972e-02  5.23356535e-03
   2.42744107e-02 -6.26131520e-02  8.63197632e-03 -9.35889781e-02
  -1.63470302e-02  1.11967996e-01  5.06279282e-02 -7.30779693e-02
   4.94936258e-02  9.83699784e-03  1.16322478e-02 -1.45553183e-02
   1.27609521e-01 -1.28779247e-01 -3.66686508e-02  7.67982658e-03
  -5.59680611e-02  3.57826091e-02  6.71325922e-02  6.98671341e-02
   2.75360644e-02 -1.54296443e-01  3.87321301e-02  1.11430008e-02]
 [-2.73620244e-02  5.37143350e-02  1.46126300e-01 -4.47184332e-02
  -9.25865844e-02  9.22277104e-04 -4.19160090e-02  5.44886887e-02
  -1.06482245e-01 -1.01406023e-01 -3.13840806e-02  1.99389085e-01
  -2.13663653e-03 -4.92462665e-02  2.28016768e-02 -4.51021567e-02
  -9.26347598e-02 -1.36990324e-01 -2.38493234e-02 -2.85545159e-02
   1.81787536e-02  1.00960091e-01 -7.34982267e-02  1.06552951e-02
  -2.71096872e-03  1.37909412e-01 -8.30187723e-02 -9.81241018e-02
  -3.21933031e-02  2.80366912e-02 -6.89582527e-03 -3.89811508e-02
  -4.81213219e-02 -2.75654569e-02  4.29920712e-03  2.24680547e-02
  -7.57987350e-02 -2.48784386e-02  9.35688242e-03  6.03616750e-03
  -1.01702427e-02 -8.17779859e-04 -2.28472918e-01 -1.55297354e-01
   1.34808477e-02  2.02136278e-01  1.11238144e-01  3.94888707e-02
   1.56727079e-02 -4.75800683e-04  3.58314812e-03  1.47517705e-02
   1.15484886e-01  3.96227688e-02  1.60532549e-03 -7.51468241e-02
  -1.31289348e-01  7.21550407e-03  7.44008459e-03  5.42619731e-03
  -3.32696997e-02 -2.52981093e-02  4.68259938e-02  1.95197389e-01
  -1.15174502e-01 -6.95656240e-02 -3.40951197e-02 -3.05117574e-02
   2.11191550e-01 -4.83897030e-02  2.18920242e-02 -8.51024088e-05
  -1.18878603e-01 -1.86362416e-02  1.93900794e-01  2.65563950e-02
  -5.71829528e-02 -2.00026125e-01  3.82298231e-03  5.12889586e-02
   7.73985684e-02  1.87779230e-03  9.58939269e-02  1.25248432e-01
  -1.41819969e-01 -1.60973802e-01 -7.08319470e-02  5.94192296e-02
   1.14227440e-02  1.45538151e-03  6.18876107e-02  4.52558622e-02
  -1.49718141e-02 -2.04708502e-02 -2.70204097e-02 -1.22280195e-01
  -3.82359885e-02  5.20674884e-03  3.61973792e-02  2.72715371e-02
  -3.27898748e-02  1.02963783e-01  1.10997543e-01  3.52154225e-02
   6.23618113e-03  3.65131050e-02  3.42254750e-02 -3.14091034e-02
  -7.39406943e-02 -1.11276641e-01  6.95023984e-02  2.01869786e-01
   1.12698995e-01  2.52187196e-02 -5.74701577e-02 -7.67577365e-02
  -1.41378760e-01 -6.36700466e-02  1.44903511e-02  1.37639359e-01
   1.51029393e-01 -5.62443174e-02  2.14739852e-02  1.20649315e-01
   9.40801278e-02 -1.20779067e-01 -3.79263423e-02 -9.00415257e-02]
 [-1.49708912e-02 -1.33797124e-01 -1.62854999e-01  3.09617613e-02
   8.37121066e-03  4.35117865e-03  1.49414381e-02 -3.11705433e-02
   1.03597693e-01 -3.72592598e-01  4.16410482e-03  2.38019854e-01
   2.20915332e-01  2.69946810e-02 -2.90122833e-02 -5.90335578e-02
  -1.01250336e-02  1.12871952e-01 -5.66733889e-02 -8.04654956e-02
  -1.88126892e-01 -3.06954794e-02  1.71000306e-02  1.21596884e-02
  -6.13564253e-03 -3.27106059e-01 -9.43316799e-03 -7.48646334e-02
  -3.24014202e-03 -2.51886877e-03 -4.85433340e-02 -5.88045307e-02
  -2.86666304e-03  4.76449095e-02 -2.18810618e-01  6.98194355e-02
   1.13503262e-02  2.77612358e-04 -5.05240969e-02 -7.04324096e-02
  -2.34934893e-02  1.28131270e-01  3.54623497e-01 -2.27423292e-02
  -9.65086892e-02 -2.64333814e-01 -3.39221627e-01  1.01350196e-01
   1.34553179e-01  2.57048607e-02  3.70288715e-02 -4.23240988e-03
  -2.09556773e-01 -9.32091922e-02 -2.77330279e-02 -4.07340288e-01
  -8.42751637e-02 -1.03565618e-01  2.74116751e-02  5.68676740e-02
  -5.03633469e-02  6.67117387e-02  1.65149435e-01 -1.31378934e-01
   2.39061937e-01 -5.03592640e-02 -3.64371352e-02  4.03459184e-02
   1.94407590e-02  1.98618263e-01  3.13170701e-02 -6.26567230e-02
   1.54258087e-01 -1.60256214e-02 -2.55541061e-03 -5.45189008e-02
   2.68035457e-02  3.30565453e-01 -4.27540243e-02 -2.71682590e-02
   4.28235792e-02  1.86838716e-01 -9.66599286e-02 -2.53582358e-01
   2.17838183e-01  2.50727206e-01  2.98887581e-01  5.60108572e-04
  -5.46052773e-03  9.11035948e-03 -8.39725777e-04 -1.38422344e-02
  -1.82558671e-01  3.21855024e-03  2.71521565e-02  3.84904832e-01
   5.61498441e-02 -3.94624770e-02 -4.67453934e-02  1.46878222e-02
  -5.15076667e-02 -4.29533347e-02 -3.28453690e-01 -2.20049426e-01
  -8.58030245e-02  4.44021523e-02 -3.99925470e-01 -1.83722377e-01
  -1.04921125e-01 -7.89604187e-02 -3.94638143e-02 -8.18879157e-02
   6.62767291e-02  2.09062509e-02 -6.31551594e-02 -1.26871124e-01
  -1.31397983e-02  3.01738475e-02  4.02023569e-02 -2.01722304e-03
  -6.61465302e-02  3.42585817e-02 -4.70715091e-02 -2.08609581e-01
  -1.33759379e-01  1.98072672e-01 -3.34574928e-04  2.98844159e-01]
 [ 3.37062706e-03 -1.20052330e-01 -1.74098566e-01 -6.11534379e-02
   9.75176413e-03  5.30353468e-03  4.45266329e-02 -5.17230574e-03
  -4.57753271e-01  1.81487754e-01 -1.04186043e-01 -7.13849515e-02
  -8.38105381e-02  3.93737555e-02  2.58416701e-02  2.35624015e-02
  -2.11380608e-02 -9.11910161e-02 -5.51233329e-02  2.94483802e-03
   2.02298924e-01 -1.21097364e-01  3.56050469e-02 -7.91274302e-04
   1.35876521e-01 -1.84203628e-02 -9.08887461e-02 -4.82469834e-02
   4.69217487e-02 -3.56057622e-02 -3.98718119e-02 -4.47601080e-03
   2.12084316e-02 -5.45187555e-02 -6.20399117e-02  4.53430824e-02
  -7.41950348e-02 -2.03732289e-02 -6.37417361e-02  2.58226227e-02
   6.53919354e-02 -1.70336794e-02 -2.08968461e-01  1.55579865e-01
  -9.70940739e-02 -7.09700659e-02  8.22346807e-02 -8.31178203e-02
  -3.66806835e-02  1.44068087e-02  1.23988856e-02  6.92623928e-02
  -1.12925656e-01  7.09874555e-02 -8.23558643e-02  2.84249168e-02
  -4.10929993e-02  3.60573418e-02 -7.59125203e-02 -4.35175896e-02
  -6.03623986e-02 -4.27342176e-01 -5.43927355e-03  2.76672114e-02
  -2.08999649e-01 -9.68417600e-02 -3.12874354e-02  3.38259116e-02
   2.30963528e-03  5.62724061e-02  1.30229807e-02 -3.80390771e-02
  -9.93354898e-03 -6.51731715e-02 -1.69496238e-01  3.03592477e-02
  -4.67211648e-04 -4.65642707e-03  6.84077246e-03  4.60575558e-02
  -1.89342387e-02 -3.84789407e-02  8.63893926e-02  9.88533199e-02
  -7.17309639e-02  1.17290877e-01 -4.27849479e-02  2.61119846e-02
  -4.90440093e-02  1.57408621e-02 -1.29256975e-02  4.77255546e-02
   1.07760228e-01 -5.17487479e-03 -2.29979735e-02 -9.51990485e-03
   4.60403487e-02 -8.49737087e-04 -2.69846935e-02  2.59952638e-02
  -5.97782955e-02  1.27460659e-01 -1.84804350e-01  3.75105441e-02
  -8.00580531e-02 -8.04390758e-02  2.04344898e-01  9.97050628e-02
  -5.06772213e-02 -1.05017237e-01 -2.02332400e-02  6.36104047e-02
  -1.48845688e-01 -8.30087364e-02 -5.47503978e-02 -5.97720295e-02
  -7.55765736e-02 -9.05495062e-02  1.94421783e-03  1.82324499e-01
  -3.61099020e-02 -1.12458766e-02 -4.25980687e-02 -1.59447357e-01
  -1.04488485e-01  4.31871880e-03  2.18775366e-02 -6.32687360e-02]
 [-1.04649328e-02 -1.09121657e-03 -1.73684925e-01 -4.60032672e-02
  -5.50949760e-02 -5.76208637e-04  1.57630090e-02 -2.41769105e-02
  -3.39665592e-01  6.24639429e-02 -1.38397977e-01 -8.93857852e-02
   5.71758635e-02  2.05529425e-02 -7.13265985e-02  2.44193934e-02
  -7.96450526e-02  6.20230883e-02 -7.36516528e-03 -5.91102317e-02
   3.96095604e-01 -1.15485780e-01  2.26897132e-02  3.61298467e-03
  -2.24547729e-01 -1.99918419e-01 -7.99906328e-02  5.74492775e-02
  -8.83107632e-03 -3.43951210e-02  7.98383378e-04 -3.17922160e-02
  -1.72707736e-02 -2.00041966e-03 -1.03992480e-03  7.78394118e-02
  -2.11943053e-02  3.26299854e-02 -4.41611521e-02 -4.57719415e-02
   3.36274169e-02  1.54902386e-02 -1.94469750e-01  1.19662359e-01
   8.49744752e-02 -3.16066295e-01 -3.42090614e-02  9.14013386e-02
   1.22850738e-01 -1.97770447e-03 -3.88378091e-02  1.34328097e-01
  -1.28491983e-01  2.95747127e-02 -9.33429133e-03  6.78410605e-02
   2.93311030e-01  1.21574938e-01 -7.27659240e-02 -6.25857487e-02
   7.19422698e-02 -1.94174737e-01 -1.76321313e-01 -2.09915981e-01
   2.41123080e-01 -3.45418490e-02 -4.55637537e-02 -1.00727361e-02
  -8.77210870e-02  3.12184036e-01  7.88642187e-03 -1.13870382e-01
  -8.15825816e-03  4.10803221e-02 -2.01419130e-01  2.05576252e-02
   2.70454474e-02  2.45820910e-01 -4.91175018e-02  5.12425229e-02
  -9.17655304e-02 -5.01352502e-03  6.34255633e-02 -6.21189252e-02
  -2.13347912e-01  9.33418050e-02  1.30858660e-01  4.81906086e-02
   2.66176462e-02 -7.79240578e-02 -4.32762094e-02  1.86275411e-02
   4.50782627e-02 -1.03897229e-03 -7.75208175e-02 -1.64099321e-01
  -5.64846285e-02  3.40967961e-02 -3.76571678e-02 -5.17022349e-02
   3.38861272e-02 -5.00529557e-02  1.00765647e-02  1.74023122e-01
  -5.95954508e-02  2.19623349e-03 -7.29312077e-02  1.23270094e-01
   4.55446076e-03  1.28681017e-02  4.63607498e-02 -8.43024999e-02
  -1.18547022e-01 -5.50455377e-02 -1.75041910e-02 -4.19961363e-02
   2.24726439e-01 -9.44961086e-02 -3.86002138e-02  5.99917769e-02
  -2.59906631e-02  4.34672721e-02  2.66562942e-02 -3.10337339e-02
  -1.31202593e-01 -1.89103991e-01 -2.77935565e-02  9.38811824e-02]
 [ 2.40571517e-02  5.27932309e-02  2.06452206e-01  9.72079672e-03
  -7.80992210e-02 -7.81120881e-02  4.69091237e-02 -2.82473024e-02
   7.27429390e-02  5.68177402e-02 -1.85799643e-01 -1.28540233e-01
  -3.78240868e-02  2.33718976e-02  6.17281839e-05 -3.85384262e-02
  -6.57390952e-02 -1.58016235e-01 -3.34948041e-02  1.20539517e-05
  -5.90209477e-02  2.01366190e-02  3.97666879e-02  4.12133746e-02
  -8.97373036e-02  1.79559421e-02 -3.82794291e-02  2.50130184e-02
   4.20343541e-02  4.09847014e-02  4.20759097e-02  4.30638995e-03
  -4.30586711e-02 -4.01105136e-02 -1.34114280e-01 -1.12178698e-02
  -6.18100585e-03 -3.58258784e-02 -3.79098728e-02  3.23117450e-02
   4.82886173e-02  8.12669285e-03  6.69850186e-02 -1.50520563e-01
  -6.28024936e-02 -7.91889057e-02 -1.63397923e-01 -4.83310558e-02
  -1.16888396e-01 -4.31074388e-03 -4.14030328e-02 -2.68955141e-01
   5.31102680e-02 -1.32129164e-02 -3.85271385e-02 -8.59868079e-02
   9.92549881e-02 -4.07098755e-02 -1.23359333e-03  8.69610626e-03
  -6.02786010e-03 -1.21323861e-01  1.07739177e-02  1.22340126e-02
   1.87853917e-01 -1.93221048e-02 -3.21788304e-02 -1.34148849e-02
   1.28379777e-01  2.49670818e-02  1.84815656e-02  9.47776586e-02
   1.55538516e-02 -9.55367647e-03  8.88656229e-02 -6.73176199e-02
   7.28888065e-03 -1.30090520e-01 -5.06251566e-02 -6.17249012e-02
   1.50612220e-02 -9.40874293e-02 -1.76097468e-01  6.71218410e-02
   6.21840656e-02 -3.69394898e-01 -3.88973951e-02 -9.59035754e-03
   6.94801891e-03 -2.95327865e-02 -7.50958733e-03  3.62337790e-02
  -1.50313973e-03  5.21359444e-02 -7.95639399e-03  1.27537055e-02
  -1.28392532e-01  5.14014065e-02 -2.34192442e-02 -3.36949574e-03
   2.98894402e-02  4.48090360e-02 -7.14274421e-02  9.45713148e-02
   1.07533261e-02 -4.91553321e-02 -1.78734928e-01 -7.22162873e-02
  -1.33240158e-02  2.42366362e-02 -8.92798752e-02 -7.97412843e-02
   1.55235990e-03  7.31702298e-02  4.00498062e-02  1.25173286e-01
   4.83382903e-02  5.24118776e-03 -1.75091326e-02 -7.60370418e-02
  -4.44433233e-03 -4.86101359e-02 -2.03879457e-03 -1.69220380e-02
  -7.66237378e-02 -7.38337860e-02  3.23161706e-02  2.61307899e-02]
 [ 8.53733439e-03  2.25573592e-03 -4.58008200e-02  2.02187560e-02
  -5.49995899e-02 -6.29397109e-02  1.30868275e-02  6.56390144e-03
   1.21196592e-02 -3.40809785e-02 -1.66287515e-02 -1.21482641e-01
  -2.04430008e-03  4.09235358e-02 -1.40547846e-02  3.60693298e-02
  -4.45868000e-02  2.45731231e-02 -2.91997939e-02 -4.04166505e-02
   3.35294753e-02  8.05425867e-02  9.11176857e-03  5.00082970e-04
  -8.25737789e-02  3.10834218e-02 -4.70914645e-03  7.93483704e-02
   1.19119778e-03  2.89553124e-02 -9.95357241e-03  1.93454791e-03
  -3.95874716e-02 -5.33980057e-02  1.05661675e-01 -4.24253382e-02
  -1.90455727e-02  2.41198987e-02  3.48267630e-02  9.90101788e-03
   7.52759399e-03  1.48588195e-02  5.14802374e-02 -2.36247554e-01
   7.65641481e-02 -1.15892547e-03  5.87301562e-03 -1.34282745e-02
  -1.31981894e-02  3.00891995e-02 -3.81493457e-02  1.07622661e-01
  -7.94693306e-02  1.10693365e-01 -2.03065388e-02  1.21959612e-01
   1.87154219e-03 -3.01919281e-02  1.22471474e-01 -4.03449424e-02
   1.10905036e-01  6.55667633e-02 -1.07706457e-01 -3.41080017e-02
   4.40865047e-02 -2.31103040e-02  3.46995599e-04 -4.38223369e-02
  -7.27068633e-03 -2.52785590e-02  1.44573366e-02 -5.56609370e-02
   9.74265859e-03 -8.92890804e-03  1.43182084e-01  2.11875085e-02
   6.92657335e-03 -8.61524418e-02 -1.25151416e-02 -5.65149486e-02
  -8.29514265e-02 -2.09821947e-02 -7.65687525e-02 -2.83542573e-02
  -3.15036997e-02  1.18380003e-02 -2.51067355e-02  2.29004845e-02
  -4.39615473e-02 -6.19302765e-02 -3.48206572e-02 -3.27562876e-02
  -2.91481186e-02  9.66650713e-03  4.36373875e-02  1.31958991e-01
  -4.07913700e-02  1.67122353e-02 -2.79171695e-03 -4.32860367e-02
   3.11075523e-02 -2.42242992e-01 -1.31422970e-02 -1.34299872e-02
  -9.66657139e-03  2.70619411e-02  1.03756979e-01 -1.50795996e-01
   2.52431966e-02  1.12003580e-01  1.55141577e-02 -8.90739039e-02
   9.92288440e-03  2.29261238e-02 -4.56124507e-02  2.58422717e-02
   1.89127907e-01 -4.82161827e-02 -6.12065308e-02  1.25972271e-01
  -1.54984100e-02 -6.53081909e-02 -6.29943516e-03  6.89516142e-02
  -6.35090694e-02 -1.37333840e-01 -2.63330825e-02  1.07947104e-01]
 [ 1.90884247e-02 -5.26168197e-02  7.29155764e-02 -3.01276222e-02
  -1.20790839e-01 -2.41826884e-02  4.92854491e-02 -4.35799062e-02
  -1.31762341e-01  7.54137039e-02 -1.67665154e-01  2.22587392e-01
  -1.03484146e-01  3.64039876e-02 -5.60248494e-02  3.36926244e-02
  -7.25938752e-02 -4.31348979e-02  2.92591583e-02  2.11422723e-02
  -2.95070838e-02  1.16775908e-01 -3.52802202e-02  1.19925356e-02
   1.15419507e-01  2.09470302e-01 -1.40633387e-02 -5.92067689e-02
  -2.43987441e-02  1.07037434e-02  9.48604271e-02  4.59476523e-02
  -4.35584299e-02  4.55817506e-02 -6.43992126e-02  1.40977651e-01
   5.80814062e-03 -7.19368085e-02  2.76114270e-02  1.24301137e-02
   5.31872064e-02 -3.84546518e-02 -6.41504154e-02 -6.21606037e-02
  -7.41250589e-02  2.59897053e-01  2.06308171e-01  9.64210629e-02
   7.49352039e-04 -2.34822370e-02 -5.84693849e-02  1.10445276e-01
   2.42895470e-03 -1.78630948e-02 -1.59910321e-03 -2.08706126e-01
  -6.56932965e-02  2.89687794e-02  7.90356752e-03  2.09901445e-02
  -3.60241570e-02 -1.17201716e-01  1.16138518e-01  1.43885329e-01
  -1.67073071e-01 -2.74818074e-02 -1.67874284e-02 -6.87662885e-02
   7.50768408e-02 -2.53381766e-02 -3.79504822e-02 -1.22506380e-01
  -1.50994271e-01  5.89686027e-03  3.93535942e-02  2.34396979e-02
  -3.69152948e-02 -2.02961549e-01  2.21662559e-02 -4.48082685e-02
   1.30223796e-01  3.82922925e-02  3.60715725e-02  2.06918284e-01
  -1.83454961e-01 -3.61722000e-02  5.10170758e-02 -2.96780113e-02
   1.10377455e-02 -8.91516432e-02  1.46125210e-02  2.03042906e-02
   7.08620772e-02 -4.20509428e-02  1.94077063e-02 -7.26102665e-02
   9.00535509e-02  3.68594490e-02 -7.19869975e-03  1.17384456e-02
   2.61815246e-02  9.75049436e-02  7.65313432e-02  3.80255352e-03
  -1.60732549e-02 -4.28743586e-02  1.23441115e-01  2.57570781e-02
  -4.37274761e-02 -2.92895734e-01  2.42290366e-02  1.38065755e-01
   7.63764754e-02 -2.99880505e-02  4.84169051e-02 -1.46754399e-01
  -9.00904387e-02 -4.06748243e-02 -4.81768288e-02  1.01933770e-01
   6.69943541e-02  4.36593741e-02 -4.16982248e-02  3.16877328e-02
   5.67365512e-02 -5.74415624e-02  3.14428993e-02 -8.69856030e-02]
 [-4.02085036e-02  2.89195105e-02 -9.88912359e-02 -3.20072249e-02
   8.55838582e-02  2.61306018e-02  2.36603501e-03  5.98823130e-02
  -1.03407711e-01 -3.86392325e-01  1.15261100e-01  3.98991257e-03
   2.19413400e-01 -4.44205441e-02 -7.29496777e-02 -4.70440872e-02
   1.24228247e-01 -8.39825496e-02  1.42215583e-02 -9.26815420e-02
  -1.15516067e-01  1.89181566e-01 -2.97260913e-03 -1.37276528e-02
  -2.04139180e-03 -3.87426406e-01  8.20019245e-02 -4.20706756e-02
   2.15447098e-02  6.07761890e-02 -1.79269165e-02 -3.88907678e-02
  -8.65632016e-03 -1.98665191e-03 -4.05694842e-01 -1.69458017e-01
  -8.08262452e-02 -3.12947556e-02 -2.00555343e-02 -1.01175932e-02
   3.31249088e-02  1.69694752e-01  3.22200477e-01 -2.43489727e-01
   6.87104370e-03 -1.82359535e-02 -3.55481714e-01 -3.30079645e-02
   2.77050674e-01  3.80259231e-02  3.09338365e-02 -2.36022994e-02
  -8.93027261e-02  1.26581922e-01 -1.78518035e-02 -1.83327273e-01
   9.16830078e-03 -1.03239939e-01 -1.41371980e-01 -3.32711115e-02
  -1.52547956e-01  1.72245279e-01  1.27209313e-02 -9.61784050e-02
   1.33075520e-01 -3.93740684e-02  2.01149527e-02  6.55999919e-03
  -2.42159560e-01  6.38144165e-02 -5.84132336e-02  3.27486023e-02
   1.49492234e-01 -4.76345867e-02  1.05430700e-01 -1.02194324e-02
  -4.38270941e-02  2.33533710e-01  1.14406198e-02  4.27414663e-02
   9.15108398e-02  2.32563674e-01 -2.66459256e-01 -2.47692615e-01
   2.62713999e-01 -5.13290055e-02  1.61630437e-01  4.92399931e-02
   5.38621321e-02 -6.17830642e-02  3.31833512e-02  1.14730280e-02
   4.36489396e-02  2.69061327e-02  7.76691288e-02  2.37443596e-01
  -1.58664003e-01 -2.60483213e-02  3.69291566e-02 -4.33895364e-02
  -5.34246676e-02  2.08417520e-01 -4.14312571e-01 -1.82949211e-02
  -1.85891464e-01 -1.55797359e-02 -3.75398695e-01  2.01764524e-01
  -1.51088051e-02  8.10175464e-02  2.07617655e-02  1.54538797e-02
   4.17041808e-01  2.71075696e-01 -4.04052511e-02 -1.88525930e-01
  -3.52380015e-02 -4.60664220e-02  2.02542394e-02 -1.44809946e-01
   5.93686625e-02 -1.23290410e-02 -1.59571040e-02 -1.20622396e-01
  -6.53060004e-02  1.77310154e-01  2.92877667e-02  2.22550079e-01]
 [ 5.42070828e-02 -4.39875200e-02 -1.21855661e-01  3.19754817e-02
  -3.99028622e-02  2.76075006e-02 -6.09697364e-02 -4.46210466e-02
  -3.31385404e-01  7.65620023e-02 -2.11298764e-02 -1.35307666e-02
  -8.14899132e-02  7.23611331e-04 -1.68664847e-02  4.67909761e-02
  -8.51947535e-03 -4.53860015e-02  1.96789093e-02 -7.58657455e-02
   1.61104843e-01 -3.49788070e-02 -2.95677111e-02 -2.87037492e-02
   1.41920447e-01 -9.58263129e-03 -8.09166953e-02  1.66521799e-02
  -1.08426996e-02  2.97643971e-02 -1.59031898e-02  4.25066538e-02
  -5.27655780e-02 -3.19800191e-02 -7.62347057e-02 -5.23173250e-02
  -9.44531262e-02  5.32225072e-02 -1.61570702e-02 -7.65389353e-02
   5.63201718e-02 -1.55442685e-03 -1.07261792e-01  7.83425048e-02
  -4.14068699e-02  2.42159292e-02  1.61647826e-01 -5.33728823e-02
   6.15222678e-02 -1.29096452e-02  4.70752865e-02 -4.64918576e-02
  -2.64741089e-02 -4.66084406e-02  1.06612695e-02 -7.11301938e-02
   8.06597099e-02  5.00476845e-02 -1.32818967e-01  1.18389586e-02
  -1.09025873e-01 -3.71202081e-01  6.20014593e-02 -1.28048569e-01
  -2.83830334e-02 -5.76879531e-02  2.98103839e-02 -1.50795989e-02
   9.52112675e-03  1.91540420e-02  7.91189447e-03  4.12899218e-02
   1.59106627e-02 -5.16637340e-02 -7.54361856e-04  2.18715593e-02
  -5.59001416e-02 -1.52233094e-02 -2.91759558e-02  2.54549310e-02
   3.37659679e-02 -5.21351695e-02  1.45709952e-02 -2.67274939e-02
   3.71181630e-02  1.63631923e-02 -3.64128053e-02  4.13875058e-02
   5.51687032e-02 -4.84160371e-02  4.15273644e-02 -3.23605463e-02
   6.36064485e-02  3.70388404e-02  2.02505309e-02  8.75543207e-02
   1.30178556e-01 -4.97074937e-03  1.42181581e-02 -2.78454833e-02
  -6.16460852e-02  1.11864783e-01  6.23667892e-03  1.59715861e-02
  -1.06929718e-02 -2.16632690e-02  4.31637391e-02  1.55225173e-02
  -4.61096130e-02 -1.51909411e-01  3.17699760e-02  3.11721805e-02
  -5.80323040e-02 -5.08708768e-02 -9.00003016e-02 -1.65909827e-01
   1.12254433e-02 -4.32249010e-02 -2.64524892e-02  6.98189139e-02
   6.09380193e-02 -1.76692251e-02  3.63508647e-04 -1.67718276e-01
  -8.43375921e-02  6.29028454e-02  6.58718944e-02 -1.13373339e-01]
 [-1.83450263e-02  1.81453116e-03 -7.66311586e-03  6.32451624e-02
  -7.41996169e-02  9.99325421e-03 -7.37995803e-02 -2.59926226e-02
  -1.80320561e-01  5.39502650e-02 -7.32710138e-02  1.85438222e-03
   2.42033765e-01 -5.09309471e-02 -6.27602786e-02 -3.08354720e-02
  -4.19694893e-02 -1.33485988e-01  2.49771364e-02 -7.94843882e-02
   3.17012578e-01 -1.87398959e-02 -3.24336067e-02 -5.29393554e-02
  -6.95401430e-02 -1.94834530e-01 -8.06889161e-02  1.18962981e-01
  -7.99084380e-02  2.74286103e-02  4.94857132e-02  2.76895240e-03
   4.32473980e-02 -4.91109863e-02 -1.02326758e-01 -9.32678729e-02
  -8.45308527e-02  2.37068888e-02 -5.69933653e-03 -7.56151602e-02
  -3.21463495e-03  1.12671860e-01 -5.39676547e-02 -5.73601313e-02
   1.89783738e-03 -1.38858318e-01  1.40765291e-02  4.02036346e-02
   2.11935833e-01  4.93408516e-02  1.70326922e-02 -7.55847543e-02
   1.90662127e-02 -9.67243016e-02 -1.70583259e-02  1.42613025e-02
   2.18130007e-01 -8.97124130e-03 -1.21217497e-01  3.80203053e-02
   2.53204331e-02  8.20381194e-02 -1.53000737e-02 -7.76471123e-02
   2.14162916e-01 -1.60131492e-02 -5.39543778e-02 -3.63088809e-02
   1.15838140e-01  2.08856344e-01  3.43608819e-02 -1.02232128e-01
   6.00677505e-02  2.81313900e-02  5.38591817e-02 -6.16252683e-02
   3.30714062e-02  1.03923172e-01 -5.51142842e-02  2.19002292e-02
  -4.13824096e-02  4.18955162e-02 -4.91417758e-02 -1.07763976e-01
   4.51542661e-02  1.21941790e-01  4.52364385e-02 -7.22526014e-03
   3.56162712e-02 -4.93336506e-02  1.26275150e-02 -2.35639289e-02
   1.49408162e-01 -5.14314836e-03 -7.48659205e-03  2.24725902e-02
  -2.19293207e-01 -3.05531397e-02  6.32842211e-03  4.90180543e-03
  -5.72947972e-02 -7.43382098e-03  7.84089491e-02  1.04245991e-01
   1.00281246e-01 -3.51360887e-02 -2.15694495e-02  2.06401348e-02
   1.22361453e-02 -6.40824735e-02  3.26096378e-02  5.46998754e-02
  -8.28191563e-02  1.06157511e-01  4.17734077e-03  1.98009051e-02
   7.63171017e-02 -9.44401771e-02  3.07437256e-02 -7.24275336e-02
  -8.22942778e-02  1.10520171e-02 -4.08971645e-02 -8.38584080e-03
  -2.39255384e-01  2.02484982e-04  1.22685833e-02 -2.79344227e-02]
 [-4.56495993e-02 -4.74368334e-02 -1.03169382e-02 -5.75085655e-02
  -1.26249413e-03 -4.78426069e-02  3.29145528e-02 -5.03830947e-02
   1.30045429e-01  5.47081530e-02 -2.44192451e-01 -8.46454874e-02
  -3.24036330e-02 -5.46172075e-02 -2.66347155e-02  2.40925187e-03
   1.11571688e-03 -6.48699626e-02 -1.79933524e-03  9.70199611e-03
  -3.50160226e-02  6.40220866e-02 -4.31610569e-02 -2.57641505e-02
  -9.80300978e-02  1.05819926e-01  2.56508775e-02 -1.20566385e-02
  -4.99948375e-02 -4.51099128e-02 -1.39410077e-02 -6.59245253e-02
   4.33911346e-02 -2.26307306e-02  2.88829021e-03  1.20749488e-01
  -3.60366306e-03 -5.15737608e-02  1.00847008e-02  3.96262668e-03
  -1.12926550e-02  3.10826860e-02 -3.97396758e-02 -1.03102788e-01
  -5.60965389e-02 -5.95293008e-02 -1.98897541e-01  6.05772575e-03
  -1.23155102e-01 -7.02401772e-02 -5.58194406e-02 -8.81842151e-02
   1.04775257e-01 -2.36311443e-02 -3.42107415e-02  5.06565114e-03
  -8.25365860e-05  2.61406396e-02  9.43663809e-03 -3.75071801e-02
   2.79040243e-02 -1.10755838e-01 -1.06289862e-02  5.14436923e-02
   8.38140026e-02  3.08017945e-03  1.43104149e-02 -5.00365486e-03
   1.91094771e-01 -7.86327198e-02  1.52428681e-03  1.03621885e-01
   2.18862249e-03  1.29874814e-02  1.10005088e-01  9.36822407e-03
   3.89507972e-02 -1.88419104e-01 -6.07101358e-02 -1.43994857e-02
  -1.03903431e-02 -1.26029238e-01 -1.67443559e-01  1.66858565e-02
   6.29787799e-03 -3.32204372e-01 -1.45744625e-02  2.86027323e-02
  -2.54764352e-02 -4.41288240e-02 -5.08020632e-02 -1.65903382e-02
  -1.13785699e-01  2.63537895e-02 -7.59183764e-02 -2.42541209e-02
  -1.46522313e-01  6.86029263e-04 -1.85504183e-02  2.71334518e-02
  -2.81839687e-02  6.24410324e-02  3.82904559e-02  1.11822467e-02
   2.70196162e-02 -4.27878462e-02 -1.66578427e-01 -2.92007588e-02
   1.75449494e-02  7.40059512e-03 -5.73765114e-02 -4.31934670e-02
   8.38399455e-02 -1.76236212e-01  3.50935981e-02  4.87676039e-02
  -5.37296198e-02  1.10605009e-01 -2.49938760e-02 -7.65306130e-02
  -9.39115509e-02 -3.62945981e-02 -1.62233822e-02 -8.29190947e-03
  -2.27066446e-02 -7.77603835e-02 -1.43798692e-02 -3.19101773e-02]
 [-6.31009266e-02  1.52581800e-02 -2.01364756e-02 -4.57279980e-02
  -3.55537608e-02  3.80727313e-02 -5.58576621e-02 -2.12223474e-02
  -3.96662578e-02 -5.69057688e-02 -1.88100487e-02 -6.40106574e-02
   2.34458558e-02  1.28605776e-02 -3.57609503e-02  1.69401020e-02
  -1.88856404e-02 -9.89031512e-03 -3.32566164e-03  8.93943198e-03
  -1.04829311e-01  8.05487111e-02 -1.57389825e-03 -5.92390113e-02
   7.23363683e-02  1.63123682e-02  2.35365052e-03  1.49448678e-01
   1.92443877e-02  1.11417891e-02  2.03897227e-02 -3.73012275e-02
   5.62352538e-02  4.37837653e-02  1.60282150e-01  4.02757786e-02
  -1.36261210e-02 -7.28910416e-03  2.67061386e-02  5.30812666e-02
   3.78142446e-02 -4.07158434e-02  8.79597217e-02 -1.38565302e-01
   4.96812128e-02  1.48804877e-02 -2.67148316e-02 -3.00160032e-02
  -5.93673363e-02  4.52154279e-02  2.50767805e-02  6.65528700e-02
   1.40505063e-03  8.26080367e-02 -3.75168165e-03 -1.01486929e-02
  -4.54375334e-02  4.81214784e-02  8.68235081e-02  2.92433966e-02
   1.15378506e-01  4.18734774e-02 -1.26173031e-02 -5.83204105e-02
   1.06613979e-01 -3.89128551e-02 -5.77953942e-02  1.50022106e-02
  -2.10439898e-02 -6.17673621e-02 -6.94168955e-02 -5.79277165e-02
  -7.47905225e-02 -1.96142662e-02  9.43819061e-03 -5.35793453e-02
  -1.19338566e-02 -6.38263822e-02 -7.63486847e-02  5.97844506e-03
  -1.53594628e-01 -4.34097461e-02 -6.67773769e-04 -2.81347688e-02
  -7.87203163e-02  8.14455897e-02 -3.04841250e-02 -6.66901991e-02
   2.86246687e-02 -5.65626360e-02  3.10389884e-02 -3.75331566e-02
   2.21721623e-02  2.04935521e-02 -9.07553434e-02  3.95999067e-02
  -1.58111557e-01  1.52428662e-02  6.07144926e-03 -5.84772117e-02
   4.68235537e-02 -1.86158985e-01  1.04532056e-02 -1.33085959e-02
  -7.52097815e-02  3.11892238e-02  8.85812491e-02 -1.19317807e-01
  -3.24681099e-03  1.08827963e-01 -4.02502567e-02 -3.70955244e-02
   2.21076701e-02 -2.03631190e-03  7.36008864e-03  1.15209885e-01
   7.17598870e-02 -8.65491927e-02  2.46819984e-02  4.61707041e-02
   1.14392499e-02 -5.18402159e-02 -1.42793134e-02  6.13408647e-02
  -1.00303419e-01 -9.72727388e-02 -1.41837192e-03  1.63626615e-02]
 [ 4.52299938e-02  1.20536536e-02  1.19011991e-01  4.69152443e-02
  -2.22462222e-01 -7.11463904e-03 -5.22778332e-02 -4.92344350e-02
  -8.95721838e-02  9.98289809e-02 -2.26884052e-01  1.74438044e-01
  -1.41333267e-01 -3.19539607e-02  7.70059926e-03  4.00935598e-02
  -1.36434855e-02 -2.60446519e-02  3.21847312e-02 -6.95119798e-02
   2.12024339e-02  4.53909934e-02 -2.36708876e-02  1.26892775e-02
   9.84502658e-02  1.17737792e-01 -2.97492761e-02 -1.83673695e-01
  -4.61610742e-02 -3.55180092e-02 -1.18816586e-03 -6.43723384e-02
   5.13488948e-02 -2.83854268e-02 -1.97144181e-01  8.37141797e-02
  -5.08928485e-02  4.16382542e-03 -1.02190403e-02 -6.11371808e-02
   5.54523431e-02 -1.75239176e-01 -1.39344502e-02 -1.56587079e-01
   5.73529303e-03  1.60919175e-01  2.05804497e-01  8.37247819e-02
  -1.55530125e-02  1.80479996e-02  4.35415953e-02  1.70539541e-03
  -8.78383592e-02  1.22798927e-01 -7.53389448e-02 -1.99756548e-01
   5.60281388e-02 -8.40817019e-02 -2.62869429e-02 -5.49088717e-02
  -1.92449894e-02 -2.87258327e-01  1.92963891e-02 -8.01095068e-02
  -2.96885997e-01 -9.87526588e-03  5.41595109e-02 -8.51964345e-04
   5.11250496e-02  7.50244260e-02 -4.28342149e-02 -1.79226533e-01
   3.49861942e-02  3.27417930e-03  7.98963569e-03  2.00909451e-02
  -5.39680384e-02 -1.83928952e-01  5.14982268e-02 -1.19882673e-02
   1.63847312e-01  1.46143616e-03 -1.13387406e-01  3.51480693e-01
  -1.21721558e-01 -2.93714665e-02  8.60806555e-02 -3.53596732e-02
   3.50588188e-02 -3.24620903e-02  3.62215634e-03  3.25555839e-02
   4.26848754e-02 -4.34596725e-02  4.86845747e-02 -8.84045437e-02
   8.43442976e-02 -1.24234930e-02  2.63828831e-03  6.08687885e-02
   2.62009744e-02 -1.11406455e-02  1.46616220e-01  1.10287210e-02
  -1.44092038e-01  2.40189731e-02  8.18572342e-02  2.12809108e-02
  -7.69845694e-02 -2.38424033e-01  2.77838055e-02  1.44430175e-01
   8.97636265e-02  1.04205534e-01 -4.31624353e-02 -1.69479355e-01
   8.78235772e-02 -1.00201435e-01  4.29911613e-02  2.63579309e-01
   1.10321954e-01  1.36990100e-02 -1.61461777e-03  6.29203022e-02
   4.62381616e-02 -9.86518264e-02  5.58681078e-02 -6.54820865e-03]
 [ 7.20610889e-03  2.94764698e-01 -2.59714630e-02  1.74396876e-02
  -4.16107662e-03  2.75182985e-02 -6.15727603e-02  1.19995475e-02
  -1.94244057e-01 -4.47846353e-01  1.62998941e-02 -8.80728737e-02
   1.64290175e-01  1.45258440e-03 -4.82708849e-02  5.64473867e-03
   8.06620494e-02 -4.98778298e-02 -1.79955103e-02 -1.22191403e-02
  -1.85450837e-01  3.33184212e-01 -4.37262282e-03  4.76740301e-02
   1.38217537e-02 -3.47280473e-01  1.38756055e-02  1.51412517e-01
   1.00502744e-02 -5.44903651e-02 -2.21506711e-02  4.09960635e-02
  -2.49656960e-02 -1.27887372e-02 -1.87755495e-01  6.84767514e-02
   1.77454781e-02 -3.78302336e-02 -8.23785644e-03  3.70910689e-02
  -5.64070605e-02  1.76973417e-02  3.18393856e-01 -1.46081209e-01
  -4.77698930e-02  6.32093027e-02 -3.13336849e-01 -8.95393118e-02
   8.06992725e-02  5.51030412e-02 -2.30944976e-02 -1.71406507e-01
   4.36994173e-02  1.10584967e-01  6.06029388e-03 -3.07392657e-01
  -2.49749608e-02  1.57375619e-01 -1.79733962e-01 -2.23229825e-03
  -2.74034180e-02  2.25917667e-01 -9.19049159e-02  5.16037550e-03
  -6.28438666e-02 -2.47933809e-03  7.86520168e-03  5.67535199e-02
  -2.44339511e-01 -5.14564849e-03  1.01974225e-02 -3.53846215e-02
  -3.92757244e-02  4.49225008e-02  7.51699880e-02 -3.93623747e-02
   3.83107513e-02  3.87505665e-02 -5.46075404e-04 -4.69685346e-03
   1.97617207e-02 -5.07463217e-02 -7.75382742e-02 -2.62552261e-01
   5.56979254e-02 -1.83545247e-01 -2.02759400e-01  2.13851780e-02
  -2.55716518e-02 -3.94177064e-02 -2.31070518e-02  4.98069562e-02
   3.56275707e-01 -8.70607197e-02  2.75357187e-01  1.97079986e-01
   7.75827467e-02 -2.04498637e-02 -1.69929024e-02 -7.49175437e-03
   2.22734064e-02  1.81465775e-01 -4.51277733e-01  8.23989734e-02
  -1.18237369e-01  7.48202810e-03 -2.66501039e-01  2.13416189e-01
   4.82011493e-03  5.56941107e-02 -2.96689440e-02  3.14854443e-01
   1.19133763e-01  1.76640242e-01  3.62998135e-02  3.10184006e-02
  -1.46197975e-01 -1.23778190e-02  2.47161761e-02 -1.41803965e-01
  -4.22014557e-02 -3.49228904e-02  1.83647536e-02 -6.16849586e-02
  -1.25369921e-01  1.17905267e-01 -1.64045239e-04 -5.48466481e-02]
 [-5.60497912e-03 -6.16837442e-02 -4.36136834e-02 -6.66470779e-03
  -5.87207712e-02  2.75266320e-02  5.23117429e-04  2.02539600e-02
  -1.72089577e-01  3.01390681e-02 -6.47083297e-02 -1.85623802e-02
  -4.36525326e-03 -4.08624001e-02  7.02661928e-03  4.15441282e-02
  -2.30918806e-02 -6.67031482e-02  2.14289818e-02 -5.59908599e-02
   1.89734817e-01 -1.51088964e-02 -1.68470684e-02  2.38565635e-02
   1.65603921e-01  7.58306608e-02 -5.22802807e-02 -1.20919675e-01
  -6.49943352e-02 -5.43573312e-03 -5.10002300e-02 -1.22794518e-02
  -4.57791314e-02 -1.51802422e-02 -9.38924178e-02 -6.22195117e-02
  -8.34831130e-03 -2.62227934e-02 -6.94454461e-02  2.03415845e-03
  -5.47908666e-03  1.15108371e-01 -7.97894821e-02  2.85029621e-03
  -6.70117810e-02 -5.57544529e-02  1.43655851e-01 -1.39112631e-02
  -5.47080003e-02  1.42739876e-03 -1.41915707e-02  2.99670454e-02
  -3.48049551e-02 -6.42847344e-02  1.31173031e-02 -6.18886873e-02
   6.68426156e-02  7.24554956e-02 -5.41022904e-02 -1.93414837e-02
  -7.22090825e-02 -3.45689625e-01  7.00377896e-02 -3.97062078e-02
  -1.49651542e-01 -3.87616754e-02  4.86015305e-02  3.85887995e-02
   8.95863175e-02  6.64590970e-02  5.78451939e-02  2.94377259e-03
   4.12801877e-02 -1.71143878e-02 -1.18513882e-01 -1.73585415e-02
  -3.18448246e-02 -3.34082134e-02  3.46028153e-03  3.40585480e-03
   4.41167206e-02 -8.20804983e-02  2.33656578e-02  2.96524372e-02
   1.23737361e-02 -6.04034541e-03 -9.23494250e-02  2.59154905e-02
   4.33156639e-02 -3.95677472e-03  4.98895533e-02  9.79029108e-03
  -9.87678859e-03 -7.88048469e-03 -8.83948803e-02  4.19494808e-02
   7.37527385e-02 -3.10393889e-02 -1.12527618e-02  5.05842380e-02
   3.21944058e-02  1.91545963e-01 -9.41655487e-02 -8.96386132e-02
  -4.65725958e-02 -6.60964474e-03 -1.38646150e-02 -5.58931641e-02
  -6.81612492e-02 -5.97875714e-02 -6.67718351e-02 -7.12038428e-02
   2.58671530e-02 -4.35576364e-02 -5.01850918e-02 -6.74442276e-02
   5.03147244e-02 -2.60264296e-02 -3.04741990e-02  9.99850184e-02
   6.31457716e-02 -6.18350767e-02 -1.49943847e-02 -1.63841918e-01
   3.98274232e-03  1.00615593e-02 -3.84021737e-02  3.40637937e-02]
 [ 1.24603724e-02 -1.46893607e-02 -1.01748807e-02 -6.08988665e-02
  -1.85760662e-01 -1.65855885e-02 -2.89644524e-02 -1.98842566e-02
   6.72026202e-02  3.60530764e-02 -4.23591770e-02 -6.25541955e-02
   1.04640543e-01  4.30177990e-03 -2.91410629e-02  1.45687098e-02
   3.42930481e-02  1.42752053e-02  4.55973819e-02  1.50451427e-02
   3.05515319e-01 -3.70293707e-02  3.82264182e-02  7.23488722e-03
  -1.81599632e-02  1.33899907e-02  2.66778972e-02 -3.50975245e-02
   2.40591597e-02 -1.96506698e-02  4.45320271e-02 -2.42510531e-03
   5.61983585e-02 -4.64466810e-02  7.89100956e-03 -4.38079089e-02
  -9.97830182e-02  6.91101607e-03  4.99926731e-02  1.10871345e-02
  -2.94386595e-02  5.20478152e-02 -9.99452323e-02 -5.97046278e-02
  -3.44246812e-02 -6.54154941e-02  8.87365788e-02 -5.55072166e-02
   1.49361029e-01 -5.76754175e-02  2.69279862e-03  2.29573593e-01
  -8.63088891e-02  4.91910018e-02 -8.07583854e-02 -1.03261001e-01
   1.24652542e-01  4.63497266e-02 -7.12568909e-02 -1.43364351e-02
  -8.25282112e-02  4.27608937e-02 -2.58927094e-03  1.22381630e-03
   1.51057810e-01  1.32484650e-02 -5.91377839e-02  1.84487167e-03
   1.16899408e-01  2.62906373e-01 -4.92407456e-02 -9.28370804e-02
  -1.52264787e-02 -3.49529721e-02  1.10652730e-01  4.15584110e-02
   3.35716782e-03  2.15007588e-01 -5.58731332e-02 -2.49834149e-03
  -2.97777206e-02 -1.21434920e-01  4.43789922e-02  3.32336649e-02
  -1.42086938e-01  8.41210559e-02  3.70892300e-03  3.88532877e-02
   6.03095666e-02 -3.76550332e-02  2.67586187e-02  5.83244525e-02
   1.45499140e-01 -2.70629115e-02 -1.23807773e-01 -8.59147310e-02
  -5.37366346e-02 -4.59924415e-02 -2.85129640e-02  2.32559815e-02
   2.42241118e-02 -4.92150560e-02  1.04995228e-01  1.36302626e-02
   2.57897750e-03  3.37953470e-03 -5.78712346e-03 -1.97725277e-02
  -1.06854122e-02 -3.28435004e-02  2.30867509e-02 -3.48279476e-02
   7.04491325e-03  5.51937893e-02  2.64975987e-03  9.50694755e-02
   1.47039235e-01 -5.79173118e-02 -4.78283688e-03  2.09437877e-01
  -6.73533380e-02 -2.67218407e-02  1.60663854e-02  5.15442304e-02
  -1.85710490e-01 -1.01079576e-01 -5.90548702e-02  1.82383493e-01]
 [-1.60570480e-02  7.50694051e-02 -7.50192106e-02  1.92673120e-03
  -6.47693425e-02  1.60679966e-02 -4.50723059e-02 -3.94803062e-02
   6.31816387e-02 -5.58976904e-02 -4.79863100e-02 -1.58505142e-01
  -3.38673443e-02 -5.10826856e-02 -5.83751351e-02 -2.56926715e-02
  -1.22466637e-02  6.44325167e-02 -6.03997186e-02  2.31466014e-02
  -1.03127122e-01  2.87064970e-01  2.25734338e-02  5.57700396e-02
  -2.72879973e-02  1.41343717e-02 -3.39605263e-03  6.47313967e-02
   4.78382260e-02  2.35379767e-02  3.16284411e-02  1.48611069e-02
   2.30974164e-02  2.08894983e-02  5.42584285e-02  3.40401232e-02
  -1.17921189e-03  4.61598933e-02 -2.17871182e-02  2.79173115e-03
   3.12639214e-02 -5.98473940e-03 -1.09555937e-01 -8.63205716e-02
  -3.11943218e-02 -7.76098296e-02 -1.36262506e-01  7.63062807e-03
  -3.47696058e-02  2.17173789e-02 -6.32861853e-02 -2.17243537e-01
  -2.28528259e-03 -6.51596114e-03 -3.68119031e-02 -4.09882441e-02
   5.86614646e-02  2.05993801e-02  2.53211185e-02  1.57523388e-03
   1.19900227e-01  4.01211670e-03 -1.56805843e-01  1.15504637e-01
   1.03047140e-01  3.45373846e-04  6.63422048e-03 -2.44565140e-02
   1.84595913e-01 -1.66021794e-01  2.30469517e-02  1.44769505e-01
  -3.77692543e-02  6.47964142e-03  1.03274696e-01 -1.06264204e-02
  -6.32289127e-02 -1.89699769e-01 -5.75868897e-02  5.36840633e-02
   7.16127753e-02 -1.53148532e-01 -2.24496737e-01 -8.87180716e-02
   1.03540890e-01 -3.80390674e-01 -9.48999301e-02  2.94680856e-02
   3.49887162e-02  2.78810747e-02  3.52793783e-02  1.89934578e-02
  -4.90229912e-02 -4.08216286e-03  1.63083170e-02  4.54617478e-02
  -2.14684084e-01 -3.04198381e-03 -3.01564652e-02  1.83883533e-02
  -4.21137623e-02  3.79628688e-02  1.01489045e-01  4.24569547e-02
  -6.66992813e-02 -3.35034095e-02 -1.43469647e-01 -1.62002295e-01
  -4.21240218e-02 -5.05239442e-02 -3.05654034e-02  1.87989846e-01
  -6.97485451e-03 -1.75299808e-01 -3.70383039e-02  1.78445745e-02
  -8.64859372e-02  6.40715063e-02 -7.54362419e-02 -3.84124704e-02
  -4.43693362e-02 -3.89707019e-03  5.45907812e-03 -6.25393493e-03
  -1.48864955e-01 -8.23234692e-02  3.74083519e-02 -2.48880703e-02]
 [-4.83988114e-02  5.83749125e-03 -8.37082416e-02 -5.42693026e-02
  -2.44820863e-02 -5.42890048e-04 -5.26767895e-02 -4.40893024e-02
  -9.93416365e-03 -3.35435979e-02 -1.39184102e-01 -1.30272001e-01
   4.81773727e-02  7.06688268e-03 -3.98928374e-02  4.66875099e-02
  -6.04958236e-02 -4.72372286e-02 -3.77844200e-02 -8.44715536e-02
  -5.14260605e-02 -9.86096449e-04 -2.73619574e-02 -6.74464321e-03
   1.44898161e-01 -1.40500441e-02  3.00725605e-02  1.62785631e-02
  -2.44606119e-02  3.87128927e-02 -3.03769186e-02  7.83032738e-03
   3.77507806e-02 -4.04629894e-02  3.69122997e-02  5.82164414e-02
   3.76687618e-03 -2.28651389e-02  2.99487188e-02  3.90453674e-02
   4.21332009e-03 -8.32435582e-03  2.08520405e-02 -6.40101507e-02
   5.76686189e-02  3.79376151e-02 -7.71354735e-02 -9.14817229e-02
   1.64988395e-02  1.72913149e-02 -2.60792542e-02 -8.16112093e-04
   1.00871166e-02 -9.56928823e-03  4.03757114e-03 -8.75036139e-03
   6.49510473e-02  2.49706972e-02  6.52035549e-02 -1.15175098e-02
   8.08934942e-02  8.43481123e-02  1.44788668e-01  4.91942540e-02
   8.45683366e-02 -3.31704468e-02 -4.23023663e-02 -1.48673523e-02
  -1.70293972e-02  4.70872223e-02  2.69775018e-02  7.64123257e-03
   2.22432776e-03 -2.72061466e-03 -3.58964242e-02  1.55050084e-02
  -2.54133698e-02 -1.01511225e-01 -3.93692330e-02 -4.01282273e-02
  -1.16119660e-01  8.82140454e-03 -2.60032807e-02  6.45864680e-02
  -7.15043619e-02  9.56432670e-02  2.03995407e-02 -4.11550514e-02
  -6.29174486e-02 -5.94755635e-02 -7.76060596e-02 -8.84569883e-02
  -4.53185551e-02 -2.76468657e-02 -7.77922645e-02 -1.83711220e-02
  -9.40191746e-02  4.21394557e-02  1.66188329e-02 -4.69404012e-02
   6.03710562e-02 -9.10106152e-02  1.93569576e-04  1.74012147e-02
  -1.26897898e-02 -7.21975043e-02  1.28963619e-01 -5.77160195e-02
  -3.92710716e-02  1.30848721e-01  6.76929019e-03  1.09681927e-01
  -1.00785948e-01  9.22694150e-03 -5.51706366e-02  1.06540211e-01
   4.02223952e-02 -8.65269452e-02 -6.84000552e-02 -2.98599713e-02
   1.08333286e-02 -2.13529263e-02 -2.62777344e-03 -4.12986521e-03
  -6.98203892e-02 -4.05870713e-02 -5.27767465e-03  1.53126558e-02]
 [-9.20886267e-03 -5.81088476e-03  1.01439670e-01  6.89316541e-02
  -2.59115756e-01 -5.04837669e-02  5.48438020e-02  3.88106108e-02
  -2.31516182e-01  7.06179589e-02 -1.29038304e-01  1.82305351e-01
  -8.01690891e-02 -1.00588072e-02  1.28461570e-02  2.82826107e-02
  -1.52989337e-03  3.88766490e-02 -5.96785657e-02 -1.11479796e-02
  -1.89165995e-02 -2.32758336e-02  1.86225567e-02 -5.02979495e-02
   1.26100987e-01  1.33814156e-01  4.48523313e-02 -3.52986306e-01
   3.54734599e-03 -4.95684929e-02  7.78320804e-02 -2.95850169e-02
  -2.46962011e-02  2.16063242e-02 -2.26378664e-01  2.31376495e-02
  -6.46478310e-02  2.65668333e-03 -6.02515601e-02  1.71963628e-02
   1.21183125e-02 -2.13333219e-01 -5.50531177e-03 -3.34633768e-01
  -1.48075540e-02  9.40096378e-02  2.70997316e-01  4.41729240e-02
   9.81010050e-02 -5.72610907e-02  4.99881208e-02 -1.07740425e-01
  -5.29645719e-02  2.36076251e-01 -1.44590773e-02 -1.60552591e-01
   1.25752702e-01 -8.28263015e-02 -2.52928019e-01  3.35413106e-02
  -4.91807088e-02 -2.39047378e-01  1.00725673e-01 -1.26232840e-02
  -2.60227680e-01 -1.00210145e-01 -5.69940694e-02  2.66495738e-02
   1.36958241e-01  4.81676310e-03 -4.85442095e-02 -1.46592885e-01
  -1.55479282e-01  4.81373891e-02 -1.17167525e-01  3.75621468e-02
  -1.15977973e-02 -1.95083961e-01  1.79862976e-02  4.22142372e-02
   1.63729578e-01 -7.84607232e-02 -1.60314441e-01  3.18032593e-01
  -3.11328191e-03 -2.71335803e-02  1.38481751e-01 -4.19615135e-02
   3.24888416e-02 -8.73267576e-02 -4.91518639e-02  5.06246462e-02
   5.03711123e-03 -9.43910622e-04  5.68673238e-02 -3.59984152e-02
   3.77240777e-02 -1.22781480e-02 -5.39916717e-02  2.52159517e-02
   3.07637490e-02  1.16944071e-02  1.31230548e-01 -7.06200078e-02
  -1.83249205e-01  5.88654131e-02  1.05908073e-01  1.54307276e-01
   1.21399881e-02 -3.52986157e-02 -3.13808657e-02  1.86990485e-01
   1.82032630e-01  1.00790955e-01  3.49439606e-02 -2.17472672e-01
   8.16057771e-02 -1.63609907e-02  3.49042565e-03  1.47869855e-01
   7.92965293e-02  4.43090051e-02  1.82978902e-02 -4.11111536e-03
  -3.29245999e-02  8.57463479e-03  1.74116604e-02 -4.56722043e-02]
 [-4.25421968e-02  1.60673082e-01 -1.05178379e-01 -7.01969489e-03
  -1.07990559e-02  2.04749908e-02 -4.33645211e-02 -5.13537712e-02
  -9.86992791e-02 -2.48395115e-01 -5.05895838e-02  5.91826439e-02
   7.90036097e-02 -2.11401433e-02  4.11924906e-02  2.84863114e-02
  -6.52820468e-02  1.01273999e-01  3.08950525e-02  2.89565772e-02
  -1.34190610e-02  2.21264884e-01 -3.76168974e-02  1.80090852e-02
   1.94174945e-01 -9.69208926e-02  3.03217978e-03 -7.10161701e-02
   1.42120197e-02 -4.43614163e-02 -3.23609747e-02  2.92303804e-02
  -7.62752350e-03  4.14697044e-02 -1.09685376e-01  8.69390443e-02
  -2.17410121e-02 -4.14313823e-02 -3.65666635e-02  2.79840361e-02
   2.74345540e-02  5.13943657e-02  1.79748386e-01 -2.49329414e-02
   5.77140134e-03 -3.32082175e-02 -2.64267564e-01  1.28136829e-01
   1.00260191e-01  7.41416961e-03 -1.89466644e-02  4.62362096e-02
  -7.34869465e-02  3.24400850e-02 -1.47730447e-02 -1.59731060e-01
   5.86166456e-02  4.41052876e-02 -1.45810902e-01 -5.42549416e-02
  -2.35635024e-02 -1.35611594e-01 -4.84508909e-02 -2.12815143e-02
  -1.86686963e-02  1.02596395e-02 -2.98934663e-03 -1.43310679e-02
  -1.18484706e-01 -1.04749784e-01  3.62467393e-02 -7.94779286e-02
  -7.90868551e-02  1.76729839e-02 -2.30867758e-01  1.04338629e-02
  -5.02851456e-02  2.62302279e-01  2.24320590e-03 -3.46683413e-02
  -2.21033469e-02 -2.03149137e-03  4.40603442e-04 -1.58429340e-01
   5.03824875e-02 -6.03468604e-02 -1.51473686e-01  4.40127924e-02
   4.94856350e-02  7.69527815e-03  3.08196731e-02 -1.28614921e-02
   1.37323678e-01 -5.63558340e-02  3.22947681e-01  1.59485698e-01
   2.61910558e-02  1.49896378e-02 -2.92157345e-02  3.21271606e-02
   2.80470848e-02  1.32215068e-01 -4.12138909e-01  1.24832086e-01
  -1.34592220e-01  1.41226901e-02 -1.03632614e-01  1.45186074e-02
   1.46354372e-02 -2.51476597e-02 -1.14389891e-02  1.73015028e-01
   1.05220452e-01 -6.96833730e-02 -1.88252386e-02 -1.49383739e-01
  -3.64124738e-02 -1.80415846e-02  1.72201917e-02 -4.06170115e-02
   5.86591139e-02 -4.83841747e-02  6.23928979e-02 -5.46250213e-03
  -1.53134868e-01  1.52285069e-01 -3.56630348e-02 -8.50385986e-03]
 [ 5.21348007e-02 -9.35601629e-03  4.75056237e-03 -3.34303454e-02
  -1.44400492e-01 -2.80163269e-02 -6.34179115e-02 -5.95947690e-02
  -3.08134347e-01 -6.59493878e-02  2.66023148e-02  4.36615199e-02
   7.82287586e-03  3.91746126e-02  2.62186099e-02 -1.64942499e-02
  -4.20083404e-02  1.88884456e-02 -6.78758249e-02  3.31767052e-02
   7.25549906e-02  2.43539643e-03 -4.63481061e-02 -5.51893860e-02
  -2.42113532e-03 -1.89978257e-02 -3.07713505e-02  3.88880558e-02
   2.92660054e-02 -6.88345390e-05  3.91769148e-02 -2.08285637e-02
   3.63106579e-02 -2.37221066e-02 -1.25908582e-02 -3.91823985e-02
   8.35003890e-03  1.88914333e-02  2.39024609e-02  2.36892942e-02
   1.45793641e-02  7.97147825e-02 -1.46659255e-01 -1.89042956e-04
  -3.56352814e-02 -1.07638992e-01  1.76136971e-01 -6.60071149e-02
  -8.65392573e-03 -8.84418786e-02  1.26813808e-02  4.49985713e-02
  -3.21914069e-02 -1.04932755e-01 -1.77127738e-02 -1.11476190e-01
   3.05388495e-02  4.90979701e-02 -3.01054083e-02  3.70416045e-02
  -1.17591120e-01 -4.93439347e-01  9.92996618e-02 -1.58216432e-01
  -1.46455809e-01 -6.81788474e-02  7.83126615e-03 -7.31648281e-02
   5.01659736e-02  5.61801530e-02  2.52346899e-02 -8.55558738e-02
   9.83374342e-02 -7.35458685e-03 -1.65169723e-02  3.75561677e-02
  -4.52869572e-02 -5.47188520e-02 -3.51097598e-03  2.97388714e-02
   1.01742938e-01 -3.32119539e-02  2.49939561e-02  1.13914303e-01
   5.03448918e-02  9.99242999e-04 -9.82222408e-02 -4.68247458e-02
   3.34324948e-02 -4.53426428e-02 -3.34527381e-02  5.05948476e-02
  -6.29721358e-02 -3.54468226e-02 -1.90185558e-03  3.18090282e-02
   3.38374861e-02  4.42488631e-03 -4.50377464e-02 -5.75827174e-02
   4.69935276e-02  1.40941828e-01 -7.92746320e-02 -3.08309011e-02
   9.60471705e-02 -3.66055220e-02 -1.06361933e-01 -4.60058898e-02
  -8.93639773e-02 -1.16452172e-01 -3.51781398e-02  2.24469602e-02
  -1.36007339e-01 -6.16123751e-02 -6.16328046e-02  3.33452933e-02
   4.28040996e-02 -1.16528496e-02 -2.57043187e-02  1.98713969e-02
  -2.46982519e-02  6.00783248e-03 -2.49855258e-02 -2.10193589e-01
  -1.19702131e-01  6.81859106e-02 -5.02423011e-02 -3.18694264e-02]
 [-4.52374690e-04 -2.77841445e-02 -1.09249502e-01 -6.31933883e-02
  -2.42050931e-01  4.29011285e-02 -4.80468348e-02 -4.81000589e-03
  -1.09813228e-01 -9.31738466e-02  3.47581618e-02 -6.57823607e-02
   1.36530459e-01  2.38814577e-02 -2.68805809e-02  9.18957870e-03
   1.71661228e-02  2.32393183e-02  4.66849431e-02 -1.54920984e-02
   3.21337163e-01  8.89508873e-02 -4.23470512e-03 -5.48139028e-02
  -2.73647308e-01 -8.61106589e-02  3.46364118e-02  4.93838489e-02
  -3.96871492e-02 -2.62269638e-02  1.54363681e-02 -7.42287096e-03
  -1.18918093e-02 -2.68427022e-02 -2.64781676e-02 -1.09378777e-01
  -9.09728631e-02 -1.30791450e-02 -1.90036558e-02 -4.00096588e-02
  -5.79088517e-02  1.50296375e-01 -2.44693920e-01  6.84461370e-02
  -1.04320288e-01 -2.74399459e-01 -1.06694601e-01  5.73349670e-02
   1.74332172e-01 -4.87926118e-02  3.16608488e-03  2.18254313e-01
   1.53948560e-01  1.17716700e-01  1.86550897e-02 -1.21590666e-01
   2.01600850e-01 -7.25531876e-02 -1.27381265e-01  5.28351329e-02
  -4.01529707e-02 -2.70178020e-01 -3.51752229e-02 -1.37166873e-01
   1.12871803e-01 -5.02568036e-02  3.37232240e-02 -2.91871130e-02
   2.92156376e-02  2.56655514e-01 -5.70808053e-02 -2.74904091e-02
  -1.69841677e-01  1.95255447e-02  5.56973033e-02 -4.22365963e-02
  -5.53894266e-02  2.45632529e-01 -3.08776870e-02  5.40406145e-02
  -9.63663682e-02  9.42880753e-04 -9.48388651e-02  7.64455721e-02
  -1.36369109e-01  1.93632841e-01 -1.26865329e-02 -2.78978460e-02
  -1.95825398e-02 -1.92933567e-02  9.41660628e-03 -1.79057829e-02
   5.91719374e-02 -7.05116391e-02 -2.54747421e-02 -9.75953490e-02
   2.50075348e-02 -3.64020839e-02  3.55180092e-02 -3.05844974e-02
  -4.66781966e-02 -5.75532354e-02  7.71162361e-02  9.72104296e-02
   1.21803217e-01 -3.38037573e-02  5.82210533e-02  4.87512015e-02
  -5.08326739e-02  1.99420229e-02 -7.18103871e-02 -8.69456530e-02
  -1.95305410e-03  8.67722183e-02  6.26995321e-03  1.41174242e-01
   7.96595365e-02 -1.52076915e-01  3.67633849e-02  1.05377756e-01
  -5.13509661e-02  1.55212227e-02  1.49897384e-02 -6.39869571e-02
  -4.46877256e-02 -1.10192098e-01 -4.98805232e-02  7.10434765e-02]
 [ 7.94988964e-03  3.91991250e-02  1.63623765e-02  2.78679095e-02
  -4.14145105e-02 -9.30453464e-02  1.89207476e-02  1.35645978e-02
   8.49287584e-02 -6.81617483e-02 -1.18352287e-01 -2.57920828e-02
  -8.50783661e-02 -6.19466789e-02  4.33109142e-02  3.89708057e-02
   2.65777903e-03 -7.32262507e-02 -4.47665825e-02  9.82346945e-03
  -7.94664845e-02  7.71803483e-02 -4.69588414e-02 -3.77949066e-02
  -3.40300496e-03  9.74068642e-02  2.67495327e-02  9.18818917e-03
   1.98234748e-02 -1.04492884e-02 -9.69444960e-03  1.04585998e-02
  -1.14773251e-02  4.36532497e-02 -3.28445509e-02  7.79046193e-02
  -2.42163707e-02 -3.05872299e-02  2.81420574e-02 -3.52261029e-02
  -3.74564379e-02  4.93692048e-02  5.37399994e-03 -4.45635207e-02
  -2.67845634e-02  2.87856683e-02 -1.52370647e-01 -1.42489215e-02
  -2.77618840e-02 -3.91891338e-02  2.14691814e-02 -1.51764676e-02
  -3.51512097e-02 -1.49381578e-01 -8.78519658e-03 -5.87892234e-02
