dense_6/kernel:0
(784, 128)
[[-5.43765351e-02  1.47665739e-02  4.44570556e-02 -5.63966110e-02
   2.02473775e-02  4.06836271e-02  7.60364309e-02 -1.41619593e-02
  -3.28765213e-02 -3.52963805e-02  4.29212973e-02 -5.64650521e-02
   6.98916391e-02 -7.22566694e-02 -3.36773582e-02  4.51682582e-02
  -7.17762634e-02  2.71973833e-02 -1.28021687e-02 -3.57473120e-02
   4.55800816e-02  4.11621705e-02  7.24638924e-02  7.99608007e-02
   4.04277220e-02  3.57701853e-02  4.43035588e-02  6.34934083e-02
   2.94407830e-02  3.91733050e-02 -2.10217200e-02  3.53009999e-02
   1.95067376e-02  3.16879526e-02  7.29929134e-02  3.68854702e-02
   7.90011883e-03 -2.48451531e-02 -2.88345069e-02 -3.02422978e-02
  -6.56105578e-02 -4.20387946e-02 -7.87921846e-02  4.25241292e-02
   1.67574286e-02  4.41593304e-02 -1.62448287e-02  5.54727390e-02
  -2.04740465e-03  1.61286071e-02  6.46804795e-02  7.95164332e-02
   3.60456035e-02  3.48031744e-02  4.26359847e-02  4.71737757e-02
  -1.23578683e-02  2.85773873e-02  1.20745450e-02  6.74104467e-02
   7.28551075e-02  6.81507960e-02 -4.01449949e-02 -3.61211598e-02
   1.76534131e-02 -3.88119854e-02 -7.25838318e-02  2.17423961e-02
  -3.45681198e-02 -2.83481702e-02  6.94779828e-02  7.73354247e-02
  -6.68793246e-02  7.26895779e-03 -3.61803919e-02  2.00760365e-03
  -5.39993979e-02  6.46377578e-02 -1.94938183e-02 -7.84979463e-02
  -1.96119957e-02  9.96978581e-03  4.03173789e-02  1.56044587e-02
  -5.88824935e-02  3.73935401e-02  5.51799759e-02 -5.02660796e-02
   7.12572411e-02  4.88661453e-02  2.05327868e-02  2.09202096e-02
   8.00858214e-02  2.39622816e-02 -1.67448223e-02 -4.82284836e-02
   6.99102953e-02 -5.89784309e-02 -3.47256884e-02  3.95503640e-02
   1.01318583e-02  1.89572424e-02 -3.54529619e-02  7.73068443e-02
  -5.15017658e-03 -4.18303683e-02 -1.95396878e-02 -6.73203319e-02
  -5.05344011e-02  3.46327275e-02 -2.91062891e-02  7.30454996e-02
  -7.68227875e-02 -4.28261347e-02 -7.57421032e-02  7.62902126e-02
  -3.68463248e-02 -1.23612136e-02 -1.83098763e-03  2.61736959e-02
   7.55759552e-02  4.58703116e-02  5.76754883e-02  5.18814549e-02
   6.71787784e-02 -1.91190615e-02  6.47448078e-02  3.21266800e-02]
 [-3.36491428e-02 -2.15345621e-03 -2.34589055e-02  1.75734311e-02
   5.16888425e-02 -5.39034232e-02  2.81411335e-02 -2.45764069e-02
   7.81203434e-02 -3.20578925e-02 -5.12382537e-02 -2.16683745e-03
  -2.12404542e-02  4.65194136e-03 -7.30348825e-02 -6.29958659e-02
  -2.83977315e-02  5.81714436e-02 -1.31212175e-04 -1.07945651e-02
   1.57015026e-03 -6.98107034e-02 -7.26199895e-03 -7.01377541e-02
   3.47188264e-02  4.35149670e-02 -8.06924179e-02  1.86792687e-02
   5.04670069e-02 -5.64425401e-02  6.31833300e-02 -2.12904029e-02
  -7.04855919e-02  2.96742767e-02 -6.48330003e-02 -4.28498611e-02
  -9.74095613e-03  6.04061261e-02 -1.95724294e-02 -2.33055651e-03
  -9.83663648e-03  7.11979195e-02  3.59890759e-02  6.43123016e-02
   7.31323436e-02 -3.37646119e-02  7.30184838e-02 -6.37001842e-02
  -2.25753561e-02 -5.05155064e-02  2.47281566e-02 -7.11689070e-02
  -6.72501177e-02  6.17023483e-02 -6.01187497e-02 -5.93369231e-02
   6.57386109e-02 -7.51199126e-02 -7.23458976e-02 -2.99861990e-02
   5.41014895e-02 -7.73109272e-02  5.55440113e-02 -6.51052669e-02
   6.76003098e-03 -2.54122652e-02  1.62644982e-02  9.50784981e-03
  -1.86989568e-02  9.59666818e-03  3.83221656e-02 -7.23316818e-02
   5.24392724e-03  2.07310989e-02 -7.63310939e-02  7.19543919e-02
   2.17981488e-02 -5.98994195e-02  5.37329540e-02  1.80473551e-02
   3.09441984e-02  3.52879316e-02 -6.10902905e-03 -1.71736851e-02
   4.47353646e-02 -7.09287822e-02 -2.90575922e-02 -3.39040831e-02
   8.12883675e-03 -1.05091855e-02 -5.35835847e-02  4.18504402e-02
   5.90317622e-02  3.77753749e-02  2.56939307e-02  3.45017314e-02
   6.13973960e-02 -2.12324075e-02 -6.54394180e-03 -1.45186707e-02
  -7.37548470e-02  5.69420084e-02 -2.33674720e-02 -8.00986737e-02
   2.62650251e-02 -5.66762611e-02  7.28552118e-02  3.50145251e-02
  -2.64546573e-02 -5.50403409e-02 -6.47275150e-02 -6.64765462e-02
  -8.28402489e-03  6.64368048e-02 -1.09899342e-02 -1.82431340e-02
  -7.35426247e-02  1.97295547e-02 -4.87219766e-02  1.17899999e-02
  -6.53977767e-02  8.01618919e-02 -5.58702648e-02  2.31260806e-03
  -1.01235807e-02 -5.75900376e-02 -5.48255295e-02 -6.25169128e-02]
 [-3.90388630e-02  6.67776912e-03 -3.55984047e-02 -2.49225236e-02
   4.69276682e-02  7.74472579e-02  2.43858099e-02  9.41725075e-03
   7.85297677e-02  6.94312975e-02  1.20147094e-02 -6.72056228e-02
   2.27619708e-03  5.34804538e-02  2.45390087e-02  8.38195533e-03
  -7.97958747e-02 -5.54102212e-02 -1.58065110e-02  1.01437494e-02
  -4.52759117e-02  2.18495503e-02  1.44695938e-02 -7.97893405e-02
   5.03643975e-02 -1.08001903e-02  4.62251157e-03 -7.94273466e-02
   5.66235259e-02 -1.03006214e-02 -1.33825094e-02  7.47914538e-02
   5.73653653e-02  2.99259052e-02  5.23420796e-02  3.42500061e-02
   6.91821352e-02  2.77202576e-03  5.76192141e-03  3.64227369e-02
  -1.46572739e-02  6.35386780e-02  6.25455752e-02 -5.80565333e-02
  -4.54666056e-02 -5.28070368e-02  6.98870346e-02 -6.74466044e-03
  -5.27759790e-02 -3.91603857e-02 -3.61182019e-02 -3.62328179e-02
   7.88834617e-02  5.54318056e-02 -7.24880695e-02  9.30577517e-05
   7.73151740e-02 -5.76006547e-02 -2.71610692e-02  2.55838335e-02
   6.49514273e-02  3.47813666e-02 -7.02263191e-02  8.01706389e-02
  -2.69549787e-02  8.09620693e-02 -5.05327359e-02  7.38107637e-02
   6.73340335e-02  3.21385562e-02 -5.12703210e-02  3.10602039e-03
  -4.62196954e-02 -7.74638951e-02 -7.74177685e-02  3.63953784e-02
  -1.60885975e-02  2.91632190e-02  7.18392953e-02  1.48482621e-04
  -2.09222995e-02  1.54452473e-02 -2.32028067e-02 -2.41991952e-02
   7.73633644e-02  6.67838380e-02  3.05467844e-03 -6.28729910e-02
   3.78095880e-02 -6.61710575e-02  7.98536614e-02  3.45392451e-02
   1.27206743e-02  5.18735424e-02 -1.21557638e-02  6.27197549e-02
  -1.45873651e-02 -7.38155246e-02 -5.33694550e-02  1.72970667e-02
  -1.79082304e-02  8.28541815e-03 -6.75525293e-02  7.91537836e-02
   4.61120382e-02  8.00543204e-02  1.10467523e-02 -7.11096078e-03
  -4.43435721e-02 -3.61972302e-03 -1.32139549e-02 -7.74808228e-03
   1.70990825e-02 -5.46121597e-03 -4.92029972e-02  1.20486692e-02
  -2.28400417e-02  7.03687891e-02  7.44441971e-02 -5.01835272e-02
   5.21885380e-02 -4.43570316e-03 -1.44133344e-02  8.08514655e-03
  -7.81139880e-02 -1.11094639e-02 -2.57453099e-02 -1.99569501e-02]
 [-2.75672302e-02 -3.33710983e-02  6.91465512e-02  1.28450766e-02
  -1.77379772e-02 -6.39086887e-02  7.88592473e-02  3.78224626e-02
  -4.59978729e-03 -4.87016886e-02 -6.80164769e-02  3.32501382e-02
   1.74631998e-02 -6.79274648e-02  8.08588639e-02 -3.03367451e-02
   2.55569071e-03 -6.40863702e-02  5.89012727e-02  2.45329961e-02
   2.17497349e-04 -5.33432290e-02 -3.32407206e-02 -5.18318862e-02
   6.86131939e-02  1.63160339e-02  1.70013234e-02 -7.42642954e-02
   6.84339926e-02  6.26944005e-03 -5.63954115e-02 -6.97372183e-02
  -7.06716627e-02  1.26830414e-02 -5.74724413e-02 -7.14029372e-02
   5.84199801e-02  4.35253903e-02  4.21092436e-02  4.30752337e-02
  -2.32143328e-02 -4.09647077e-03 -1.19782984e-04  5.01181260e-02
  -6.35796785e-03 -9.39261168e-03  4.87169251e-02  4.06367704e-02
   4.57712784e-02 -5.98850846e-03 -6.36051595e-02 -2.56875865e-02
   2.13520229e-03  4.98386696e-02  7.82162026e-02 -5.91972470e-03
  -1.33149624e-02 -7.09003210e-02  5.53060696e-02  7.56129995e-02
   7.03189299e-02  2.12501213e-02 -3.32559571e-02  3.54446098e-02
  -7.58931190e-02 -4.93364520e-02  2.44969428e-02 -6.46558851e-02
  -2.02891640e-02  2.67652124e-02  6.52893558e-02 -2.62896717e-03
  -1.43048912e-02  6.20252714e-02  3.41479927e-02 -4.54203486e-02
  -2.29414888e-02  2.26799399e-02  2.90295705e-02 -5.66794351e-02
   5.47175482e-02 -7.51674846e-02 -1.51843354e-02  3.27550173e-02
   3.37089226e-02 -2.91259363e-02  5.35086542e-03  4.02553231e-02
   6.99278340e-02  4.12941724e-02  6.78592697e-02 -3.10258456e-02
   7.22269639e-02 -3.71350460e-02  6.15980551e-02  1.44097954e-02
  -9.35045630e-03 -2.61216164e-02 -3.54816802e-02  6.97239861e-02
   7.72605836e-03  4.73322645e-02 -2.20084153e-02 -5.27971387e-02
   3.84451970e-02 -6.69409782e-02 -1.03404000e-02  4.42395732e-02
   6.88698962e-02 -2.59770416e-02 -1.39902756e-02 -8.21411610e-04
   2.90466473e-02  3.68319750e-02 -5.68554699e-02 -3.16951461e-02
   4.82180938e-02  6.27353415e-02 -3.94710563e-02 -5.19056618e-02
   7.58490637e-02  3.66042480e-02  8.45684856e-03  2.15710998e-02
  -5.75909466e-02 -7.12279975e-03 -6.89818412e-02  7.80269578e-02]
 [-6.34667575e-02 -4.53254357e-02  5.82389534e-04  7.79918656e-02
   5.33731505e-02 -3.29164937e-02  6.02141991e-02 -5.97606823e-02
   9.51030850e-03 -7.03098997e-02 -2.45774724e-02  2.62795910e-02
   5.18267527e-02 -4.82470840e-02 -8.06024224e-02  4.01162580e-02
   5.51342592e-02 -2.69815512e-02  4.80818823e-02 -3.81929688e-02
  -5.55751771e-02  6.80878982e-02 -5.84554449e-02  6.63853809e-02
   2.41506323e-02 -7.21254945e-03  4.30720970e-02 -1.16698742e-02
   4.04695496e-02 -4.42891940e-02 -7.18248263e-02 -4.48703095e-02
   3.37708369e-02 -5.53217679e-02  3.26430798e-03  7.95282945e-02
  -4.60030884e-03  5.86901531e-02 -2.35414617e-02  6.36178628e-02
  -4.95010987e-02 -8.04159194e-02  4.86506000e-02  2.22960711e-02
   5.57344928e-02 -7.76373371e-02  2.45895162e-02  1.53104812e-02
   7.29585066e-02 -5.17751276e-02 -3.04207690e-02  5.82143292e-02
   8.05757120e-02 -2.20777839e-02  4.26040888e-02 -9.27294791e-03
   5.12727574e-02 -7.56838992e-02 -1.42477453e-02  4.99101356e-02
  -2.73058154e-02 -7.62579143e-02  8.53344798e-03 -1.81271583e-02
   1.07579902e-02 -7.61762932e-02  2.73865536e-02 -2.99084596e-02
   3.44603062e-02  5.84689751e-02  4.46235389e-03 -3.98523696e-02
   5.85302636e-02 -4.19486798e-02 -8.86202604e-03  9.67972726e-03
   6.39740303e-02  5.31432033e-03 -5.77911176e-02 -6.83435649e-02
  -6.35000914e-02  2.15960667e-02 -5.17727286e-02  6.44567534e-02
  -2.07135640e-02  6.55878410e-02 -4.76455279e-02  7.76547417e-02
   1.46037787e-02 -2.77937390e-02 -4.38757800e-02 -4.34257574e-02
   5.52497804e-04 -7.32241273e-02  1.52768493e-02 -6.60026446e-02
  -2.17987709e-02  9.78171825e-03 -5.77739626e-03  6.01850674e-02
  -4.81273979e-03 -5.46448156e-02  7.83078298e-02 -2.50541978e-02
  -5.50770611e-02  2.34015286e-02 -5.99273220e-02 -2.24685706e-02
   4.70308587e-02 -1.67920291e-02 -4.82966006e-03  4.42905650e-02
   5.11826798e-02 -3.80896814e-02  5.38096502e-02 -1.66868418e-03
  -8.00434500e-02 -2.42178552e-02 -5.94095588e-02  2.67650560e-02
  -7.22586364e-02 -3.27805653e-02  1.72843561e-02  5.06274402e-03
  -2.62537934e-02 -4.84797843e-02  4.55939248e-02 -7.88761452e-02]
 [-1.60764903e-03 -4.84938808e-02 -2.51426138e-02 -4.33315411e-02
   6.35638461e-02  7.18881562e-02 -3.12802419e-02 -4.93347086e-02
  -7.45450482e-02  3.18082348e-02 -7.30329826e-02 -7.28239566e-02
   9.46940482e-03 -5.47948219e-02 -3.75006571e-02  3.45242247e-02
  -7.62257800e-02 -6.58753738e-02 -5.84744737e-02  7.90577754e-02
   4.79996279e-02 -3.25959437e-02  2.26233900e-02  4.31377888e-02
   1.59546956e-02  5.11689410e-02  3.47313136e-02  4.33277339e-02
  -3.91830131e-02  9.08633322e-03 -4.02608886e-02 -8.66605341e-03
  -6.02278970e-02  3.27661783e-02 -3.60755585e-02  6.63277730e-02
  -4.06178348e-02 -2.77487189e-03  1.35169327e-02  5.78640178e-02
  -4.29318175e-02 -9.31967050e-03  3.14738750e-02  1.71139836e-03
   7.89968744e-02 -3.48576158e-02  4.10517901e-02  6.01187721e-02
   7.83942565e-02  7.28577599e-02 -2.59645879e-02 -6.62470385e-02
  -5.79943061e-02  7.30197206e-02 -3.39884311e-03  2.42354572e-02
  -4.79646884e-02 -2.30630487e-03  5.94182983e-02  1.69252679e-02
  -3.20878662e-02  4.22992632e-02 -5.25169075e-04  1.54400691e-02
   6.91216514e-02 -3.70135158e-03 -2.64255740e-02  1.13232732e-02
   5.65290973e-02 -1.13786161e-02  5.51972166e-02  7.98095763e-03
  -3.00611742e-02  4.29948196e-02  4.27757427e-02 -3.25014554e-02
  -3.86409983e-02 -6.56792670e-02  8.04234073e-02 -2.84036323e-02
   3.47046480e-02 -3.61581892e-03  3.64573151e-02 -5.35416231e-02
   7.30481818e-02 -4.79406118e-03 -1.93765126e-02  8.73162597e-03
   7.58699328e-03  2.36263350e-02  1.22692585e-02  4.47128639e-02
   4.85910401e-02 -6.62699193e-02 -4.56453674e-02 -6.48006722e-02
   6.55633286e-02 -7.65859932e-02 -6.93483651e-02  4.40727398e-02
   7.83606842e-02  4.94085476e-02  3.95730287e-02  8.05716291e-02
  -3.15320641e-02 -7.90109783e-02  6.40231296e-02  1.69687718e-03
   2.83048525e-02 -4.65403274e-02 -7.65544921e-03  5.55991605e-02
   2.16045752e-02  4.21304181e-02 -4.62074764e-02  6.63006976e-02
  -3.21270078e-02 -3.84447351e-02 -2.76811309e-02  4.20108512e-02
   2.45916620e-02  5.98432943e-02  1.58885047e-02  1.63343474e-02
  -7.30517656e-02  7.86666200e-02 -7.94755369e-02  2.84455195e-02]
 [ 1.26254708e-02  8.02388862e-02 -5.26917204e-02  7.12527558e-02
   2.84132808e-02 -3.07876579e-02  5.62998429e-02  2.46493518e-03
  -1.08806342e-02 -1.55364498e-02  7.57019445e-02 -5.92182279e-02
   5.92460558e-02  3.81013006e-03  1.63381547e-02  5.57923838e-02
  -6.22612424e-02 -5.90754673e-02  5.30931875e-02 -2.80959010e-02
   4.59548905e-02 -9.45855677e-03  4.57623973e-02  2.33473778e-02
   1.88346505e-02 -4.33190092e-02  6.84556887e-02 -7.14528337e-02
  -1.84537470e-03 -2.16462091e-02 -3.99637185e-02  7.13245943e-02
  -4.11592424e-03  4.38181907e-02 -6.89867362e-02  4.55607995e-02
  -5.55545464e-02 -8.31811875e-03 -6.98037371e-02  3.68738845e-02
  -7.02538788e-02 -6.12201467e-02  6.22776225e-02  3.98650765e-02
  -1.96850151e-02  5.33647910e-02  5.60961887e-02  9.45430249e-03
  -2.23900378e-02  3.23960781e-02  6.82216212e-02  5.41814640e-02
  -4.55757491e-02 -3.12108546e-03 -1.62760615e-02  7.48978332e-02
  -1.07198805e-02 -1.01465955e-02 -2.07843408e-02 -7.54916370e-02
  -5.74016236e-02  6.01421073e-02 -5.97597957e-02  2.94709280e-02
   2.44542882e-02 -7.40091652e-02 -1.33629888e-03 -2.90810689e-02
   1.67216957e-02  3.76444384e-02  6.73709288e-02  7.61559680e-02
  -3.87454629e-02 -3.84890176e-02 -2.19826177e-02 -1.25090405e-02
  -4.66598943e-02 -8.01160634e-02 -3.84343676e-02 -3.37534174e-02
  -1.82566717e-02 -7.74322376e-02  6.96381852e-02  4.21452895e-02
   5.07467762e-02  6.44566864e-03 -3.46364826e-02 -2.87593789e-02
   1.95652321e-02 -7.32406974e-03  6.76843449e-02 -3.49219330e-02
  -6.12405688e-02  5.51460609e-02  2.06938386e-02 -3.60116065e-02
   7.79008344e-02  4.24566343e-02  5.11298254e-02 -7.96978101e-02
  -2.08131969e-03  4.12989706e-02 -7.84450620e-02 -3.24639380e-02
  -7.75006115e-02  7.93345496e-02  3.80536914e-02  5.82540557e-02
  -1.92452967e-03 -1.87615938e-02 -7.46352971e-02  7.74070546e-02
   6.81166872e-02 -2.19777636e-02 -3.64705436e-02 -3.84675525e-02
   5.31148389e-02  1.50314122e-02 -4.89933789e-03 -5.27572632e-02
  -7.74315000e-03  7.74251893e-02 -1.39230341e-02 -2.17384547e-02
  -1.60717294e-02 -6.14108220e-02  1.61717907e-02 -5.60805276e-02]
 [-3.97672504e-03 -3.51123512e-03  6.69467971e-02  7.46891871e-02
  -4.82741743e-03  6.46663830e-02  4.75072637e-02  6.70855492e-03
   6.82026818e-02 -2.30434015e-02  4.38674837e-02  6.46052584e-02
  -6.59991801e-02 -3.94873209e-02  3.00250128e-02  2.91560814e-02
   4.14309725e-02  3.42912376e-02 -2.60232016e-02 -1.58233717e-02
  -4.32058424e-03 -2.19097324e-02  3.94185707e-02  1.36132166e-02
   2.32080072e-02  1.54375136e-02 -2.74542756e-02  1.96368024e-02
  -2.35146396e-02  6.32080212e-02  5.61878085e-03  3.71370018e-02
  -8.75175744e-03  7.19007328e-02  4.77015153e-02 -7.71970600e-02
  -5.22080138e-02 -3.80208567e-02  7.88668618e-02 -5.92351630e-02
   3.01980674e-02  5.35775498e-02 -5.72621003e-02  4.80216518e-02
  -7.66592622e-02  6.49991408e-02 -2.51004174e-02 -3.84081081e-02
  -3.88732553e-03 -6.05930239e-02 -2.96060070e-02 -1.00890249e-02
  -5.57501540e-02  7.11728707e-02  9.65066254e-03  8.07513818e-02
   5.92447147e-02  3.85058224e-02 -7.65775591e-02 -1.24217421e-02
   8.06484893e-02  3.93078029e-02  5.57457879e-02  4.01371419e-02
  -5.12711108e-02  4.61227968e-02 -1.83980539e-02 -7.40690157e-02
   1.59035698e-02 -5.59327640e-02 -6.31732345e-02 -5.01781702e-02
  -1.23521090e-02 -6.91604689e-02  1.29526109e-03 -7.24853054e-02
  -6.35810420e-02 -1.00755617e-02 -6.12765923e-02 -3.37909907e-02
  -5.89333475e-04  1.36559308e-02 -5.27145229e-02  3.19860131e-02
   6.07286394e-03 -6.99821189e-02 -3.50913182e-02  5.10813519e-02
   2.38609314e-02  3.54829952e-02 -6.39691800e-02  3.39689627e-02
  -5.10770828e-03  7.09114224e-03  4.62277010e-02  6.87969476e-03
   6.05496988e-02 -6.20171353e-02  2.57835388e-02  7.05802068e-02
  -1.17121637e-02 -4.68417704e-02  7.69697204e-02  1.22129694e-02
  -5.41099161e-03 -2.74173394e-02 -3.29615176e-03 -6.70296624e-02
  -5.50552495e-02  6.11156002e-02 -1.34646744e-02 -6.84147254e-02
  -8.09930265e-04 -5.47632053e-02  3.63991857e-02 -6.93432987e-03
   3.27196494e-02 -7.98018277e-03 -1.47697777e-02 -7.85663128e-02
  -3.50073725e-03  3.48294005e-02  7.96757638e-03 -4.25980017e-02
  -8.10455978e-02 -3.17594633e-02  5.16669676e-02 -7.38429725e-02]
 [-1.57257318e-02 -4.76003736e-02  6.50618598e-02  7.93469921e-02
   4.64111641e-02 -7.59314746e-03  7.07913861e-02  7.32330605e-02
  -5.04338965e-02 -4.12816815e-02  5.26083037e-02 -7.92983845e-02
  -7.02531636e-03  7.70010278e-02 -2.52102390e-02  4.98490110e-02
  -2.28762403e-02  4.40737084e-02  3.13885584e-02  4.40528467e-02
  -6.18049353e-02 -8.06390122e-02 -1.80208385e-02  2.75205076e-02
  -4.51560505e-02 -5.35203516e-02  6.66872934e-02 -6.92846254e-02
  -1.50539950e-02  3.60133871e-02 -4.93084677e-02 -5.93086109e-02
   5.65561280e-02 -1.91440284e-02 -6.27387837e-02 -6.17517531e-02
  -2.19348148e-02  5.78117147e-02  7.89854154e-02  5.82640097e-02
  -6.56381696e-02 -7.91283399e-02 -3.83927338e-02 -6.72077090e-02
  -5.11710569e-02  4.59759906e-02 -6.73200861e-02 -3.87847424e-04
  -2.11128034e-02 -2.88052671e-02 -7.15345740e-02  3.60301360e-02
   6.18738309e-02  7.01970682e-02  5.25508448e-02 -1.77895948e-02
   1.28097087e-03  7.98136368e-02  5.67660108e-02  7.44308010e-02
  -5.57639450e-03  1.55007914e-02  5.16963378e-02 -3.05406749e-04
   7.98591897e-02  2.28938013e-02 -2.10023597e-02  3.54521126e-02
  -3.96389514e-02 -4.55424711e-02  3.40091661e-02  2.04361156e-02
   6.72004744e-02 -3.78038734e-03  7.07987025e-02 -7.76457489e-02
   1.59161538e-02  7.72545487e-03 -7.74765387e-02  5.69007620e-02
  -6.62819073e-02 -1.58008412e-02 -7.68218637e-02  1.57164484e-02
   5.42492941e-02  6.04925081e-02  7.18692020e-02 -2.77020372e-02
   6.61598966e-02 -3.36422995e-02  2.08159983e-02  6.70848265e-02
   8.00803378e-02 -7.41603896e-02  5.18568084e-02 -7.35561550e-03
  -2.66585611e-02  9.96113569e-03 -3.20181325e-02  2.04598233e-02
   2.09084749e-02 -5.24493568e-02  6.67886809e-02 -2.65483707e-02
  -7.42753521e-02  9.29559022e-03 -1.92030855e-02 -3.28471288e-02
   7.43576959e-02  7.21108541e-02  7.61708543e-02  3.76308784e-02
  -5.82973547e-02  1.64037123e-02 -3.43904607e-02  4.55797389e-02
  -1.90058164e-02  7.62836412e-02  1.79337561e-02  5.02692685e-02
  -2.87401676e-03  4.65635285e-02 -3.26606669e-02  8.01393315e-02
  -5.59405982e-02  5.61594293e-02  1.84351206e-02  5.30890152e-02]
 [-3.00536305e-03 -6.97112456e-02  1.09571591e-02 -3.09550017e-03
   4.37538922e-02  8.47122073e-03  1.34766325e-02  7.19832852e-02
   5.86419031e-02 -1.26671866e-02  7.06865117e-02  4.39225137e-03
   1.43330246e-02  1.10782161e-02 -5.36860004e-02 -2.28739791e-02
   5.59798703e-02  2.05426514e-02  7.08131418e-02  1.96844339e-05
   3.57662439e-02 -1.51014701e-02 -5.18652424e-02  3.32482234e-02
  -1.77380741e-02  5.63533381e-02  4.95686457e-02 -1.61997676e-02
  -8.10587108e-02  2.88138166e-02  6.45354465e-02  7.33952224e-03
  -1.41351968e-02  7.42434040e-02 -7.97223896e-02  4.92212102e-02
  -3.35708633e-02 -7.36713037e-02 -7.41222352e-02 -1.82310045e-02
  -5.10111302e-02 -5.97549006e-02 -2.16680020e-03  9.08652693e-03
   7.55594596e-02 -2.59132460e-02  6.04193583e-02 -5.09868972e-02
   5.46502694e-02  5.82171604e-02  4.67581078e-02 -7.63643757e-02
  -5.37894443e-02  3.04489583e-03  5.45203015e-02  1.78703070e-02
   4.56372723e-02  8.01227018e-02  3.18243280e-02 -1.22827962e-02
   4.20204625e-02  4.24744710e-02 -1.28985271e-02 -4.68933843e-02
  -3.10127735e-02  7.32265785e-02  6.12753704e-02 -4.03956398e-02
   1.51213109e-02 -2.78300941e-02  1.62259340e-02  3.40084732e-02
   3.86152416e-02  2.10148692e-02  6.95529059e-02  2.16038600e-02
   6.66199997e-02 -5.51514588e-02 -7.35809952e-02 -7.76131824e-02
  -4.45933640e-03  2.95649916e-02  8.06879327e-02 -1.86680257e-03
   8.03266540e-02  7.95052573e-02  5.10618016e-02  7.35461190e-02
   1.34492293e-02 -8.05792212e-03 -5.28488085e-02 -6.40837625e-02
   1.99487731e-02 -7.60039687e-02 -4.27116901e-02 -7.72254914e-02
  -6.56497777e-02 -4.23238017e-02 -5.31146526e-02 -6.66063055e-02
  -2.31061950e-02 -7.98257142e-02 -8.33892822e-03 -2.45140791e-02
   6.76358417e-02 -4.85510826e-02 -1.31231025e-02 -1.58438310e-02
  -6.09813556e-02  5.93686327e-02  7.55070075e-02 -8.00371915e-03
  -5.03771007e-02 -1.88203044e-02  4.41143885e-02  1.92447230e-02
  -7.34243169e-02  5.51324859e-02 -5.75906560e-02 -3.54791842e-02
   2.51778662e-02  2.80769840e-02  1.63050517e-02 -6.93592131e-02
  -2.03734972e-02  6.24618605e-02  1.36662573e-02 -4.99870703e-02]
 [-3.48559506e-02 -2.62308381e-02 -8.37102532e-03  6.75736144e-02
   4.73580435e-02 -4.13910188e-02  4.56434488e-03 -3.21872868e-02
   1.50468051e-02 -6.77983165e-02 -1.02012828e-02  3.24318931e-02
  -1.89921260e-02 -5.30258119e-02  1.01570562e-02  4.27594781e-03
   3.54359820e-02  7.39850849e-03  1.24914199e-02 -5.27382642e-03
  -4.49013673e-02 -1.24225169e-02 -3.47237550e-02  2.69377455e-02
   3.25992852e-02  4.62775007e-02 -6.57985657e-02 -7.60767907e-02
  -1.22655854e-02 -7.73923397e-02  1.62148327e-02  6.15988448e-02
   3.36848050e-02  6.49796501e-02 -6.07979298e-02 -2.40843818e-02
   1.15870461e-02 -6.26357049e-02  7.94573948e-02  6.24096319e-02
  -2.98633054e-02  3.76754552e-02  7.41857663e-02  3.25712115e-02
  -5.59253581e-02 -5.00461459e-03  2.13605240e-02  6.71874359e-02
  -5.00733554e-02  1.19199157e-02  6.82927594e-02 -3.68411243e-02
  -7.91173950e-02  5.00102341e-03  6.02197424e-02 -7.28161633e-02
   6.67343810e-02  7.70413503e-02 -3.36512327e-02 -1.46390349e-02
  -2.07342356e-02 -5.60197867e-02  3.19852978e-02 -1.99369751e-02
   7.14687258e-03  2.13927254e-02  5.49753979e-02 -4.14738841e-02
  -3.92424315e-03 -1.83626860e-02 -7.55825490e-02  2.26106495e-02
  -6.78771213e-02 -1.78691894e-02 -1.73577070e-02 -7.21612498e-02
   5.77814057e-02  6.26173243e-02 -6.80897832e-02  3.00187692e-02
   1.64441317e-02  7.23794028e-02  7.37024769e-02 -1.95442326e-02
   5.98188862e-02 -7.20469654e-02  5.19877449e-02 -3.95068713e-02
  -3.29884887e-02  3.71872783e-02 -1.11356154e-02 -2.45338418e-02
   4.23344001e-02 -4.74776328e-02 -5.37716709e-02 -3.66968028e-02
  -6.16839156e-02 -5.45352027e-02  5.24974242e-02 -3.76110189e-02
  -8.52318108e-03 -6.99962899e-02  6.65731803e-02 -1.10852569e-02
   2.21497789e-02  3.51239443e-02  6.88774809e-02 -3.30245160e-02
   4.48129848e-02 -6.88690618e-02 -7.58422762e-02 -6.50270656e-02
   6.83695897e-02  6.53994009e-02  4.27258834e-02  7.88206533e-02
  -6.90876395e-02 -3.28867510e-02 -7.27075040e-02 -2.62699202e-02
   8.00185651e-03  5.53604960e-03  3.55432555e-02 -7.20621273e-02
   5.71617112e-02 -2.97651440e-03  1.19238570e-02 -8.28199089e-04]
 [-3.36327441e-02 -1.02609396e-02  4.18724865e-02 -1.16619840e-02
  -1.33424401e-02  2.95461193e-02  5.10839000e-02  8.68452340e-03
  -4.84241098e-02 -5.08967638e-02  2.99838036e-02 -3.07478383e-02
   1.91362947e-02  1.15514025e-02 -2.87721008e-02 -1.03844702e-03
  -3.29250619e-02 -3.76903675e-02  7.41219595e-02  3.12330946e-02
   1.38585046e-02  2.74586678e-02  4.46236059e-02  7.43188038e-02
   5.42158857e-02 -4.61568870e-02 -6.10217899e-02 -8.00331011e-02
  -7.55277053e-02  6.27471730e-02  6.55345842e-02 -6.87070861e-02
   4.56833169e-02 -5.34505025e-02  7.65713081e-02 -7.15259910e-02
   1.46804973e-02 -7.30004609e-02  2.08307728e-02  4.14265245e-02
  -2.50099339e-02  3.65153924e-02 -8.06639940e-02  3.90055850e-02
  -3.73662561e-02  1.56273022e-02  4.62817773e-02  1.49569586e-02
  -1.40082836e-03 -2.05362290e-02 -5.63308038e-02 -3.26075628e-02
   2.34385058e-02  7.05360547e-02  7.84625039e-02 -3.36059034e-02
   4.81226221e-02  1.33839399e-02 -3.92242596e-02  7.02170953e-02
   3.79839018e-02  1.89844295e-02 -3.16155292e-02  7.16014430e-02
   5.36323115e-02 -3.83958854e-02 -4.58434522e-02  6.32621571e-02
  -7.92407990e-03  4.92930487e-02  4.31626961e-02 -4.07721549e-02
  -7.47393966e-02 -5.51857650e-02  2.22327635e-02 -1.05376169e-02
  -4.10589427e-02 -4.71548773e-02  3.61835212e-03 -5.73587902e-02
   7.76327774e-02  6.87178001e-02  6.66564181e-02 -6.41544461e-02
   2.81890333e-02  3.23738828e-02 -7.59846494e-02  6.93986639e-02
  -4.57893424e-02  1.58905685e-02 -3.68905328e-02 -2.24021822e-02
   6.12230673e-02 -7.58343935e-03  6.58403412e-02  7.83239827e-02
   5.90671226e-02 -4.24853563e-02  1.13038719e-02 -3.54011357e-02
   2.63967961e-02  2.55185142e-02  3.88857424e-02 -2.80784965e-02
  -7.82747045e-02  4.47217375e-03  1.85065418e-02  1.59823298e-02
  -4.17120159e-02 -7.91393444e-02  7.13716447e-03  5.44458553e-02
  -5.39295487e-02 -8.09606984e-02 -1.86957084e-02  8.92408192e-03
   7.29438737e-02  2.33633518e-02  2.36979276e-02  2.48427168e-02
   8.38189572e-03 -7.83296078e-02  1.93414092e-03  1.79482400e-02
   2.61341855e-02  3.55301648e-02 -5.10122329e-02  5.99490777e-02]
 [ 8.44196752e-02  7.39294216e-02  3.80236767e-02 -3.11395619e-02
   9.34717581e-02  6.09994605e-02 -2.40632072e-02 -3.79451476e-02
  -4.68100160e-02 -1.83889866e-02 -8.84849876e-02 -1.77678168e-02
  -6.98961690e-02 -5.41346110e-02  7.95063004e-02  3.23657393e-02
  -2.79424395e-02 -9.72170830e-02 -5.24227656e-02 -8.93824995e-02
  -6.36225492e-02  5.80251738e-02 -1.85945071e-02  4.06308062e-02
   2.81996299e-02 -2.49778181e-02 -4.43964712e-02  6.19751848e-02
  -2.33916640e-02  6.30134642e-02  2.76234504e-02 -1.25952987e-02
   2.59848535e-02  3.12349126e-02  7.32886642e-02  3.13584618e-02
   4.30455394e-02  7.12377159e-03 -1.42670676e-01  2.99777323e-03
   9.88549516e-02  1.07617497e-01 -8.24120734e-03  1.29197994e-02
  -1.67463794e-02 -8.40997919e-02 -8.80390182e-02  6.28609061e-02
   1.04489848e-02 -2.52039190e-02 -5.21028936e-02  6.13554791e-02
   5.06572351e-02 -7.32588321e-02 -1.07315797e-02 -2.05874778e-02
   4.82681654e-02  7.82757178e-02 -1.00954786e-01 -4.71853912e-02
  -4.86470684e-02 -3.28348530e-03  5.51185086e-02  8.36914033e-02
  -5.75809851e-02  4.44820151e-02  8.94987807e-02  4.45182472e-02
   1.92454513e-02 -2.29137689e-02  9.09141544e-03 -6.69101700e-02
   1.17811514e-02 -6.87199971e-03  2.01177932e-02  5.07366396e-02
  -1.01762591e-02  6.75240085e-02  4.20035347e-02 -6.07437268e-02
   4.30064872e-02  5.54637127e-02  5.56364022e-02  6.14475831e-02
   1.02101505e-01 -6.72082230e-02 -5.77564016e-02 -9.06654149e-02
  -8.66047293e-02  5.46359532e-02 -3.99098955e-02  1.19701400e-01
   7.49980509e-02  3.87849733e-02  8.88161287e-02 -3.43804695e-02
   5.43316044e-02  6.46632537e-02 -5.78257851e-02  2.03671679e-02
  -6.51198700e-02  3.63379009e-02  2.56439298e-03  4.39929441e-02
   7.43834302e-02 -1.59314345e-03  7.36874947e-03 -2.00148895e-02
  -3.49417366e-02  5.92104755e-02 -5.60876280e-02 -3.84628959e-02
   5.40225953e-02 -1.45940790e-02  9.02377367e-02  9.82557833e-02
   3.98582667e-02  8.06449279e-02 -2.35192999e-02 -6.50320668e-03
  -4.52550501e-02  7.26633295e-02 -7.21056908e-02 -2.06806092e-03
   8.80502164e-03 -5.29366359e-02 -7.10447272e-03  2.75965203e-02]
 [ 3.57043706e-02  1.40637860e-01  2.59807091e-02 -3.05188932e-02
   4.69271950e-02 -7.48405159e-02 -1.97680742e-02  5.37113473e-02
  -6.59877360e-02  1.82916969e-02 -5.40123098e-02 -2.29784306e-02
   1.53157674e-02  1.22179762e-02 -7.99454227e-02 -1.69565137e-02
  -1.31748110e-01 -4.13714759e-02  9.33253244e-02  4.56929393e-02
   6.88772947e-02  4.11789864e-03 -8.28736011e-05  3.80766094e-02
  -5.53526357e-02 -1.19080441e-02  1.47405835e-02 -4.51010242e-02
  -7.64859766e-02  1.05763324e-01  9.15419832e-02 -2.75826571e-03
  -7.77789131e-02  5.91299012e-02  3.52572836e-02  1.96803152e-03
  -2.87334737e-03  4.62130718e-02 -2.98620816e-02  4.35652025e-02
   3.17068398e-02  7.78834373e-02 -2.11781170e-03 -3.31715420e-02
   1.50293894e-02  1.42830666e-02  2.33988333e-02  2.40465607e-02
  -1.48423500e-02  7.25582466e-02  6.71509206e-02  4.94831130e-02
  -1.19464677e-02 -6.27039447e-02 -4.86120433e-02 -3.81168909e-02
   1.07078351e-01 -1.14372363e-02  1.66636221e-02  1.61952060e-02
   5.81911318e-02  6.02306649e-02  1.00257255e-01  9.99619365e-02
  -1.65426806e-02 -3.30804810e-02  2.09299591e-03  2.14642584e-02
  -2.12436523e-02 -3.07855122e-02 -3.52749042e-02 -4.80183400e-02
  -1.05387392e-02 -7.91292340e-02  1.67530458e-02  8.30083713e-03
  -2.29718722e-02  3.70410047e-02 -7.35511631e-02 -5.27094752e-02
   2.94657946e-02  1.15446988e-02 -4.62211203e-03  3.25364731e-02
   6.40101284e-02  8.59507099e-02 -3.34702469e-02 -4.80174832e-02
   4.17595804e-02  7.91745819e-03 -9.17852148e-02  5.35356179e-02
   2.94155590e-02 -3.39075923e-02 -8.54569487e-03  2.86361501e-02
   1.50295272e-02 -5.81758283e-02  1.87004562e-02 -3.46780987e-03
  -1.20290380e-03  7.04831490e-03  9.54669714e-03 -1.58584956e-02
   1.32339895e-02  1.91033538e-02  5.23136221e-02  2.06497088e-02
   5.51648214e-02  7.88125321e-02 -1.66325420e-02  5.82946911e-02
   6.65062368e-02 -7.21121356e-02 -2.52718180e-02  1.04410551e-01
  -5.27920946e-02 -4.12294082e-02 -6.24911254e-03  4.56162356e-02
   3.29075344e-02 -3.12441345e-02 -2.31880322e-02  6.60917908e-02
  -3.96465510e-02 -4.25393134e-03 -3.23558562e-02  5.81344143e-02]
 [-3.96266095e-02  6.85345381e-03 -6.63848743e-02 -4.89648692e-02
   5.56613319e-02  1.10054679e-01  5.62242344e-02 -3.34143192e-02
  -5.66368923e-02 -4.53145355e-02  7.10085407e-02 -3.51610370e-02
   3.64202559e-02 -6.14877865e-02 -6.62839562e-02  8.10233131e-02
  -1.25980526e-01 -1.57885507e-01  4.89726029e-02  9.47101489e-02
   9.93934050e-02 -2.64144726e-02  6.74513355e-02 -6.75609335e-02
   4.69129160e-02  1.44955948e-01 -3.63433287e-02 -1.18007995e-01
   7.87890926e-02  7.96038881e-02  6.55845329e-02  4.13070992e-02
  -3.70212421e-02  3.14415842e-02  3.38625610e-02  5.42416945e-02
  -2.82760710e-03 -5.06225377e-02  2.56855180e-03  5.93101345e-02
  -5.53837307e-02 -1.08527727e-02 -5.80687709e-02  4.53546420e-02
  -6.24062978e-02 -8.15845206e-02 -9.71197616e-03  1.23024583e-02
  -1.08592790e-02  2.34774873e-02  1.13752335e-02  6.66525289e-02
   3.59499007e-02  1.53007070e-02  8.91434774e-02  3.78608331e-02
   4.10546269e-03 -3.16544510e-02 -7.90273100e-02  4.06798087e-02
   2.09628381e-02  8.45556892e-03  1.48158997e-01 -4.52558100e-02
   1.91278234e-02 -5.00635132e-02  9.18501914e-02 -1.39109835e-01
  -3.41869704e-02 -5.11210077e-02  5.82942627e-02 -1.59444690e-01
   3.90854739e-02  2.78139953e-03  3.95556651e-02  1.20540321e-01
  -7.94655606e-02 -3.13425697e-02 -1.38780326e-02  1.18076205e-02
   9.73280892e-03  3.65367644e-02  8.01635906e-02  8.27690959e-02
  -1.01107799e-01 -4.56576310e-02  6.79292455e-02 -4.08395194e-02
   1.03483750e-02  1.04967125e-01  1.75310582e-01 -2.75138877e-02
   3.42104882e-02  6.88922592e-03  6.33342490e-02  6.69165105e-02
   6.16413057e-02 -8.26164857e-02  9.14408173e-03 -9.76711512e-03
   3.95244472e-02  9.22716856e-02  6.31799325e-02 -4.10266221e-03
   3.20073962e-03 -4.69009653e-02  6.17763139e-02  3.33126411e-02
   1.19413204e-01  1.09957539e-01  4.02212292e-02  6.00034818e-02
  -9.75698382e-02  1.17134660e-01 -5.60320020e-02  2.85622217e-02
  -7.39309415e-02  3.84950116e-02  2.53677014e-02 -5.00517264e-02
   2.90357079e-02 -6.16813526e-02 -4.98332307e-02  6.53971434e-02
  -3.85974497e-02  8.00378770e-02  6.44001504e-03  1.64715245e-01]
 [ 7.30716437e-02  1.97889954e-02  1.39984703e-02 -6.27146149e-03
  -1.48616973e-02 -6.68683369e-03 -6.18950129e-02  2.10351795e-02
  -3.79078835e-02 -1.06900709e-03  3.19403931e-02 -1.15227429e-02
   6.93560624e-03 -5.09363078e-02  1.56706721e-02 -4.00402993e-02
   2.62934249e-03  1.87582225e-02  6.88428357e-02  5.66782895e-03
  -4.83063795e-02 -7.85900801e-02 -7.09301531e-02 -7.11226910e-02
   2.07422003e-02  5.44344969e-02  1.13538262e-02 -4.39804867e-02
   4.60326001e-02 -3.55691910e-02  4.84997220e-02  2.36550421e-02
  -4.85578328e-02  3.70106250e-02  4.87260409e-02  7.64232129e-03
   7.11022839e-02 -2.69265044e-02 -4.90583852e-02 -1.29098967e-02
   4.63301204e-02  5.29846959e-02  7.11475164e-02  6.03278540e-02
   5.64983115e-02 -7.21420795e-02 -8.16830322e-02 -3.73851731e-02
   3.40189673e-02  6.50068298e-02 -1.11605227e-02  4.91934046e-02
  -8.08180571e-02  4.22674082e-02 -6.03184067e-02  1.37270242e-02
  -2.03372557e-02 -7.08575398e-02  5.42368926e-02 -5.54343499e-02
  -5.18391915e-02  4.55395542e-02 -5.25102057e-02 -7.68920854e-02
   1.88426226e-02 -2.26244554e-02 -2.72632707e-02 -5.68621047e-02
   3.65200266e-02 -5.73377460e-02 -4.53857370e-02  5.00781462e-03
   1.83714423e-02 -7.54437968e-02  1.44171538e-02  6.98345248e-03
  -4.60509136e-02 -6.76530302e-02 -1.01149157e-02  1.43626332e-02
   5.53640090e-02 -9.26787220e-03 -2.14158278e-02 -1.71617325e-02
  -4.26636152e-02 -4.68507446e-02  1.93300843e-02  6.91655055e-02
  -2.80974321e-02  6.32659122e-02 -4.14891317e-02  4.15055752e-02
   4.42574397e-02  1.40681444e-02  8.14586505e-02 -5.43678142e-02
  -1.96287297e-02  4.26103994e-02 -1.07327485e-02 -2.27509290e-02
  -4.37949877e-03  4.98504452e-02 -7.70313740e-02  5.25792092e-02
   5.87485805e-02  2.63867453e-02  4.72756922e-02  4.74464074e-02
  -4.99668755e-02  6.58773109e-02 -4.80879508e-02  4.16710377e-02
  -8.29719454e-02  1.90078968e-03 -4.39785495e-02  8.78702775e-02
  -4.64346036e-02  2.95029357e-02 -2.20376886e-02  3.18579748e-02
   3.88012938e-02 -2.37807520e-02 -4.24141698e-02  6.27828809e-03
  -4.49143611e-02 -9.03475657e-03  1.36256088e-02  1.16233714e-02]
 [-2.02220418e-02 -4.49379534e-02  3.52527350e-02  2.22895294e-03
  -3.18505652e-02  7.17787817e-02 -4.89298254e-02  1.18852407e-02
  -5.46991155e-02  6.99651986e-03  2.15104744e-02 -3.74914147e-02
  -1.30844116e-02  1.95481032e-02 -4.60751802e-02  2.45063081e-02
  -3.96000035e-02 -1.28054768e-02  2.25706771e-02 -2.59570852e-02
  -2.22171359e-02  7.68281296e-02  1.08479559e-02 -2.01649740e-02
  -5.83985522e-02  4.45871130e-02  2.26758569e-02  6.18615225e-02
   3.90730798e-04  4.74582836e-02  3.05004045e-02 -5.38472831e-03
  -2.62296386e-02  6.11516312e-02  4.23515514e-02 -6.61215708e-02
  -1.18195489e-02  3.33762243e-02 -3.87099385e-02 -2.59798840e-02
   1.39007196e-02  1.00903213e-02  3.64594087e-02 -5.12496270e-02
   7.41454586e-02  5.92725798e-02 -4.59810048e-02  4.40491810e-02
  -7.32203946e-02 -2.19898894e-02 -1.01940706e-02  1.32512376e-02
  -4.02173772e-02 -2.10890137e-02 -9.38199461e-03 -6.30952865e-02
  -3.52457911e-03  4.41758856e-02 -2.22582296e-02  3.09209526e-02
  -7.04120621e-02  7.11816326e-02 -6.14629164e-02  6.58210590e-02
  -4.41053621e-02 -6.41045496e-02  6.99392185e-02 -1.37044564e-02
   7.42094442e-02  1.86423734e-02 -2.68556960e-02 -3.14895399e-02
   6.93829730e-02  1.02067962e-02 -2.72462927e-02 -4.28461693e-02
  -4.35252339e-02 -2.95101665e-02 -7.57426023e-04 -3.63100357e-02
  -6.82867467e-02 -6.17963299e-02 -1.12434402e-02 -5.89095652e-02
  -4.91614789e-02  2.67310590e-02  2.86023095e-02  6.87926635e-02
  -2.71064378e-02  1.70907229e-02  2.93301493e-02  2.73938254e-02
  -5.53986430e-02 -4.31050695e-02 -1.21329874e-02  4.21921313e-02
   6.76747411e-03 -6.80056810e-02 -5.23253381e-02 -6.19562566e-02
   6.11491129e-02  1.51441097e-02  1.68751255e-02 -2.65294984e-02
   2.46900767e-02 -2.99666859e-02 -7.82725438e-02  2.60888338e-02
   7.73057863e-02 -3.50155905e-02 -5.42805195e-02 -3.08768265e-02
   4.34697494e-02 -4.61260043e-02 -5.63221015e-02  3.50047201e-02
   7.90725276e-02 -3.42685878e-02 -3.64302844e-03 -3.55303288e-04
   5.72626069e-02 -7.59885535e-02 -2.32891925e-02 -7.41763413e-02
   2.34633684e-04  4.52112481e-02 -3.54442000e-03  5.10189161e-02]
 [-4.72229719e-03  3.43844295e-03 -2.74468213e-03 -2.53699161e-02
  -7.41077513e-02 -2.89264210e-02 -7.87142664e-02  6.22044429e-02
  -4.56076600e-02  2.43773609e-02 -4.35225666e-04 -1.26689821e-02
   6.65994808e-02  2.80436277e-02 -4.62883078e-02  3.30866501e-02
   6.32832721e-02 -7.70071372e-02 -3.52025032e-03 -1.97295509e-02
   2.04371959e-02  8.03271905e-02 -4.89283726e-02  2.98591629e-02
  -8.12573731e-03 -2.91520432e-02 -1.85718089e-02 -1.21136084e-02
   7.07477704e-02 -7.49133825e-02  2.89010108e-02  5.02595976e-02
   1.63341314e-02  3.32716629e-02 -8.82107019e-03  7.46300593e-02
   2.94381380e-03  4.30187061e-02  7.59022310e-02 -6.87025785e-02
   4.79801819e-02  7.66872242e-02  1.53192133e-03 -6.23913109e-02
   2.01284066e-02  3.85433435e-03  4.86252084e-02 -1.21603161e-03
  -5.94008751e-02 -3.63583229e-02 -2.84316130e-02 -2.80310959e-03
  -3.61916460e-02 -5.47927320e-02  4.56724986e-02  7.16057196e-02
   5.25522754e-02  8.01978186e-02  5.91936484e-02 -4.04507518e-02
  -4.84106280e-02  7.78938755e-02  2.26041675e-03 -5.71532249e-02
  -1.94309689e-02 -4.29732986e-02  3.20750624e-02  7.71570578e-02
  -4.16455492e-02 -4.79161888e-02 -2.96222717e-02 -9.36140120e-03
  -7.51959532e-02  6.75678253e-04  6.09391406e-02  5.35780117e-02
   6.20222166e-02  7.68976882e-02  1.29440129e-02  1.41301081e-02
  -9.64575261e-03 -9.96506214e-03 -2.98902616e-02 -1.29585937e-02
   7.09549710e-02  6.24287650e-02 -4.31226306e-02 -3.70680541e-03
   7.57747516e-02  1.89053118e-02 -1.11702681e-02  5.09953871e-02
  -4.86383587e-03 -5.33415675e-02 -7.30893910e-02  3.29730213e-02
   7.79878274e-02  5.02946302e-02  3.50079536e-02  5.33618107e-02
  -1.85240060e-02 -5.85107729e-02  7.00831786e-02 -1.27942935e-02
   7.98284635e-02  2.20815167e-02 -3.60573232e-02 -7.77865723e-02
  -1.66479945e-02  2.51966715e-03 -3.01480033e-02  6.05433658e-02
   5.64659759e-02  7.70683512e-02 -5.20229638e-02 -2.82825716e-02
   6.88359216e-02 -3.28183137e-02 -4.01404686e-02  2.63850242e-02
  -6.91295266e-02  5.91373965e-02 -3.13077010e-02 -2.63042748e-04
  -4.86160032e-02  3.16866562e-02  8.07716623e-02 -5.00595868e-02]
 [ 1.69182271e-02 -6.73792586e-02  6.07099459e-02  2.76209116e-02
  -2.96713412e-03  6.57959804e-02 -1.78130269e-02  8.05365220e-02
  -7.43179023e-02  3.33880559e-02 -4.81541455e-02 -6.08909503e-02
  -4.29695100e-03 -1.73173919e-02 -7.79197365e-02 -3.97296473e-02
  -2.21572258e-02  3.35613713e-02  5.40588871e-02  6.70840368e-02
   8.04993883e-02 -3.18032838e-02 -6.59261569e-02  2.71248817e-03
   1.73775479e-02  4.01387140e-02  1.04949549e-02 -7.43076652e-02
  -6.60130456e-02  6.33167103e-02  6.75872788e-02  2.53485888e-02
  -1.94210485e-02 -5.07809632e-02  3.75749171e-02  5.90410307e-02
  -3.24502103e-02 -1.23831034e-02 -2.47867890e-02  6.10813871e-02
   5.99001125e-02 -6.73290342e-03 -6.06168658e-02  4.02706191e-02
   2.34501809e-03  3.80006656e-02 -6.65248707e-02 -6.80840462e-02
   6.04348555e-02  3.89999971e-02  4.61448357e-02 -2.82429494e-02
   4.82709631e-02  7.29787275e-02  5.69025055e-02  2.04492882e-02
   4.46857885e-02  3.88317704e-02 -3.67496945e-02 -4.14497107e-02
  -6.24123700e-02  3.59468460e-02  6.60726503e-02  7.86738172e-02
   4.16994095e-04  3.29259783e-03 -1.52899995e-02 -4.82900366e-02
  -1.71306580e-02 -1.76709518e-02  6.17204830e-02 -6.34688810e-02
   2.09669098e-02 -3.67081538e-02  4.70651314e-02  6.51798621e-02
  -5.10475226e-02  1.43997222e-02  3.45602706e-02 -8.39608908e-03
   7.69903138e-02  7.77788982e-02 -1.72645971e-02  2.68809348e-02
   5.52462563e-02 -7.19531178e-02 -5.79648688e-02  2.18473673e-02
   9.24171507e-03 -5.60693517e-02  4.75707874e-02  1.74072906e-02
  -1.83901191e-03  1.21706203e-02 -3.98535468e-02  6.36736527e-02
  -2.99242884e-03 -5.07806353e-02  7.86477402e-02 -1.10016912e-02
  -5.87944239e-02  4.02661487e-02  1.89499259e-02  6.22580573e-02
  -7.28983283e-02 -4.86049615e-02  5.17232344e-02  3.53378206e-02
   7.89073780e-02  4.09450755e-02 -1.32952780e-02 -1.22324005e-02
  -2.85295807e-02  2.57151052e-02  6.47825375e-02 -6.35401234e-02
   7.42169097e-02 -7.33473673e-02 -1.64300203e-04  2.41941065e-02
  -1.47443935e-02 -3.23009938e-02 -3.60978171e-02  1.76018551e-02
  -5.97109050e-02  2.75442153e-02 -1.37638971e-02 -3.62852626e-02]
 [ 5.21267951e-03  3.34136635e-02 -4.74346466e-02 -2.54885554e-02
  -7.31080174e-02  2.36313641e-02 -3.37710343e-02  5.65424934e-02
  -1.40732899e-02  7.08025768e-02  2.69585401e-02  3.60641330e-02
   4.94258776e-02 -4.32863459e-02  3.50820571e-02  1.18878707e-02
  -6.17092475e-02 -5.10856509e-04 -5.69352806e-02 -3.45279276e-03
  -6.71879798e-02 -1.57557428e-02 -2.66027711e-02  7.41798803e-02
  -6.17384315e-02 -1.43130124e-02 -7.04845861e-02 -2.63004377e-02
   6.30107149e-02  3.70410606e-02 -1.50324330e-02  8.18718225e-03
   1.54682994e-03  3.39458883e-03 -6.85209334e-02 -4.22180407e-02
   9.87786800e-03  1.00607499e-02 -1.71860456e-02 -7.57536888e-02
  -6.80215061e-02  2.16810182e-02  5.88740185e-02  7.58256763e-03
   1.95995569e-02 -1.65267065e-02  5.87428138e-02  5.04152253e-02
   4.92636636e-02 -2.19098665e-02 -2.91231684e-02 -2.23359093e-02
  -4.95430790e-02 -6.18078932e-02  6.38745651e-02 -6.86350912e-02
   1.40394866e-02  5.81957474e-02  2.73239911e-02  7.89496377e-02
  -8.05322230e-02 -5.73446155e-02  5.97451553e-02  5.58059886e-02
   2.84109414e-02  4.53105792e-02  5.52145615e-02  2.28419527e-02
  -6.55170009e-02  5.21827415e-02 -4.05370221e-02 -2.76207179e-02
   6.29085526e-02 -7.27152750e-02  1.11256689e-02  6.14414290e-02
   1.82873979e-02  3.70789692e-02 -3.89826857e-02  4.62174341e-02
  -1.11300647e-02  1.68755651e-03 -4.19398025e-02 -5.54267019e-02
   3.28070372e-02 -6.16783649e-02 -6.33570105e-02  7.70410970e-02
  -5.88625930e-02  5.19902334e-02  8.49995762e-03  7.35791698e-02
   1.37005672e-02 -4.50514108e-02  3.08670178e-02  2.69786492e-02
   5.77727780e-02  4.42342460e-03  6.39197752e-02  5.68563491e-03
  -7.21432269e-02  1.20708123e-02 -1.74444243e-02 -8.07185099e-02
   5.17740175e-02 -6.04652762e-02  7.37685189e-02  7.88913295e-02
  -2.83627287e-02  1.42633915e-02 -4.43369783e-02  4.86460701e-02
   2.18360722e-02  3.10321674e-02 -7.77995661e-02  3.35394219e-02
  -2.68083960e-02 -4.80731763e-02  1.70687959e-02 -7.70961344e-02
  -4.76669930e-02 -3.71400565e-02 -5.02049699e-02  2.58730426e-02
  -5.24895601e-02  7.90764317e-02 -7.30895847e-02 -5.11348993e-03]
 [-7.78591111e-02 -6.18411750e-02 -1.50548443e-02  2.93738320e-02
   1.78956464e-02  4.83964756e-02  4.57637012e-03  8.00982490e-02
   2.49346271e-02 -2.22740844e-02  3.30524594e-02 -1.44478008e-02
   4.31245416e-02  6.78825006e-02  4.44991365e-02  7.36917183e-02
  -9.63503867e-03  7.33046755e-02  5.20416126e-02 -2.40253434e-02
   5.30246273e-02 -2.07322054e-02 -3.72648053e-02 -2.51942277e-02
   1.87277794e-03  5.25203422e-02  5.24593368e-02 -4.62187082e-03
   2.77915373e-02  6.22276291e-02  4.22885120e-02 -4.11641449e-02
   2.20568478e-03  3.50602791e-02 -2.68508606e-02  3.28772366e-02
   3.63690928e-02 -2.26449557e-02 -3.31452452e-02  7.00707808e-02
   7.28514567e-02  5.88869080e-02  2.34877318e-03  6.55103102e-02
  -4.44859229e-02  3.67949829e-02 -5.19783907e-02 -5.79817146e-02
   3.83551791e-02  4.29434404e-02  2.49623805e-02 -1.16326809e-02
   1.02627426e-02 -7.99830556e-02 -5.44626266e-03 -4.19877023e-02
  -5.21733984e-02 -7.01239631e-02 -9.88716632e-03 -2.16394030e-02
   4.10328731e-02  1.63200200e-02 -7.97313675e-02  1.36657208e-02
   4.99229059e-02 -6.24119863e-02 -7.74214044e-02  8.33097845e-03
  -5.37521578e-02  8.00714120e-02  6.87670931e-02 -5.02347201e-03
  -4.25227359e-02 -5.92185147e-02 -6.35281727e-02  7.91531727e-02
  -6.26987517e-02 -2.44417749e-02 -4.70295288e-02 -2.84913108e-02
   2.32767388e-02  6.20836541e-02  2.47491002e-02 -1.33986399e-02
   3.92947271e-02 -4.14088294e-02 -5.03812581e-02  5.87545708e-02
  -1.80166587e-02 -2.88378522e-02  6.29770681e-02  1.38322785e-02
  -3.17714363e-03 -1.62099227e-02  3.12447548e-04 -6.47013709e-02
   5.55055961e-02  1.89895704e-02 -1.57628432e-02 -3.87603529e-02
  -5.22856787e-02 -4.17177789e-02 -2.37634256e-02  6.29079714e-02
  -4.42905277e-02 -2.37344168e-02  3.64024937e-02  4.62120995e-02
   2.86282822e-02  5.89504316e-02 -6.76586553e-02 -5.88457510e-02
  -2.31668204e-02 -4.90305573e-02 -1.95204280e-02  3.26748043e-02
   2.54006460e-02  6.81283399e-02  6.74437657e-02 -1.88532770e-02
   5.96180558e-03 -4.91326265e-02 -5.57036996e-02 -1.75157040e-02
   2.00205520e-02  1.90229490e-02 -3.54119837e-02  8.15667957e-03]
 [ 6.48447797e-02  7.04954639e-02  1.77253336e-02  8.68983567e-03
   2.69639343e-02  1.58523172e-02  9.37595963e-03  4.42229584e-02
   7.79050961e-02  2.14537159e-02 -6.87047839e-02  3.17667574e-02
  -6.23223335e-02 -3.96471880e-02  3.30890864e-02 -6.26317635e-02
   2.34735459e-02  7.32695237e-02  5.27450964e-02 -2.27412619e-02
   5.13777882e-03  5.35071269e-02 -3.74445580e-02 -4.42243516e-02
  -7.69892335e-02 -6.40803203e-02  3.00167575e-02 -6.47810847e-02
  -7.01325312e-02  1.03190690e-02  2.24102288e-02  2.88451612e-02
  -4.96987738e-02 -7.23889396e-02 -4.38055247e-02  9.38180089e-03
  -4.14817557e-02  3.11588496e-03 -7.73246735e-02 -2.13332586e-02
  -8.09374601e-02  2.22643390e-02 -6.20241463e-03  4.12161648e-02
   1.03659704e-02 -3.49969268e-02  6.45976588e-02 -7.73665011e-02
  -1.45075917e-02  4.61933538e-02  7.35556409e-02 -2.30534188e-02
   6.76217750e-02 -7.26124942e-02 -3.18086147e-03  5.28065339e-02
   6.41176924e-02 -2.54428387e-02 -3.11163068e-03  3.45230401e-02
   1.38543993e-02 -1.99975073e-03  6.97846785e-02 -5.92149571e-02
  -1.54304355e-02 -1.17655843e-03  3.30163985e-02 -6.93164021e-03
  -5.93118817e-02  2.21202895e-02  2.61799619e-02  4.71021235e-03
  -5.45419753e-04  1.43579692e-02 -1.22531354e-02 -3.03117409e-02
  -3.21876258e-03  8.15500319e-03 -1.60360560e-02 -7.39595443e-02
  -4.70498949e-03  5.97402453e-03 -6.74669743e-02  6.46779165e-02
   6.32985607e-02 -3.51244621e-02 -7.55927339e-02 -1.86771154e-03
  -2.94162035e-02 -4.53869998e-03  5.05537614e-02 -3.57466936e-02
  -1.29008293e-02  6.97833821e-02  5.08019105e-02  6.40979782e-02
   6.86457232e-02  3.82544994e-02  6.84140846e-02 -3.58231552e-02
  -6.91121072e-02  6.82691261e-02  7.91926906e-02 -7.69479647e-02
  -1.21945143e-03  5.58975115e-02  8.04825053e-02  7.48057291e-02
  -7.71978945e-02 -3.23341005e-02 -3.06799822e-02 -5.39336093e-02
  -4.37582396e-02 -1.79111138e-02 -4.85051535e-02 -6.62621036e-02
   8.08630660e-02  7.81075880e-02  4.92654964e-02 -4.19650972e-02
   5.19447252e-02 -3.48943956e-02  3.53866145e-02 -6.96842670e-02
   7.93122724e-02  7.93639645e-02  1.77858993e-02 -2.68180817e-02]
 [-9.13425535e-03 -6.71275705e-02 -7.64947534e-02  3.80087122e-02
   2.27393433e-02 -7.21154213e-02  5.79945967e-02  4.89304438e-02
   5.94156757e-02 -3.11232731e-02 -7.56178573e-02  1.79727077e-02
  -5.48391640e-02  7.37387016e-02  8.69855285e-05 -3.40913348e-02
  -4.24377434e-02  6.09131530e-02  3.61732543e-02  5.14787436e-03
  -7.65423626e-02  1.38806552e-03  2.37868652e-02 -5.30768447e-02
   5.68557456e-02 -3.60872000e-02  4.48016077e-03  8.04535225e-02
   6.99397847e-02  7.08657503e-03 -4.11918946e-02  5.47917858e-02
   6.09269962e-02 -6.96277991e-02  1.41666606e-02  4.43425253e-02
   1.74832344e-02 -1.69350728e-02 -4.02122922e-02  5.10347635e-03
   3.04032713e-02  5.05049452e-02 -5.74762300e-02 -5.37368655e-03
   3.02594677e-02  9.24503803e-03  5.21381870e-02 -4.74160798e-02
   7.53056183e-02  7.13440999e-02 -3.38468961e-02  5.01672998e-02
  -3.58047076e-02  2.66663358e-02 -6.68772012e-02 -3.56827788e-02
  -5.82550839e-02 -4.15370837e-02  2.29616612e-02  3.36789265e-02
   5.45327738e-02  6.22755364e-02  6.11472949e-02 -7.29215592e-02
   8.05556402e-02 -1.23667046e-02  4.41017747e-03  6.36311993e-02
  -5.40301874e-02  5.31232581e-02 -2.78683454e-02 -2.26454586e-02
   1.75983980e-02  4.94414195e-02 -7.11586997e-02  3.85080054e-02
  -8.09238777e-02  5.26489243e-02  6.50770888e-02  7.53740594e-02
  -1.25783682e-02 -8.52526724e-03  2.14459598e-02  4.44683209e-02
  -1.35157108e-02 -5.62959164e-02  7.36302212e-02 -1.86604150e-02
  -6.71111345e-02 -4.17699739e-02 -2.78672054e-02 -3.26275006e-02
   5.97565696e-02 -6.60106465e-02  9.49759781e-03  3.59924212e-02
   1.81946531e-02  4.34962809e-02  7.89395794e-02  1.70715600e-02
   5.16363606e-02 -3.77343409e-02 -9.36352462e-03  4.68324944e-02
  -5.61997890e-02 -4.05532084e-02  3.08045745e-03  5.54225817e-02
  -3.79980765e-02 -3.79760303e-02  1.95863917e-02  2.51746178e-02
   7.57890418e-02 -4.52878624e-02 -5.51592521e-02  2.42612138e-02
  -6.75512105e-03  2.07955167e-02  6.96772262e-02 -3.52778174e-02
   4.35721278e-02 -4.47803661e-02 -4.07636650e-02  6.18968382e-02
  -2.83853710e-03  3.30373421e-02  7.93256685e-02 -3.25124972e-02]
 [-6.26759902e-02  1.04907975e-02 -1.17689446e-02  5.14983609e-02
   5.98614737e-02 -1.65295452e-02 -1.48731843e-02  1.85953975e-02
   4.06936035e-02  5.32468930e-02 -2.05064118e-02 -5.38200364e-02
  -2.19104104e-02  5.18871769e-02  2.68622339e-02 -7.17931837e-02
   7.27281943e-02 -2.52291560e-03  6.15059510e-02 -7.81975463e-02
   2.91759670e-02 -6.43712804e-02  5.74036613e-02 -5.02669811e-03
  -3.32889706e-03 -6.81288317e-02  3.01271379e-02 -1.81832239e-02
   1.68378204e-02  5.03610000e-02 -5.07021025e-02  3.68458033e-02
  -3.59628350e-02 -1.48620084e-02  4.15059701e-02  7.54823908e-02
   2.96181887e-02  3.33779454e-02  7.20247850e-02 -3.76964398e-02
   1.14087090e-02  4.38004360e-02 -3.98708768e-02  6.87550828e-02
  -7.66463578e-03 -7.56701902e-02 -7.93883428e-02  5.29189333e-02
  -3.22972611e-02 -4.09767032e-03  8.31937790e-03 -5.34827784e-02
  -4.93382886e-02 -4.63242196e-02  5.73391542e-02 -1.20548010e-02
  -5.31236641e-02  2.80594677e-02  6.36757389e-02  5.10027930e-02
  -4.99402285e-02  4.67671826e-02  6.11315742e-02 -9.96463001e-04
   7.06736371e-02 -1.74945593e-03  3.73478979e-03  1.47697255e-02
   7.77266994e-02 -3.74906398e-02 -2.06292458e-02 -6.50127754e-02
   6.51058555e-03  6.59300461e-02 -7.37941191e-02 -2.03694776e-02
   1.61285698e-02  1.89184621e-02  4.01018336e-02  2.37935558e-02
  -4.94044647e-02 -3.81548703e-02 -1.91981941e-02 -1.06792450e-02
   6.62514940e-02 -2.96356939e-02 -3.91505659e-04  1.88964754e-02
  -2.62913853e-03 -5.74599504e-02 -3.98635082e-02 -4.69787642e-02
   2.02116966e-02  3.49903554e-02  6.30987063e-02 -1.77294016e-04
   5.06056622e-02  6.44088164e-02  7.04759732e-02 -3.17814499e-02
   5.42263687e-03  4.01325822e-02 -7.62758404e-03 -1.90829970e-02
   2.03662887e-02 -2.55727954e-02  4.65197936e-02 -9.91833955e-03
  -1.94769762e-02  2.79973745e-02 -2.17629224e-03  6.85351714e-02
   2.71326974e-02 -4.55771424e-02  8.19741189e-03  2.42256522e-02
  -5.67198917e-02 -5.24318740e-02 -7.59123191e-02  2.15655714e-02
  -5.82532808e-02  6.80722073e-02  4.63262573e-02  1.48092285e-02
  -3.37846689e-02 -1.29990727e-02 -2.92023234e-02 -5.33109382e-02]
 [-3.89736928e-02 -6.91829622e-03 -3.83757353e-02 -4.73704413e-02
   1.17921084e-03  2.52315328e-02  1.13182813e-02 -3.92936468e-02
   7.93184116e-02  1.99325085e-02 -2.97383405e-02  2.00007111e-02
   4.56532463e-02  7.86813274e-02 -3.06265503e-02  7.99195394e-02
  -7.76205733e-02 -3.58567461e-02  5.70470616e-02  5.23967817e-02
   1.93364993e-02 -7.71468952e-02  6.39494434e-02 -4.96329851e-02
  -5.75448424e-02  6.49568513e-02 -6.11676611e-02 -3.52119505e-02
  -5.03667593e-02 -5.48563935e-02  8.19473714e-03  5.97312525e-02
   7.00924769e-02  3.40478420e-02 -4.91642244e-02  1.03863105e-02
  -7.00734928e-02  3.73796970e-02 -1.02760270e-02 -1.08592659e-02
  -6.21995926e-02  6.27878085e-02 -4.38666902e-02  3.90822962e-02
  -7.69987255e-02 -5.45923710e-02 -1.05968118e-03 -7.49150291e-02
  -1.88040808e-02  2.14697868e-02  5.52948341e-02 -5.91530353e-02
   1.08480304e-02 -3.92061807e-02 -5.42607754e-02  5.75229749e-02
   6.00908473e-02  5.62389717e-02 -6.29455298e-02  3.20880786e-02
   4.46317121e-02 -2.33565681e-02 -3.04758064e-02 -2.05202401e-03
  -1.41509175e-02  1.14429519e-02  7.68372491e-02  1.27319098e-02
   5.02866432e-02  1.30740255e-02 -4.69649546e-02 -3.52681465e-02
   2.89266929e-02  1.63146406e-02 -5.85323125e-02 -3.97227444e-02
  -7.61701241e-02 -9.77288187e-03  9.80765373e-03  5.53112254e-02
  -4.70850840e-02  4.81610820e-02 -4.14693020e-02  3.84431854e-02
   1.55311078e-02  7.30551854e-02  1.60744414e-02  2.80566439e-02
  -3.05631757e-02  6.56238869e-02 -4.93557490e-02  2.93396264e-02
   7.52304718e-02  4.36359644e-02 -6.52444437e-02  4.20156643e-02
   2.82662138e-02  4.59112301e-02  7.20861629e-02  4.94245514e-02
   6.38126805e-02 -5.31438887e-02  4.31999862e-02 -7.87319988e-03
  -5.60222566e-03 -1.14534795e-03  6.76065162e-02 -2.09327787e-03
  -4.02863957e-02  3.23345289e-02 -8.47466290e-03 -7.95406923e-02
  -4.19364199e-02  3.65553796e-02 -8.00428316e-02 -7.93495327e-02
  -4.66556214e-02  3.05773541e-02  4.05264422e-02 -4.79458533e-02
   5.84992841e-02 -1.60925239e-02 -2.71985456e-02  4.32427973e-02
   5.78732863e-02 -5.25789410e-02 -6.70580715e-02 -2.35643946e-02]
 [-6.14040345e-02  2.57424489e-02  3.76411527e-02 -2.84422301e-02
  -4.23201285e-02 -4.55320254e-02  2.06988230e-02 -6.76833317e-02
   2.33169645e-03 -1.39649585e-02 -3.95537466e-02  5.49878106e-02
   2.19022483e-02 -1.43431872e-03  2.96682194e-02  2.83102468e-02
   1.18603110e-02 -6.17041811e-02 -4.82933447e-02 -7.77052343e-02
  -4.65785973e-02  7.87432715e-02 -6.39395341e-02 -1.30725726e-02
   6.72246292e-02 -4.09078710e-02  6.33917823e-02  7.26585612e-02
   7.00668767e-02 -7.51337409e-02 -7.56518915e-02  5.37247136e-02
  -6.91255182e-03  5.47001511e-03  1.04738772e-02  3.39232087e-02
   2.31315047e-02 -2.09046900e-03 -6.57966286e-02  4.90854904e-02
   7.58278742e-02 -4.67534363e-03 -2.13218480e-02 -4.76677120e-02
  -5.34175262e-02 -1.36388838e-03  6.40954077e-03 -4.22364138e-02
  -6.43018782e-02 -6.76621571e-02 -2.12372057e-02  7.36060515e-02
  -7.90710598e-02 -4.93075587e-02 -3.76487300e-02 -2.28350125e-02
   6.58945665e-02 -2.59914249e-03 -1.32586509e-02 -2.10829414e-02
   7.41935149e-02 -2.19312757e-02 -1.29531994e-02  2.34295428e-03
   3.03827226e-04 -5.63313663e-02 -4.28153649e-02 -6.64820373e-02
  -4.87904139e-02  6.83039054e-02  4.01410684e-02  3.38770449e-04
  -1.19324774e-03 -2.01190077e-02 -8.06009322e-02  2.84748152e-02
   5.92724457e-02 -1.24562234e-02 -2.36337036e-02  5.04692867e-02
  -3.84944715e-02 -1.50780305e-02 -1.34173408e-02 -6.80673718e-02
  -6.15735352e-02 -4.32580709e-05 -7.34840930e-02 -3.36473472e-02
  -7.21219927e-02  6.55372217e-02 -3.70457806e-02 -4.76956144e-02
  -2.95915641e-02  1.42922625e-02 -3.72006632e-02 -3.20243798e-02
   5.86551353e-02 -2.82841399e-02 -4.04914804e-02 -4.23046760e-02
  -5.17447293e-02 -5.54970652e-03  2.58468762e-02 -6.19044527e-02
   4.00285050e-02  1.05023608e-02  4.22015488e-02 -1.06167272e-02
   7.90397078e-03  4.05141860e-02 -6.35499060e-02 -4.57998812e-02
  -4.96271066e-02 -6.39829487e-02 -4.19817269e-02  7.02474639e-02
  -3.95128466e-02  9.72256064e-03  1.56607777e-02 -7.33970851e-02
  -1.53074414e-03 -4.68608774e-02  4.65963259e-02 -1.16650760e-03
   4.78271022e-02  6.15036115e-02  5.80626652e-02  3.37319896e-02]
 [ 4.34295684e-02 -1.01720989e-02  5.91586456e-02 -1.10210702e-02
  -7.63248503e-02 -3.50199603e-02 -2.65535936e-02  5.80564067e-02
   3.80553156e-02  6.07592389e-02 -1.92362517e-02  5.60592487e-02
   6.82049915e-02 -5.94606884e-02 -3.13000642e-02  1.73973367e-02
   4.60943207e-02  3.94353941e-02 -4.76501882e-03 -4.53678519e-03
  -5.69045544e-04 -5.23062050e-03 -9.72254574e-03  5.30249253e-02
  -2.58604884e-02 -1.84626207e-02  6.53950647e-02  4.01493460e-02
  -4.12587859e-02 -4.33690101e-03  1.91281885e-02 -7.04473257e-03
   5.21053150e-02  6.70040026e-02 -4.33331467e-02 -5.49773946e-02
   5.21182790e-02 -3.01938355e-02  1.37732923e-03  6.48996755e-02
   4.60457876e-02 -1.98063850e-02  5.53648248e-02 -1.21786445e-03
  -5.71093448e-02  5.02573699e-03  1.35178417e-02 -5.28679714e-02
  -2.36209594e-02  1.48333684e-02  3.13492566e-02  6.76070377e-02
  -3.16380784e-02 -3.27769481e-02  6.76613227e-02  1.41171366e-02
  -8.35855305e-03 -6.52460307e-02 -4.64808233e-02 -7.57454932e-02
  -1.31413341e-03  1.83993503e-02 -5.70198856e-02 -4.20035012e-02
   5.71989790e-02  4.95075509e-02  1.53110772e-02  4.51576784e-02
   3.31337973e-02  5.08783013e-03  5.54374605e-03 -2.49564238e-02
  -4.71264124e-02 -6.20115660e-02 -7.23740682e-02  2.75991559e-02
  -7.25103170e-03 -1.74935237e-02 -7.94299021e-02 -4.09440137e-02
  -4.51544262e-02 -4.28735912e-02  4.53483686e-02 -2.23982781e-02
  -4.30942215e-02 -5.54096252e-02 -3.86998057e-04 -1.48726627e-02
   5.26422784e-02 -4.20653261e-02  6.48399517e-02  3.27469334e-02
   1.25903562e-02 -4.01557088e-02 -7.66549930e-02 -6.37201965e-02
  -5.21779247e-02 -4.91964817e-02  6.33461252e-02  5.80990836e-02
  -6.69810250e-02  6.87599108e-02  6.94063827e-02  7.81719759e-02
  -5.00548854e-02  2.98099518e-02  5.70541099e-02 -5.94011843e-02
   2.41102204e-02  2.18488351e-02  7.02039227e-02  5.50529733e-02
  -1.97120309e-02  1.39627755e-02 -2.82493979e-03 -9.04202461e-03
  -6.23874813e-02  1.41801536e-02 -6.39861599e-02 -5.92182837e-02
   3.84736657e-02  1.50455832e-02  3.35990787e-02 -6.27295971e-02
  -2.02755891e-02  4.78443429e-02 -6.17472492e-02 -4.05180715e-02]
 [-2.95684934e-02 -2.18961388e-02  6.52099624e-02 -5.71711697e-02
  -8.99470598e-03 -1.00867972e-02  3.03445980e-02  7.14165941e-02
  -5.49992919e-03 -7.56426901e-02  1.77212730e-02  7.71849379e-02
  -3.81750204e-02  7.16059133e-02  9.95411724e-03 -6.72596544e-02
   6.36568740e-02 -2.18369067e-02 -5.10875136e-03  7.41938874e-02
   4.97516468e-02  4.41708639e-02  6.08746037e-02 -3.41310725e-02
   2.39341259e-02  6.40906021e-02 -3.02116573e-03 -7.75022805e-03
   3.84432450e-02 -4.89798896e-02 -6.79274648e-02 -1.19372457e-02
   1.09784305e-02 -4.24354821e-02 -7.77482018e-02  5.73473349e-02
   1.26551986e-02 -4.11516316e-02 -2.89677307e-02 -7.91190937e-02
   2.05551460e-02  6.05940297e-02  6.97976872e-02  1.37138516e-02
   3.89185771e-02 -3.19683738e-02  3.16594690e-02 -4.29311804e-02
  -1.42830908e-02 -6.70857206e-02 -7.63337985e-02  5.56768551e-02
   6.30888864e-02  2.10689604e-02 -2.83887014e-02  3.09144408e-02
  -7.75732473e-02 -6.84533045e-02 -2.71664821e-02 -1.72488764e-02
  -6.17836416e-02  7.56602213e-02  8.49068165e-04 -4.10535075e-02
  -6.21410534e-02 -3.71147804e-02  1.32408738e-02 -3.67324054e-02
   4.35921475e-02 -5.10280281e-02  7.47639164e-02  7.15890005e-02
  -2.73225605e-02  1.63548291e-02 -6.02434576e-03  3.07684764e-02
  -2.49964744e-03  1.99003890e-02 -3.63939069e-02 -5.16797900e-02
  -6.87049031e-02  5.23388386e-04  8.32724571e-03  2.98385918e-02
  -4.49522845e-02 -3.56028527e-02  5.82589135e-02 -2.86559947e-02
   5.95113710e-02  6.25618622e-02 -5.05859554e-02  6.09680489e-02
   9.67837125e-03  1.98521763e-02 -3.52968276e-03 -4.32033688e-02
  -1.59764886e-02  3.63629311e-03 -7.56018460e-02 -3.64284851e-02
  -5.67790642e-02 -1.15847662e-02 -6.18986487e-02  2.83308402e-02
   7.24726170e-03  4.32416573e-02  2.14593038e-02 -8.01508129e-02
  -4.70562130e-02 -6.42700493e-03 -2.87324414e-02 -2.31655054e-02
   7.86412880e-02 -3.63888405e-02 -6.40132874e-02  2.61644498e-02
  -3.36087868e-02 -1.32262558e-02  2.63354927e-03  1.64765865e-03
   4.82899025e-02 -3.06582637e-02 -7.06186593e-02 -3.60191129e-02
   5.97348288e-02  2.05394775e-02  2.05024481e-02  1.71067342e-02]
 [-3.74405086e-03  2.34330520e-02 -5.50221056e-02  5.47122136e-02
  -1.16741061e-02 -7.42792040e-02  1.62156075e-02 -3.82135436e-02
   4.00917605e-02  6.40478060e-02  6.81714490e-02  4.02088314e-02
  -4.79354858e-02  4.91434708e-02  3.76187935e-02 -3.86437029e-03
   3.69218737e-03  4.27862033e-02 -1.28409043e-02 -6.45561740e-02
  -7.63205364e-02  2.66468078e-02 -6.49736673e-02 -1.93393826e-02
  -6.91986829e-02 -7.90011883e-02  1.10018477e-02  1.13795996e-02
   5.58748916e-02 -6.72238916e-02 -5.40464669e-02  2.15156153e-02
   7.94484392e-02  7.32913688e-02 -3.35547924e-02 -1.27780735e-02
   5.29368594e-02 -7.95234963e-02 -3.24023664e-02 -2.78048217e-03
  -8.08202848e-02  8.77479464e-03 -4.22054715e-02 -3.55153866e-02
   2.31149569e-02  1.50167868e-02 -2.13444754e-02  1.23300999e-02
  -3.28861512e-02 -6.05207942e-02 -2.27870345e-02 -6.51653558e-02
  -3.92143391e-02  3.06181014e-02 -3.90888751e-03  3.88240516e-02
   3.22100446e-02 -6.40167147e-02  5.35616949e-02  5.59312329e-02
  -1.18880421e-02  2.47535855e-03 -5.94343096e-02 -7.49503598e-02
  -7.90144354e-02 -7.12130964e-02 -7.00665116e-02 -4.59149070e-02
   2.17884257e-02 -4.74060066e-02  1.48664713e-02  7.04753324e-02
  -6.20508790e-02  3.93777490e-02 -7.94094056e-03  7.81145468e-02
   5.95448539e-02 -3.22875157e-02  7.16557875e-02  7.57566169e-02
   6.05340078e-02 -5.84366918e-03  3.73581722e-02  3.40666398e-02
  -3.83615009e-02  1.24853849e-02  1.81104168e-02  6.64203092e-02
  -1.06596947e-02 -3.07845809e-02 -2.07728520e-02  7.72024021e-02
   5.43190613e-02  3.25883776e-02 -2.62616053e-02  6.47270754e-02
   3.35519537e-02  1.99029222e-02  6.96557388e-02  5.97453043e-02
  -2.88003571e-02 -7.82848597e-02  7.44362846e-02 -6.76117465e-02
  -7.21204281e-02  7.41624758e-02  4.24475297e-02 -6.81947321e-02
   4.90054563e-02 -2.97479331e-03  8.01657066e-02  5.57138994e-02
   4.05956581e-02  4.47454825e-02  5.34718260e-02  3.55161428e-02
  -3.48287821e-02  1.80454552e-02  3.86848748e-02  2.38579512e-02
   8.95355642e-03 -1.45418197e-03 -4.53778990e-02 -2.86582112e-03
  -1.22443959e-02  2.38217860e-02 -5.88021055e-02  5.05038872e-02]
 [ 7.35072047e-03  4.14076522e-02  7.24214092e-02  6.94108084e-02
   8.92598182e-03  6.72785714e-02  1.11636743e-02  5.80397174e-02
   6.17183745e-04  5.07607982e-02  1.80895478e-02  1.28266141e-02
  -4.18934859e-02  2.04692036e-03  2.91143879e-02  6.11710325e-02
   3.54076549e-02 -4.90477495e-02  1.97811276e-02 -3.93068157e-02
  -5.75766563e-02 -4.34690155e-02 -9.19569284e-03 -4.56477851e-02
   3.27414051e-02  6.55409172e-02 -2.55984552e-02 -5.41912168e-02
   2.09723487e-02 -2.69053392e-02 -7.24130571e-02 -9.71401483e-03
   2.22645923e-02 -8.29742849e-03 -7.95070380e-02  2.73047686e-02
  -6.91158324e-03  4.86341491e-02 -2.82990113e-02  8.01024511e-02
  -2.58956291e-02  5.01722768e-02 -3.54785658e-02 -1.53965577e-02
   3.55345905e-02 -4.93230671e-02  6.68870583e-02 -2.27917545e-02
   7.93848932e-03 -2.67955661e-03 -8.01744238e-02 -7.99661502e-02
  -5.52947931e-02  1.20203570e-02 -1.09931082e-02  3.01343277e-02
  -7.00616911e-02 -7.07827434e-02 -3.98772582e-02  6.80714473e-02
  -2.32520625e-02 -5.95258586e-02  4.16702628e-02  6.95933402e-03
   1.46797448e-02  4.42457274e-02  1.03483275e-02  1.76827461e-02
   2.50051916e-02 -5.95873930e-02 -4.81156260e-03 -3.81822176e-02
  -2.00999565e-02  4.55022827e-02 -6.87613860e-02 -4.14898209e-02
   2.99204141e-02  2.23174617e-02 -5.28415963e-02  4.59603891e-02
   4.11280543e-02  7.60329589e-02  7.81085715e-02  5.85495308e-02
  -5.88183664e-02 -4.16630134e-02 -9.76752490e-03 -7.58173317e-02
  -1.89922750e-04 -6.82086423e-02  5.00935316e-03 -1.91551670e-02
  -2.66953446e-02 -5.28214052e-02  5.09699211e-02  6.33777678e-03
   4.37667146e-02 -4.52603437e-02  4.91122976e-02 -3.83677669e-02
  -1.98679566e-02  7.78971836e-02  1.42727122e-02  3.11690643e-02
  -2.73517221e-02  6.23172000e-02 -2.99664736e-02  5.83325103e-02
   6.54873475e-02 -1.17992610e-02  8.02381858e-02 -3.84530872e-02
   6.61987886e-02  5.27519360e-02 -7.10181296e-02 -2.77571529e-02
  -3.39665264e-02 -6.10522479e-02 -7.39926100e-02  5.26287928e-02
   5.26787862e-02 -3.50632183e-02  4.90673408e-02  1.36846527e-02
   6.31793663e-02 -8.08233023e-02  1.15470588e-03  1.22920200e-02]
 [-7.97522888e-02 -1.60906464e-02  1.84367597e-03  1.35918856e-02
   6.18643835e-02  6.31404147e-02 -3.73503417e-02  7.90610388e-02
   4.60951775e-03  2.96756849e-02 -6.53386638e-02 -2.98882499e-02
   5.31592444e-02  3.12081501e-02  7.13308528e-02 -6.12187162e-02
   3.34152579e-03 -5.54927215e-02  2.66517550e-02 -6.62801266e-02
   1.67372823e-02  1.15700439e-02  2.67083943e-02  7.88776502e-02
   1.35050938e-02  4.49293330e-02  4.70718965e-02 -5.03718033e-02
   2.40407735e-02  2.85779685e-02  4.84331325e-02  2.16807872e-02
  -1.61960796e-02 -4.89648283e-02 -1.70743614e-02  7.74139240e-02
   4.73334864e-02 -2.15627477e-02  4.69129309e-02  9.84058529e-03
  -6.41141832e-03  7.20907822e-02  4.96823862e-02 -2.82733291e-02
  -5.22781909e-03 -2.57000215e-02 -4.01173048e-02 -6.99557364e-02
  -5.97584620e-02  2.97639817e-02  2.37220377e-02 -2.58511864e-02
   6.31880537e-02  1.79922953e-02  5.85677400e-02  4.79089096e-02
   4.14559245e-03 -5.16136885e-02  4.57993150e-03 -2.29744427e-02
  -5.42714670e-02  5.12131676e-02 -1.02485865e-02 -6.79751337e-02
  -2.05885023e-02  3.10506597e-02  2.27829143e-02  4.91609499e-02
   6.87064603e-02  5.23186699e-02 -2.79615782e-02  7.62212053e-02
  -4.97989841e-02 -4.79421206e-02 -3.18337232e-02  1.60285309e-02
   1.72934458e-02 -3.79169323e-02  8.01867768e-02 -6.05200604e-02
  -9.69897211e-03 -2.39223875e-02  1.14705116e-02  3.24042812e-02
   2.25839615e-02  2.08250433e-03 -7.34695494e-02  3.49786729e-02
  -6.60507977e-02 -3.20777334e-02  2.01403573e-02 -6.22484088e-03
  -6.86792210e-02 -1.22836977e-03  6.02577627e-03 -7.27199018e-04
  -3.50196697e-02  7.82545134e-02  4.94815782e-02  1.53250024e-02
  -5.70696816e-02 -1.12895444e-02  6.19874820e-02 -7.01844692e-02
   5.95081076e-02  8.10396001e-02  1.81000456e-02  3.12170982e-02
   4.42711189e-02 -1.73196346e-02 -3.09827588e-02 -3.47722955e-02
  -6.32176995e-02 -4.52495515e-02  5.78453019e-02  7.42316917e-02
  -5.52202240e-02  4.77892086e-02 -4.07612883e-02  3.02651972e-02
   5.90052977e-02  6.33722320e-02 -5.59348613e-03  3.83850932e-02
  -6.05493188e-02 -7.64149055e-02 -2.62245908e-02  7.66698346e-02]
 [-7.33070821e-02  4.60695401e-02 -5.84893674e-02 -3.33035514e-02
  -2.90283933e-02  4.80200723e-02 -3.44209746e-02  2.54941806e-02
  -3.04303318e-03 -4.48188111e-02 -2.50653550e-02 -3.22287641e-02
  -4.74558771e-02  1.15615353e-02 -6.21579364e-02 -4.72278595e-02
   3.56951207e-02 -4.28289585e-02 -5.65718375e-02  5.08587584e-02
  -1.09954849e-02 -5.70136011e-02  9.20690596e-03 -6.05492219e-02
  -3.25561836e-02  7.91183934e-02  6.06142953e-02 -2.26737894e-02
  -8.80731642e-03  3.69760692e-02  7.86804780e-02  2.26024687e-02
  -6.83890656e-02  3.36312577e-02  7.01964572e-02  2.22454816e-02
  -1.62544101e-03  4.78200838e-02  1.37646571e-02 -7.67510980e-02
   4.11827266e-02  7.14782104e-02  4.18327674e-02 -3.01087648e-02
   1.04395524e-02  1.19524449e-03 -6.48645833e-02 -7.00980499e-02
   1.40106380e-02 -2.53577717e-02 -1.31290033e-02  1.73846483e-02
  -6.67624474e-02  6.20481893e-02  1.92503855e-02 -4.01897244e-02
   3.39848399e-02  3.00581381e-02  1.69980526e-02 -5.36753982e-03
   3.63346562e-02  6.05330542e-02 -2.92126276e-02  4.03214395e-02
  -8.05448517e-02 -2.86760107e-02 -1.22685432e-02  1.90682039e-02
   2.56648436e-02 -1.96874328e-02  2.70351395e-02 -5.74302673e-03
  -7.11701661e-02 -5.60092852e-02 -2.82454826e-02 -3.68915983e-02
   6.38728067e-02  1.67384371e-02  5.32758608e-02 -6.20971546e-02
   2.23742425e-02  6.78738132e-02 -2.86532305e-02  4.18872982e-02
  -6.26329631e-02 -2.21806616e-02 -3.19010206e-02  3.92409116e-02
   7.18522072e-03 -2.20241956e-02 -8.09904039e-02  1.36058778e-03
   1.08533278e-02  1.13965273e-02 -7.54796639e-02  3.61215249e-02
   3.86469811e-03 -7.43955225e-02 -7.81850368e-02  4.87933978e-02
   4.03498486e-02 -2.02466212e-02  6.41153231e-02  8.27071816e-03
   1.45006105e-02 -1.17781088e-02 -5.82425296e-03  5.21612540e-02
   5.99067286e-02  4.75872234e-02  3.49211991e-02  7.14650750e-03
   7.49135390e-02 -9.87903029e-03 -4.10595797e-02  2.56178901e-02
   4.71183658e-03  7.41152838e-02  1.84406936e-02 -7.12987632e-02
   4.04941067e-02  1.74146220e-02  6.44809082e-02  6.35007769e-03
  -5.30500412e-02 -8.04025605e-02  7.03914240e-02  6.65696189e-02]
 [ 2.06277743e-02 -2.09220638e-03 -1.80793554e-03  6.63441643e-02
   4.32707891e-02 -7.27260858e-02  7.16514215e-02 -1.18882209e-02
  -2.81830877e-03  1.07741943e-02  7.15452507e-02 -4.69620749e-02
  -4.95738275e-02  2.77968980e-02 -5.00110202e-02  1.20821819e-02
  -7.55952671e-02 -3.52841765e-02  4.44468856e-02  7.66705349e-02
   7.45558143e-02  4.54244316e-02  7.15901256e-02  8.53341445e-02
   5.84045798e-03 -5.87319508e-02 -2.75012478e-02 -6.11555390e-02
   1.40794367e-03 -8.43018387e-03  6.83516450e-03  1.90049633e-02
   3.97263132e-02 -1.26906782e-02 -4.81715053e-03  5.07319495e-02
   3.30874883e-02 -5.76763880e-03  5.82043789e-02 -1.52937835e-02
   5.13444431e-02 -1.89597737e-02  6.37058467e-02  7.39555433e-02
   4.40381244e-02 -7.49373063e-02 -7.88329095e-02  4.31639962e-02
   5.17111309e-02  6.55618384e-02 -2.71975771e-02 -5.17893806e-02
   2.75883283e-02  3.88627984e-02  2.94304080e-02 -4.03108969e-02
  -7.79731572e-02 -4.57904711e-02  5.98792657e-02  7.75740668e-02
   4.52716388e-02  4.42013331e-02  4.21690866e-02 -1.64345037e-02
  -3.66953127e-02 -5.68072423e-02  5.82242711e-03 -5.85643686e-02
  -4.10940358e-03  7.20138326e-02 -9.68044903e-03 -7.72490203e-02
  -7.17062727e-02  6.47493601e-02 -3.72437946e-02 -2.76747718e-02
  -7.37051591e-02 -2.67486386e-02  3.20358053e-02  6.72140494e-02
  -5.36723733e-02  6.24096617e-02 -5.86421005e-02 -3.02437488e-02
   6.51111752e-02 -1.20695364e-02 -6.20363355e-02 -2.17056200e-02
  -4.92919087e-02  6.37074932e-02 -7.84445256e-02  7.68897310e-02
  -4.76858690e-02 -3.67938168e-02 -7.41132721e-02  1.17762322e-02
  -3.09046470e-02  2.08088616e-03 -5.58970384e-02 -7.88175911e-02
   3.75001840e-02  6.34706691e-02  1.21401772e-02  5.60920872e-02
   8.94941390e-03 -6.90048710e-02  1.78668872e-02 -6.68790340e-02
  -1.42981969e-02 -2.62737032e-02 -2.03024205e-02 -3.03571299e-02
   5.03181890e-02 -1.94425453e-02  4.12378721e-02 -1.57998279e-02
  -3.34366746e-02  5.75354472e-02 -3.13426778e-02 -2.61371117e-02
   7.02262521e-02  2.18092948e-02 -1.75692327e-02 -7.16635585e-02
   3.53114232e-02  2.44840495e-02  1.97345242e-02 -7.12643564e-03]
 [-1.61676481e-02  5.41682877e-02  7.34750405e-02 -6.36860058e-02
   8.04708228e-02 -9.37776268e-02  1.32192150e-02  5.55347279e-02
  -1.75404549e-02  3.84966135e-02 -6.11903667e-02 -4.77869548e-02
  -6.68224171e-02  2.95798853e-03 -8.36061686e-03  4.29328457e-02
  -6.52691424e-02 -5.53750619e-03  1.40853191e-03 -4.05183248e-02
   3.34401317e-02 -2.12414768e-02 -4.10593264e-02  8.64481553e-02
  -7.50587136e-02 -4.39500809e-02 -6.93733469e-02 -6.43664002e-02
   6.21940941e-03  7.07704946e-02  6.09703287e-02  4.60733846e-02
   3.45708542e-02 -1.62184220e-02  3.13585857e-03 -5.42942584e-02
   2.75051612e-02  7.80053586e-02  6.45467639e-02  2.77560446e-02
  -4.30858247e-02 -7.58364871e-02  7.03093931e-02 -6.64978772e-02
  -2.01319568e-02 -7.83839449e-02 -1.06327861e-04 -6.96260035e-02
   3.91196534e-02  5.30180559e-02  3.94977778e-02  2.95332745e-02
  -2.30186339e-02  5.13618551e-02 -8.70766584e-03  3.12841833e-02
  -3.66366375e-03  7.68593699e-02 -5.66930063e-02 -6.55627325e-02
  -2.12592259e-03  1.98834371e-02  7.04231346e-03 -5.27835712e-02
  -6.61140308e-02 -7.15181381e-02 -4.34444984e-03 -5.13208397e-02
   1.36833554e-02 -7.43752196e-02 -5.41548021e-02 -9.94954109e-02
   6.61342070e-02 -9.49039962e-03  6.29427657e-03 -1.09432563e-02
  -1.62426326e-02  1.95430368e-02  4.99579683e-02 -3.22122388e-02
   9.33963358e-02  8.41047242e-03 -4.32781242e-02  1.55233257e-02
   1.40922060e-02 -8.19490328e-02  6.64421692e-02 -3.46009433e-02
   2.94558238e-02 -4.96874228e-02  4.96965982e-02 -7.32514039e-02
  -2.93122232e-02  8.74671265e-02 -7.23570352e-03  4.00478095e-02
  -4.00302596e-02  5.78847788e-02  9.84922647e-02 -3.45686488e-02
   7.86819309e-02  4.17280495e-02 -7.84550756e-02 -4.12025414e-02
  -5.61757088e-02 -7.47815296e-02  9.51355696e-03  4.64799777e-02
  -3.12050432e-02  6.28481284e-02  4.43453230e-02  2.64335647e-02
   4.43362407e-02 -8.26259330e-02  2.30611954e-02  8.01925212e-02
  -2.89556570e-02  1.11309569e-02  8.22946206e-02 -6.00608848e-02
  -3.15976664e-02 -4.86985072e-02 -5.12328111e-02 -6.94538653e-02
   7.82617182e-03 -4.21760753e-02  1.27973333e-02  2.11922210e-02]
 [ 1.66508388e-02  1.35925516e-01 -1.87728461e-02  5.06338589e-02
   3.07777077e-02 -1.54913262e-01 -7.36596584e-02  6.15135841e-02
  -6.74226135e-02  8.20340142e-02 -8.69208798e-02 -8.95261988e-02
  -4.68950346e-03 -6.37059361e-02 -1.68947801e-02  8.16520080e-02
  -4.81599942e-02 -2.03053243e-02  1.33477047e-01 -1.07466817e-01
  -1.39320865e-02 -6.70715794e-02  6.80176867e-03  1.14951245e-02
  -3.33308354e-02  3.96992825e-02  2.28946134e-02 -9.69488621e-02
  -4.64214161e-02  2.46661212e-02  8.71857628e-02 -7.35416412e-02
  -6.06390797e-02 -1.06703833e-01  2.80553121e-02 -6.85316324e-03
  -6.23570420e-02 -6.86685964e-02  1.10176422e-01 -7.71930665e-02
   5.14954031e-02  3.98523174e-02 -1.36966452e-01  7.24502280e-02
   1.47994131e-01 -7.70397931e-02 -2.04232614e-02  1.73600726e-02
   9.22744423e-02  5.56599423e-02  1.56817883e-01  6.66059181e-02
   1.60252139e-01 -6.04767948e-02 -3.75130177e-02 -5.92821240e-02
   1.74570084e-01  9.84211266e-02 -2.99865846e-02  1.37493536e-02
   1.25538036e-01  1.26776963e-01  4.57556099e-02  1.51314139e-01
  -2.00461000e-02  1.38926953e-02 -2.75912285e-02  8.60728696e-02
   5.74559793e-02  4.90102097e-02  1.12726271e-01 -9.35491771e-02
  -1.78673826e-02 -1.64914086e-01 -6.22215644e-02 -2.42848061e-02
   9.41557512e-02 -7.17151463e-02  1.50325010e-02  2.76784077e-02
   1.08612804e-02 -1.61144398e-02  2.34792493e-02  1.16939247e-02
  -1.19656861e-01 -1.08010761e-01 -4.85987924e-02 -5.96395284e-02
   2.68018357e-02 -8.95117894e-02 -6.33236691e-02 -3.59303169e-02
  -7.00913444e-02  9.08748135e-02  7.99914002e-02 -1.37167303e-02
   1.64676994e-01 -9.23983008e-03  1.06068607e-02  3.12414952e-02
  -7.46378601e-02  2.66819447e-02  1.15945898e-02  9.76829082e-02
   2.50277147e-02  2.62576826e-02 -5.44953533e-03  3.64014879e-02
  -3.63842286e-02  6.44077957e-02 -1.37428818e-02  3.88571694e-02
  -7.46574849e-02 -1.47491423e-02  3.25798951e-02  9.14952978e-02
  -8.85053128e-02 -7.53552318e-02  1.00056194e-01 -5.68662174e-02
  -3.47489715e-02  4.82474752e-02  6.49160817e-02  1.11968413e-01
   2.00002491e-02 -8.45066532e-02 -1.55662168e-02  1.68147217e-02]
 [-1.51079046e-02  8.97298157e-02  8.82199034e-02  5.08466102e-02
   8.36304352e-02 -1.52935535e-02  2.65123919e-02  5.51913343e-02
   2.42131241e-02 -3.29904966e-02  1.99405756e-02  4.28532399e-02
  -5.75355999e-02 -2.04779953e-02  1.27004506e-02 -4.60622050e-02
  -7.02857599e-02 -5.63729219e-02  1.11756131e-01 -7.58764148e-03
   6.15169853e-02 -7.71789327e-02  1.02833718e-01  8.76514241e-02
   4.22357693e-02  2.54391134e-02  1.55383898e-02  2.03827955e-02
   1.60569176e-02  5.72624020e-02  5.13201207e-03 -1.32304356e-02
  -9.54960957e-02 -8.83074924e-02  1.02933541e-01  2.03073267e-02
  -7.09263608e-02 -1.08475938e-01  4.65206010e-03 -9.15294215e-02
   1.24198638e-01  1.13304578e-01  2.72409320e-02  7.71490410e-02
   1.23578824e-01 -7.45251700e-02 -5.43858781e-02 -1.49818733e-02
   8.41633603e-02  6.43179342e-02  1.10045478e-01 -5.60794249e-02
   8.57078210e-02 -1.33550107e-01 -7.45987147e-02  8.94326568e-02
   1.26628309e-01  1.31494226e-03 -1.31400615e-01  5.12711965e-02
   1.55972922e-02  1.72562942e-01  1.55945897e-01  7.88825154e-02
   6.27682880e-02 -1.46978199e-02 -6.72201253e-03  1.55479312e-01
   1.12812065e-01  2.84314156e-04  1.48750111e-01 -1.79503821e-02
  -4.90234755e-02 -1.33095935e-01 -9.75721180e-02 -2.63525043e-02
   1.15372747e-01 -5.66635542e-02 -6.83261082e-02  3.77865545e-02
   5.92355393e-02 -9.59702358e-02  1.06320575e-01  5.75287379e-02
  -1.62387323e-02 -1.18158780e-01 -1.26714176e-02 -7.12152198e-02
  -4.69808728e-02 -8.54792967e-02 -7.18466863e-02 -8.05927068e-02
   2.14844593e-03  2.93484796e-02  8.26719999e-02 -2.66861971e-02
   1.09622084e-01 -1.39180096e-02  1.21311463e-01  6.28657499e-03
  -9.76226777e-02 -8.90266337e-03 -7.00896978e-02  4.52164672e-02
   1.02000073e-01 -3.58642116e-02 -9.50856507e-02 -7.19840527e-02
  -7.77776237e-04  1.19777210e-01 -7.34488107e-03  1.60816070e-02
  -4.58883420e-02 -9.02690291e-02 -1.50703276e-02  1.06220558e-01
  -1.39115334e-01 -2.38159280e-02  9.26293507e-02 -1.33512929e-01
   9.55518894e-03  1.11210253e-02  9.64727998e-02  4.05167677e-02
  -3.64125334e-02 -5.30168004e-02  2.97609693e-03 -3.02447379e-02]
 [ 3.65616865e-02  1.11526541e-01 -2.64371354e-02  1.06491953e-01
   4.37278897e-02 -2.24495977e-02  6.78931177e-03  5.02003580e-02
   6.78160861e-02  1.27621859e-01  3.48793790e-02 -4.71089073e-02
  -1.47371650e-01  4.96730544e-02 -6.81309670e-04 -4.04912457e-02
   9.14458092e-03 -1.14994593e-01  1.04008242e-01 -9.81433392e-02
   1.88770685e-02 -4.30541113e-02 -4.93760109e-02  9.85355005e-02
   2.69192010e-02  2.55762730e-02  1.08656576e-02 -9.65069328e-03
  -8.31346288e-02  1.26597211e-01  9.38644707e-02  1.03620216e-02
  -3.42757553e-02 -8.50723833e-02  1.15828648e-01  2.82775387e-02
   3.34988930e-03 -9.73367691e-02 -2.63779126e-02 -7.66370147e-02
   1.38279662e-01  1.71536773e-01  9.16294828e-02 -1.59138162e-03
   5.67928180e-02 -7.49425888e-02 -3.29731889e-02  3.89768071e-02
   1.22810856e-01  7.62174502e-02  2.58884672e-02  2.93740258e-02
   1.11838363e-01 -2.98420936e-02 -1.16766483e-01  7.42198899e-02
   1.18983239e-01  1.65226370e-01 -6.14149161e-02 -9.57405791e-02
   1.29537821e-01  3.72272283e-02  6.36091828e-02  1.35865182e-01
  -1.83830857e-02  3.09119225e-02  6.91496581e-02  3.29524428e-02
   9.41521227e-02 -5.17037101e-02  1.44404143e-01 -1.34347752e-01
  -1.08822864e-02 -9.97207612e-02 -1.18196428e-01  4.39948589e-03
   5.84140792e-02  1.05439080e-02  7.07921386e-02  6.23458764e-04
   1.52191028e-01 -2.33299425e-03  8.82259607e-02  7.14221448e-02
  -3.27557959e-02 -1.10319898e-01 -5.57152927e-02 -3.56739350e-02
  -1.09740391e-01  4.94488981e-04 -3.70739065e-02  7.65718296e-02
  -7.97571987e-02  1.20205566e-01  4.31871153e-02  8.51278827e-02
  -2.82584857e-02 -5.45462687e-03  8.88335854e-02 -3.70267667e-02
  -8.95451568e-03 -5.91614656e-03  3.38087082e-02  8.57956633e-02
  -4.84084077e-02  5.78712523e-02 -5.68808019e-02  2.72489786e-02
  -9.17594954e-02  1.05886064e-01  1.18245026e-02 -6.33690953e-02
   3.19673084e-02 -9.89661664e-02  9.24382731e-02  6.90318411e-03
  -1.12303279e-01 -1.39039770e-01  9.41681713e-02 -7.91479647e-02
   6.05364679e-04 -8.57333653e-03  2.75248140e-02  5.31543829e-02
  -4.22624759e-02 -1.97660383e-02  7.44271427e-02  2.02931017e-02]
 [ 6.41382113e-02  1.80030450e-01  1.79930069e-02  6.39528930e-02
  -4.91386242e-02 -1.06821999e-01  5.66533990e-02 -3.03730052e-02
  -3.47201042e-02  4.29392569e-02 -5.34562096e-02 -1.99484825e-02
  -1.56888202e-01 -3.50881256e-02 -1.86347924e-02 -6.15444481e-02
  -1.31156757e-01  1.41304564e-02  8.49447176e-02 -2.16889083e-02
  -5.19568697e-02 -8.87689888e-02  7.85545260e-02  1.46312147e-01
  -2.32399683e-02 -9.17888135e-02 -4.81589884e-02  2.98557431e-02
   5.58131114e-02  2.07821056e-01  1.59872606e-01 -8.19720328e-02
  -5.50528616e-02  4.58956510e-02  8.87003988e-02 -7.54867345e-02
  -5.13755791e-02 -1.76207554e-02 -1.35974914e-01 -7.57168308e-02
   1.82833806e-01  2.37938941e-01  4.42556702e-02 -9.56283733e-02
   1.37725472e-01  2.52392869e-02  1.78970071e-03  6.16168678e-02
   8.90269279e-02  7.85901546e-02  1.03368193e-01  6.79229805e-03
   1.05151653e-01 -6.67101368e-02 -1.56753197e-01 -2.94280872e-02
   1.08702295e-01  1.32842377e-01 -6.57458007e-02  4.06581685e-02
   5.49963564e-02  1.64271235e-01  6.27483577e-02  9.47085097e-02
   1.55192018e-02  5.60332462e-02 -4.90001477e-02  1.31154716e-01
   1.23019129e-01  5.01248706e-03  1.28216833e-01 -1.25680998e-01
   3.91898379e-02 -1.62599832e-01  8.43541883e-03 -4.96802963e-02
  -3.64559144e-02 -1.14307078e-02 -8.02824497e-02 -5.19043989e-02
   1.22377485e-01 -2.00757891e-01  7.97824860e-02  7.51230195e-02
   6.09446205e-02 -1.00546315e-01 -2.43233070e-02 -9.16057751e-02
  -1.55478835e-01 -4.07073721e-02 -9.76906195e-02  7.25566968e-02
   3.50892432e-02  4.12204899e-02  1.38229713e-01  1.26689766e-02
   3.52993160e-02 -1.22593082e-01 -7.74186105e-02 -1.38023794e-02
   1.55229038e-02  1.94609389e-02 -6.94951117e-02 -1.77603178e-02
   3.99529077e-02  1.97887216e-02 -1.18294291e-01  4.12713960e-02
   4.62510530e-03  1.48388267e-01  8.86629373e-02 -7.61914179e-02
   8.62410367e-02 -4.25049551e-02  1.45613551e-02  1.18660210e-02
  -5.60759269e-02 -9.62771177e-02  3.45839635e-02 -8.41167197e-02
   3.85624841e-02 -2.08690744e-02  6.29773140e-02 -7.98483193e-03
  -3.12256627e-02 -1.90708265e-02 -8.18279833e-02  1.45070963e-02]
 [ 1.31255642e-01  3.30204487e-01  3.06160077e-02 -2.59264745e-02
  -9.30512091e-04 -1.17923453e-01 -2.92966254e-02  2.46462156e-03
  -5.05258255e-02  1.52041867e-01  3.99133526e-02  7.73700401e-02
  -5.17702326e-02 -1.01721577e-01  1.02400400e-01  9.83912684e-03
  -1.47254363e-01 -1.04418784e-01  7.24495053e-02 -9.50186402e-02
  -5.40908352e-02  6.80378778e-03  1.01817742e-01  9.59141925e-02
   9.83029045e-03  2.76817214e-02 -1.79883212e-01 -8.18246901e-02
  -1.89363480e-01  1.09312631e-01  2.87566662e-01 -8.89391825e-02
  -1.11008368e-01 -1.07554801e-01  3.78426433e-01 -7.69674852e-02
  -3.94327529e-02 -7.35201919e-03 -2.31089234e-01 -6.35706931e-02
   4.05955799e-02  3.41602087e-01  2.38281384e-01  6.53734952e-02
   1.67877749e-01  3.64017091e-03 -6.34061098e-02  1.09620458e-02
   2.08104685e-01  1.66124906e-02  1.87753841e-01 -4.88080122e-02
   3.02845746e-01 -7.34534264e-02 -1.91300616e-01 -3.21015865e-02
   2.78144807e-01 -2.94432938e-02 -1.29185677e-01 -5.46703711e-02
   1.80014521e-01  8.97022560e-02  1.27584934e-01  4.02465537e-02
   5.88826165e-02  3.91437300e-02 -7.11124539e-02  1.73833475e-01
   2.60432631e-01 -1.06802016e-01 -3.39249372e-02 -1.95559606e-01
   5.37069961e-02 -6.16149977e-02 -7.91062340e-02  3.52751873e-02
  -2.69309692e-02  7.29600200e-03  1.21344870e-03  4.12286334e-02
   2.77352452e-01 -1.86109319e-01  1.59672007e-01  7.07745925e-02
  -1.25207067e-01 -2.43458554e-01 -1.10008292e-01 -8.17115009e-02
  -1.28855348e-01 -8.10000673e-02 -4.73212898e-02  2.65239209e-01
   6.01035133e-02  1.54572055e-01  1.83382884e-01  1.23212442e-01
  -5.62334508e-02 -2.27499217e-01 -2.93046255e-02  2.02770205e-03
   4.37234417e-02 -1.12696528e-01  2.27338001e-02 -2.00001970e-02
   1.30558303e-02  2.46833637e-02 -1.56999566e-02  7.37996325e-02
   1.66556668e-02  1.81064829e-01  1.10596023e-01  3.57027315e-02
   8.43996629e-02  1.75612525e-03  2.45682999e-01  1.92064524e-01
  -4.58788276e-02 -5.08841127e-02  1.03231609e-01 -4.42334497e-03
   6.26706555e-02 -9.18423310e-02  1.00923963e-01  3.18910629e-02
  -5.60040213e-02  6.86723068e-02 -5.28829470e-02  7.85553008e-02]
 [ 1.39416024e-01  3.46087664e-01 -1.85177401e-01  4.78925603e-03
   1.26376832e-02  8.14594850e-02  5.83429858e-02 -8.44861846e-03
   3.22122239e-02  1.73353553e-01  1.26082674e-01 -6.18825443e-02
  -3.48651744e-02 -9.62830484e-02  1.88461572e-01 -1.09565053e-02
  -7.14952126e-02 -1.15513921e-01  2.62813866e-01 -1.20199203e-01
  -1.25159174e-01 -5.89562841e-02  3.29175383e-01  1.02484450e-02
   5.50109334e-03  1.00367814e-02  3.28470133e-02  1.71234794e-02
  -2.34026134e-01  2.17788905e-01  2.78006017e-01  1.22220136e-01
  -2.60623127e-01  1.48502946e-01  2.96799302e-01  4.43179086e-02
   2.60618087e-02  9.90492012e-03 -1.85622215e-01 -6.89075738e-02
  -4.49855551e-02  4.78864998e-01  1.12848110e-01  1.74692944e-01
   2.43292913e-01 -1.95460081e-01 -3.65378745e-02  2.30076447e-01
   1.35334447e-01  6.80433139e-02  2.40752876e-01  1.38093904e-01
   3.01357001e-01 -5.29134497e-02 -4.95217629e-02  9.01821852e-02
   2.62747586e-01  1.20466501e-01 -1.95046037e-01 -1.75822675e-01
   1.82366401e-01 -1.78601556e-02  4.35154997e-02  8.06231890e-03
  -7.82221854e-02  5.92829436e-02  9.60410982e-02  9.63101536e-02
   2.01608270e-01 -3.72190811e-02 -1.75000317e-02 -1.27131253e-01
   1.55706912e-01  2.13271789e-02 -5.45589551e-02 -4.12790658e-04
   3.66751105e-02  1.63010806e-02  5.74569032e-02  2.93977968e-02
   2.13397652e-01 -1.39335081e-01  2.21129447e-01  1.77494749e-01
  -8.67056027e-02 -2.09416196e-01 -9.92339328e-02  3.00604366e-02
  -6.67518079e-02 -7.20112547e-02  2.40045171e-02  1.04053527e-01
  -3.53858545e-02  9.35376659e-02  3.06296259e-01  7.29984939e-02
  -9.21210796e-02 -1.04024835e-01  6.19406104e-02 -1.08204805e-03
   1.60331994e-01 -6.95907697e-02 -8.32550228e-02 -1.15620166e-01
  -4.72787507e-02  8.02252218e-02  8.79580081e-02 -3.29287834e-02
   3.89233530e-02  1.58221260e-01  1.90304384e-01 -1.27032131e-01
   1.36893392e-02  2.14809924e-02  2.28063881e-01  3.86780471e-01
   7.29472283e-03 -5.16760349e-02 -4.09730040e-02 -5.03439689e-03
  -4.74808663e-02 -6.57104328e-02 -8.73838458e-03  7.64896348e-02
  -1.67974848e-02  1.81329519e-01 -5.80992401e-02  8.52832049e-02]
 [ 1.29377060e-02  3.62150311e-01 -1.59451485e-01  2.32638121e-01
   1.87965736e-01  4.24507968e-02  2.98562288e-01  3.46131139e-02
   4.27754223e-03  3.68142575e-01  7.39308596e-02 -1.38231382e-01
   3.01379827e-04 -1.96614385e-01  2.63980329e-01  4.00837734e-02
  -5.88661507e-02 -2.83070207e-01  3.52551013e-01 -1.95473775e-01
  -2.38005325e-01 -8.45006332e-02  2.92001039e-01  6.38527423e-02
   3.49507593e-02 -7.90529326e-03 -1.35453893e-02 -5.93342483e-02
  -2.38671243e-01  2.92964429e-01  2.95612425e-01  5.57596311e-02
  -2.80755639e-01  7.99998939e-02  3.02762628e-01 -9.36885923e-02
  -1.01232000e-01 -2.20918342e-01 -5.15967421e-02 -1.33072838e-01
   7.38987848e-02  5.97477376e-01  1.40742481e-01  4.81119752e-02
   3.69503528e-01 -2.76285648e-01 -5.05147874e-02  4.27998826e-02
   3.89056176e-01 -4.99387048e-02  2.04651788e-01 -7.14486688e-02
   4.77587789e-01 -1.34192482e-01  9.27060656e-03  3.82330641e-02
   5.02968967e-01  1.11193359e-01 -3.71765077e-01 -2.70978749e-01
   1.48414433e-01  1.19534023e-01  6.76733255e-02  1.39546260e-01
   6.12036958e-02  9.58190206e-03  1.71645179e-01  2.12780103e-01
   3.41820717e-01  4.39675264e-02  2.35108495e-01 -2.11326957e-01
   5.95617667e-03 -6.26680329e-02 -1.39403433e-01 -6.12009279e-02
  -6.40081009e-03 -7.05279782e-02  5.84589057e-02 -1.90893710e-01
   1.44036531e-01 -3.04936528e-01  3.07261288e-01  2.18350887e-01
   7.46827498e-02 -1.96041882e-01 -6.38810322e-02 -1.47770897e-01
  -1.43267155e-01 -9.64896455e-02 -2.30400518e-01  1.11766279e-01
   5.39437011e-02  1.86471909e-01  4.77072924e-01  1.85981855e-01
  -1.98069558e-01 -2.04139128e-01  1.71246231e-01 -9.89665762e-02
   2.11197674e-01 -6.46996796e-02  2.66560484e-02  1.44663110e-01
  -1.42864168e-01  5.39597273e-02 -1.31008372e-01 -8.06559473e-02
  -1.57274708e-01  3.46780717e-01  2.55497485e-01 -1.62375361e-01
   1.99646667e-01 -5.89462258e-02  2.78708547e-01  4.61497933e-01
   3.63260531e-03 -7.00928047e-02  2.38362536e-01 -4.86003188e-03
  -5.27629294e-02  7.36934692e-02  1.75682634e-01  7.28948116e-02
  -2.04053521e-01  1.57620665e-02 -3.21161710e-02  7.97578171e-02]
 [-3.22605185e-02  2.22662210e-01 -3.19301903e-01  3.00527990e-01
   4.35222894e-01 -7.76511058e-02  3.48785341e-01 -1.48873180e-01
   1.08829610e-01  4.45573866e-01  9.47758704e-02 -3.24463397e-01
  -1.15263626e-01 -1.45083413e-01  1.37496665e-01  1.40287438e-02
  -1.07487319e-02 -2.23210722e-01 -1.07337134e-02 -2.61771291e-01
   2.69556157e-02 -3.12614292e-02  1.82085708e-01  8.87752473e-02
  -1.20113350e-01  1.39199883e-01 -1.22514233e-01 -2.83039995e-02
  -1.61828190e-01  3.41041476e-01  3.17238122e-01  1.57940462e-01
  -3.61769587e-01  3.45088914e-02  1.81156069e-01  5.78929298e-02
   9.61319951e-04 -2.69474626e-01 -8.94215330e-02 -3.14725250e-01
   1.98984891e-01  3.53723288e-01  1.84052318e-01 -1.01743437e-01
   4.35701728e-01 -3.09168637e-01 -3.86963203e-03 -1.02382272e-01
   1.87019303e-01  1.43880369e-02  1.73485070e-01  1.33221686e-01
   2.72611350e-01 -1.61458090e-01 -3.12173646e-02 -3.95694152e-02
   1.68722704e-01  1.23366624e-01 -3.96852881e-01 -2.76597857e-01
   2.14651838e-01  1.31792352e-01  2.09814295e-01  1.69300705e-01
   7.49225020e-02 -3.74305546e-02  8.15597028e-02  2.50428379e-01
   3.50602150e-01 -3.03512923e-02  4.96552318e-01 -1.92865208e-01
  -1.42247036e-01 -1.29575118e-01 -1.74545214e-01 -1.36310514e-02
   1.79689825e-01 -8.10295865e-02  1.18356265e-01 -2.94678241e-01
   2.11527541e-01 -1.99270889e-01  3.63832384e-01 -3.89643498e-02
   1.61901712e-01 -2.14194804e-01 -3.58653814e-02  1.67464793e-01
  -1.31527820e-04 -1.50176182e-01 -3.17526162e-01 -1.44446269e-01
  -2.67828554e-02 -3.48844961e-03  2.08728254e-01  1.85899913e-01
   1.66989461e-01 -1.28379539e-01  1.89425930e-01 -7.61536555e-03
   1.91805691e-01 -5.10681383e-02  1.76309139e-01  3.23024839e-01
  -8.37445781e-02  2.10903853e-01 -3.04202318e-01  3.89851667e-02
   1.01766549e-01  2.52219200e-01  3.68645757e-01 -1.54347003e-01
   2.02926666e-01 -1.41331583e-01  9.91522521e-02  3.68733466e-01
  -7.10964501e-02  1.63791720e-02  1.25049233e-01 -1.34805247e-01
   8.67412239e-02 -1.02664858e-01  1.44018382e-01  7.67085403e-02
  -1.61904231e-01 -1.39109507e-01  7.66131431e-02  1.52863383e-01]
 [-8.97227749e-02  2.89762974e-01  2.07322955e-01 -3.37366879e-01
   2.88314700e-01  1.27838254e-01  3.68830919e-01 -1.63997009e-01
   4.79623288e-01  3.98970097e-01  1.48541763e-01  2.14321643e-01
  -8.62825140e-02  5.31667359e-02 -8.55650455e-02  7.52055794e-02
  -3.90198939e-02 -2.61166748e-02 -2.60603994e-01 -1.70991570e-01
   6.83424063e-03  1.96637884e-02 -1.97683454e-01  2.18679965e-01
  -1.05727069e-01  2.09656090e-01  4.10475135e-02  3.44663739e-01
   1.88950568e-01  1.38165042e-01 -5.37352376e-02  1.75591275e-01
  -2.98428416e-01  1.99375041e-02 -5.65901920e-02  1.65253267e-01
   1.14048012e-01 -2.99650997e-01 -3.78161147e-02  1.93948939e-03
  -2.92272985e-01  8.36678371e-02  4.47774157e-02 -2.46117294e-01
   3.43186915e-01 -1.05626518e-02 -5.56748994e-02 -3.81519288e-01
  -1.92435309e-01  1.35851130e-01  5.06360643e-02  1.67025819e-01
  -6.76097870e-02 -7.90807158e-02  7.75314569e-02 -6.80726254e-03
  -2.36144587e-01 -3.07615787e-01 -9.57650393e-02 -5.15793674e-02
   2.88203984e-01  1.09512113e-01 -2.06100434e-01  2.24079430e-01
   1.01917498e-02 -6.93995357e-02 -3.34689289e-01  3.52331065e-02
   3.55135500e-01  2.35223457e-01  2.18135282e-01  1.12940773e-01
   6.86013419e-03  6.52273148e-02 -4.35352251e-02  2.85800189e-01
   2.34238997e-01 -4.20227274e-02  1.56800132e-02  1.52338132e-01
  -1.29070622e-03  8.92207921e-02 -9.21605062e-03  1.43382415e-01
   1.39442403e-02  3.21738750e-01 -6.96739182e-02  1.02889344e-01
   1.14134766e-01 -7.68626928e-02 -8.32638964e-02 -1.25604048e-01
  -3.19192201e-01  9.35686827e-02 -2.01226071e-01  8.87852311e-02
   9.06388508e-04  6.61278591e-02  4.47143734e-01  1.35373831e-01
   2.93562621e-01 -1.82834864e-01  1.76461443e-01 -2.87585318e-01
   2.21925080e-01  2.30384499e-01 -4.98444736e-01 -1.69362463e-02
  -2.31483668e-01 -8.10381994e-02  4.23199773e-01  6.15981929e-02
  -1.06414326e-01  6.27082139e-02 -1.42705858e-01  7.36113042e-02
  -1.45219207e-01 -4.62894738e-02 -2.01547101e-01  2.62900703e-02
   2.84957498e-01  2.93519169e-01  2.48685151e-01  1.08809710e-01
  -2.09436985e-03  1.57612950e-01  1.32746518e-01  1.72743112e-01]
 [-5.85076362e-02  2.71944940e-01  1.85262948e-01 -1.28445268e-01
   4.24436927e-01 -1.64512113e-01  2.28464440e-01 -8.96645561e-02
   2.86243856e-01  3.19583505e-01  2.00530335e-01  1.54137954e-01
  -9.62501168e-02 -1.98619813e-01  2.94574410e-01 -5.46975024e-02
  -5.67964055e-02 -4.18510735e-01  9.41221192e-02 -1.87493056e-01
  -1.40861705e-01 -1.19966105e-01 -3.28448176e-01  3.77167583e-01
  -1.28043786e-01  3.04132074e-01  4.04863805e-01  2.72479832e-01
   1.75809234e-01  3.82730007e-01  2.79084146e-01  1.18040688e-01
  -2.63587981e-01 -9.11280047e-03  1.84703186e-01  1.54967591e-01
   1.05681419e-01 -2.19217673e-01  3.09947282e-02 -1.54105708e-01
  -1.61136359e-01  4.09572393e-01 -1.19162053e-01 -2.69976556e-01
   7.06650138e-01 -7.21187294e-01 -1.06144294e-01 -1.83657616e-01
   2.22892076e-01  1.63737729e-01  2.60466814e-01 -2.69804001e-01
   2.33938605e-01  2.45645526e-03 -4.84044384e-03 -7.26056471e-03
  -9.31943879e-02 -2.25460887e-01 -5.02968609e-01  1.52455896e-01
   3.58759761e-01  3.67805600e-01 -2.31742203e-01  3.42271417e-01
   4.99682352e-02 -5.32746539e-02 -1.49244145e-01 -7.55978599e-02
   4.53633964e-01  6.26749918e-02  3.11525434e-01  5.57769276e-02
  -2.58994430e-01 -5.76512754e-01 -1.81018069e-01  1.87149480e-01
   4.66235541e-02 -1.79118589e-01 -2.34376684e-01 -1.10874765e-01
  -7.82084244e-04 -1.27171397e-01  1.58029720e-01  3.11875582e-01
  -1.41142741e-01  1.79084539e-01  1.27508789e-02 -1.74659580e-01
   2.71505088e-01 -3.70011777e-02 -1.79022253e-01 -2.89915860e-01
  -2.09857032e-01 -4.00875583e-02  1.72675610e-01 -1.41193718e-02
  -4.68710996e-02 -1.80076629e-01  4.59528029e-01 -3.46006095e-01
   5.22668839e-01  3.28413874e-01 -1.85858414e-01 -3.75360131e-01
  -3.68153811e-01  9.87366661e-02 -1.13738939e-01 -2.52732560e-02
  -1.99864388e-01  2.24503770e-01  4.60996151e-01 -1.79555804e-01
  -1.13044873e-01 -1.80613384e-01  1.41129181e-01  1.64500564e-01
  -8.98218155e-02 -1.31615819e-02  6.59120604e-02 -3.04040492e-01
  -1.37667377e-02  2.77019829e-01  4.04198200e-01  4.61598560e-02
  -7.80563056e-02 -2.14504242e-01  3.26368660e-02 -2.01251715e-01]
 [ 1.34867746e-02  3.08701396e-01  1.84569940e-01  2.59545706e-02
   3.68017197e-01 -1.11115705e-02 -1.09842241e-01 -2.25880537e-02
   2.67894357e-01  2.34722808e-01  3.84970643e-02 -5.87546937e-02
  -1.12047777e-01 -2.43869305e-01  1.98661491e-01 -2.15587378e-01
  -1.79661110e-01 -1.83812276e-01  2.74672955e-01 -7.43638575e-02
   9.60925594e-02 -1.74544275e-01  4.44280319e-02  8.46152306e-02
  -1.15628183e-01  2.67449409e-01  1.47245556e-01  6.65515885e-02
  -2.03071982e-02  3.02746773e-01  2.92255376e-02  1.36497244e-01
  -2.46376455e-01 -1.20058171e-02  1.91253245e-01  6.38846233e-02
  -9.14456323e-02 -4.23871249e-01  5.97715937e-02 -1.38076812e-01
   8.34173560e-02  3.86019915e-01 -1.78439274e-01 -6.35184944e-02
   4.64175701e-01 -4.55436438e-01 -1.47493184e-01  4.33276519e-02
   1.16450191e-01  4.93414141e-03  2.51771480e-01 -1.41902477e-01
   3.26664448e-01 -6.28323033e-02 -1.48882240e-01 -4.18422781e-02
   9.43196937e-02  2.86699887e-02 -2.11836949e-01  8.20262283e-02
   1.68988720e-01  1.28300816e-01 -1.67928897e-02  4.19177003e-02
  -1.44494250e-02 -3.20800021e-02  1.48625657e-01 -3.56549509e-02
   4.22179163e-01 -1.11897744e-01  3.06113601e-01 -2.36648485e-01
  -2.70555586e-01 -4.13818926e-01 -2.05437198e-01  1.10133197e-02
   1.53722331e-01 -1.49461433e-01 -8.97769183e-02 -1.71673521e-01
   9.64479521e-03 -2.44502619e-01  4.02046770e-01  2.00158700e-01
  -2.09872037e-01 -1.19354993e-01 -8.62531289e-02 -3.06598544e-02
   2.05752388e-01  5.73353358e-02  1.51239848e-02 -1.84931591e-01
   1.61005035e-01  1.40659571e-01  3.58456552e-01  1.11658514e-01
   3.16370517e-01  2.13179309e-02  3.03365916e-01 -3.01302254e-01
   3.66913408e-01  9.25091133e-02 -2.62381673e-01 -1.07486330e-01
  -1.57790646e-01  1.25699818e-01  9.10897255e-02 -3.44570614e-02
   2.32377693e-01  3.81379485e-01  3.32330018e-01 -1.58661351e-01
  -1.45852784e-04  1.53539442e-02  2.04419225e-01  2.72346467e-01
  -6.37740716e-02  4.84804660e-02  3.63811314e-01 -7.05528706e-02
   5.57516143e-02  2.10927904e-01  5.72841525e-01  2.20367640e-01
   1.58585552e-02  6.57827333e-02  7.04251304e-02  7.81998876e-03]
 [-5.57512678e-02  4.83296722e-01  1.99545920e-01 -6.94355275e-03
   4.98616010e-01  8.96305870e-03 -1.34109274e-01  3.52534913e-02
   2.62989253e-02  1.99176356e-01  9.75453034e-02 -2.43726447e-01
  -1.33392304e-01 -1.32576659e-01  1.33990988e-01 -2.00851619e-01
  -2.33731791e-01 -2.70829201e-01  4.10021454e-01 -1.92328274e-01
   2.02200457e-01 -3.30172211e-01  3.15513074e-01  2.05313519e-01
  -1.84713900e-01  6.25775680e-02 -9.56082940e-02 -1.80286318e-01
  -2.13686928e-01  2.17281103e-01  2.15035588e-01  1.72924206e-01
  -2.89270967e-01 -1.26415774e-01  4.10415143e-01 -1.13117062e-02
   7.78140798e-02 -2.12233782e-01 -4.31882478e-02 -1.22916818e-01
   3.41879249e-01  5.02926052e-01 -1.66451171e-01  1.79048941e-01
   2.49800384e-01 -2.57686079e-01 -2.44891360e-01  3.68820950e-02
   2.53261358e-01 -5.20130545e-02  2.62324780e-01 -2.40185186e-01
   3.86426181e-01 -9.50375125e-02 -1.94340959e-01 -3.11788218e-03
   2.48529941e-01 -2.01856326e-02 -1.66704059e-01  4.56650853e-02
   1.96551487e-01  2.06976652e-01  1.80803582e-01 -2.04419225e-01
   3.27962860e-02  1.36297941e-03  3.55962306e-01  8.56218785e-02
   5.28855383e-01 -4.18724954e-01  3.21200311e-01 -3.62050116e-01
  -2.23889649e-01 -4.31329817e-01 -2.09036469e-01 -4.76194657e-02
   7.83659071e-02 -1.08638600e-01  2.87596315e-01 -2.99330354e-02
   1.26799330e-01 -4.44417924e-01  5.44241488e-01  2.13475928e-01
  -3.24545950e-02 -1.83753982e-01 -1.18865907e-01 -2.49045894e-01
   5.15449680e-02 -3.15098315e-02  2.25064218e-01  9.78550613e-02
   2.53361315e-01  3.13193172e-01  4.23431337e-01  2.16823727e-01
   2.25021392e-01 -3.73240840e-03  1.28222868e-01 -1.76873952e-01
  -8.42887834e-02 -1.33867979e-01 -3.12788561e-02  8.45713988e-02
  -1.53313950e-01  1.04133673e-02  1.86023787e-01 -3.45558189e-02
   3.17006528e-01  5.49944162e-01  8.68773535e-02 -1.58938140e-01
   6.01981021e-02  6.09706528e-02  2.07008362e-01  3.47708344e-01
  -2.64709681e-01 -8.67450014e-02  3.88567954e-01  8.74023139e-02
  -3.19469050e-02  8.76444355e-02  4.15670514e-01  1.36609316e-01
  -1.81187745e-02  3.24875079e-02 -4.86456230e-02 -1.76201567e-01]
 [ 2.86408477e-02  3.65471750e-01  4.22964513e-01  1.60818517e-01
   4.05173481e-01 -1.78355858e-01  3.93735027e-05  1.02530293e-01
   1.88260041e-02  3.52674693e-01 -1.38077080e-01  1.88022956e-01
  -2.48022843e-02 -1.78841144e-01  1.44522429e-01  4.54961173e-02
  -7.91665241e-02 -2.14170992e-01  3.38570803e-01 -1.27872020e-01
  -1.18791029e-01 -1.03888385e-01  3.39483283e-02  3.61627728e-01
  -5.96149564e-02  2.94066798e-02 -1.66932240e-01  8.12013149e-02
  -2.75247782e-01  2.47952700e-01  2.75121570e-01 -1.37744561e-01
  -3.03829730e-01 -1.38586089e-01  3.28057528e-01  3.72513235e-02
  -5.03346473e-02 -6.91691637e-02 -4.11560871e-02 -1.07198507e-01
   2.86453992e-01  3.40936571e-01  1.78090736e-01 -1.28424466e-01
   1.44826218e-01 -2.38803595e-01 -2.16336802e-01 -1.57195032e-01
   2.99570382e-01 -5.75058609e-02  1.69484869e-01 -1.44589752e-01
   3.82168055e-01 -6.87437207e-02 -3.05560052e-01  4.44166884e-02
   1.63744181e-01 -1.14527263e-01 -2.12011784e-01  1.22184660e-02
   3.34192157e-01  4.22550440e-01  6.08189777e-02  1.66277602e-01
  -5.85074462e-02  1.31107671e-02 -4.73308237e-03  3.12417358e-01
   3.49306732e-01 -1.34601519e-01  1.31169736e-01 -1.49348810e-01
  -7.57329585e-03 -3.14845800e-01 -7.72012323e-02 -1.08427770e-01
   1.01766303e-01 -8.12396482e-02  2.09971726e-01 -8.20992589e-02
   2.80482680e-01 -2.44110733e-01  3.27195048e-01  2.83423007e-01
   1.80123553e-01 -1.05648167e-01 -1.47265010e-02 -4.36326653e-01
  -2.06671059e-01 -6.42629340e-02 -1.29757479e-01  3.14951032e-01
  -2.80527566e-02  3.54979992e-01  3.00535589e-01  1.74252480e-01
  -8.57139155e-02 -1.57459989e-01  1.23758338e-01 -1.03407398e-01
  -2.21340075e-01 -1.34236231e-01 -1.33210331e-01  2.25042030e-01
  -5.87195531e-02  3.28826047e-02 -1.46176562e-01 -2.91737579e-02
   1.91409476e-02  4.96912867e-01  2.36833841e-01  4.48293537e-02
   2.85081953e-01 -1.31037533e-02  1.36022285e-01  1.78202793e-01
  -2.74135619e-01 -6.33733720e-02  2.43747622e-01 -2.18765840e-01
  -2.25321993e-01  2.39748862e-02  1.76803961e-01 -3.33708711e-02
  -4.82409168e-03 -2.22868472e-01 -5.02699018e-02 -2.29954407e-01]
 [ 4.98029450e-03  1.93658963e-01  3.62661332e-01  2.54057705e-01
   2.61645466e-01 -2.47054756e-01  2.44646832e-01 -7.17589557e-02
   6.29953248e-03  2.38386855e-01 -4.04279716e-02  1.24735825e-01
  -9.63096619e-02 -2.30458528e-01  2.29743540e-01  1.90378249e-01
  -7.52101839e-02 -2.55036741e-01  1.07171379e-01 -1.09818228e-01
  -9.34186801e-02 -1.28407747e-01 -1.82468742e-01  3.09944987e-01
  -7.84098580e-02 -9.74380150e-02 -8.20872784e-02  9.03746635e-02
   3.74186970e-02  1.24522604e-01  2.40167484e-01 -8.17323923e-02
  -2.04159260e-01 -1.38169471e-02 -3.20589915e-02 -1.51877282e-02
   1.78943407e-02 -6.17742259e-03  4.93062176e-02 -1.02673620e-01
