kernel
(784, 128)
[[ 6.51768520e-02 -3.76539901e-02  1.18379593e-02  3.85589898e-04
  -1.16972178e-02  7.83187374e-02  1.86361820e-02  1.93962604e-02
  -2.28847116e-02  1.42333210e-02  4.74230945e-03 -4.33733501e-02
   2.57529691e-02  3.20524201e-02  6.41853288e-02  4.24014479e-02
   5.44615611e-02 -7.48067722e-02  2.51594931e-02  7.28555024e-03
  -2.20756233e-03  4.96059731e-02 -3.82451043e-02 -7.85070211e-02
  -2.13278234e-02  1.41574889e-02 -8.04938376e-02  4.46218923e-02
   6.61695004e-03 -6.94631189e-02 -6.76097497e-02  2.70741060e-02
  -7.59596825e-02 -6.18620031e-02  5.19122705e-02 -1.19936466e-03
  -2.38445885e-02 -7.58431852e-02  7.66581818e-02  2.64546275e-03
  -4.82930914e-02  2.20293775e-02  3.99268419e-03  7.69263133e-02
  -1.39841810e-02  4.99417633e-03  1.42128393e-02  1.78658962e-03
  -4.45137285e-02 -2.80047022e-02  4.66242358e-02 -4.06185538e-03
   5.25455102e-02 -6.71828762e-02 -3.48138921e-02  6.27562627e-02
  -2.34753042e-02 -7.55764768e-02 -1.96352601e-02 -1.38391629e-02
   7.15524182e-02  7.15966746e-02  2.71165147e-02  3.56878489e-02
   7.13690594e-02  3.28473598e-02  6.97972998e-02  1.45535022e-02
   6.96212426e-02  4.26843464e-02  1.92733109e-03 -3.03186476e-04
  -5.99275343e-02 -7.96731189e-02  7.76472315e-02  4.11079675e-02
  -8.03333074e-02  5.48975095e-02  1.37479231e-02 -6.45087212e-02
  -6.88870251e-02  4.77189198e-02 -7.47939125e-02 -8.02520663e-02
   4.88855168e-02  1.87040120e-03  1.11176446e-02  9.31181014e-04
   7.99416676e-02  1.10559538e-02 -3.45401950e-02 -1.92864537e-02
   7.74934217e-02 -2.71923579e-02  3.19541022e-02 -1.67082697e-02
  -3.16890925e-02  4.26771715e-02 -6.20285831e-02  5.61160594e-03
   3.21260616e-02 -5.13062701e-02 -5.01065217e-02 -7.06619322e-02
  -5.17954305e-02  5.37622496e-02  5.20785078e-02 -6.16025180e-03
  -7.87559897e-03  7.99015984e-02  6.50333613e-03  5.23190200e-03
   7.91289732e-02  6.55168295e-03  2.86971256e-02 -4.96571772e-02
   5.65077439e-02  2.18160972e-02 -6.76741451e-02 -2.91716121e-02
   1.42505467e-02 -6.31243289e-02  4.16431725e-02  1.86919942e-02
   7.66525194e-02  3.68198305e-02  1.50148571e-03 -1.89608149e-02]
 [ 7.83720389e-02 -7.33166933e-02  4.32935059e-02 -2.41167359e-02
  -2.70906165e-02 -3.94258797e-02 -3.56902815e-02 -3.87282707e-02
   3.49145457e-02 -2.87826434e-02  6.79054484e-02 -1.37038156e-02
   2.47835964e-02 -5.61072901e-02 -7.76625127e-02  4.93220016e-02
   3.06733102e-02  6.69807121e-02 -1.20162368e-02 -4.88751754e-02
  -6.26219586e-02 -7.68908411e-02 -7.65518099e-03 -1.22930110e-02
  -7.27598146e-02  2.39435807e-02  5.80258593e-02 -3.56203951e-02
  -2.13653594e-02 -6.50850236e-02  3.60706300e-02 -5.85311353e-02
  -1.22854263e-02  4.03668433e-02 -1.29510686e-02 -3.58395167e-02
   4.68845144e-02 -6.34644702e-02  3.44981551e-02 -4.85819876e-02
   7.95972124e-02  6.67063072e-02  2.65672281e-02 -7.49147162e-02
   6.92894533e-02  2.52567902e-02  8.42080265e-03 -5.33184558e-02
  -1.25232860e-02 -3.04006189e-02 -1.66739076e-02 -3.66402976e-02
   6.50754645e-02  6.33288100e-02 -6.71716034e-03 -3.95554863e-02
   1.54944286e-02 -4.12699431e-02  6.69327155e-02 -1.37795284e-02
   5.16279861e-02  1.10447183e-02  4.71556112e-02 -2.70093568e-02
   7.95533136e-02  3.57702300e-02 -8.71430337e-03  4.91828993e-02
   3.60002592e-02  6.50437400e-02  2.97512189e-02 -4.42641973e-03
  -1.74695253e-02 -3.67513187e-02  6.27559498e-02 -2.82536447e-03
  -5.67298308e-02  6.07916787e-02  4.45190743e-02  4.68384251e-02
  -6.73161969e-02 -5.22259995e-02 -4.04660515e-02 -6.38814643e-02
   3.54682431e-02  1.61304846e-02  6.84663579e-02 -2.66478695e-02
  -4.06401902e-02 -2.82647237e-02  4.57163379e-02 -1.70234293e-02
  -2.09417529e-02 -3.13134454e-02 -6.54389113e-02  4.40485105e-02
   6.79384395e-02 -1.43154636e-02  3.24987620e-03 -8.85272771e-03
   3.40729430e-02 -7.48364329e-02  4.84313592e-02 -7.70175457e-02
  -1.62189901e-02  5.55050001e-02  1.06782019e-02  3.84009704e-02
   4.21837717e-03  2.37280726e-02  4.63582799e-02 -4.60858382e-02
  -4.58091497e-03  5.03816530e-02 -4.43468802e-02 -5.96632771e-02
   6.75186738e-02 -6.64316267e-02  6.10717610e-02 -1.87611468e-02
   4.85968366e-02 -3.97383310e-02  4.47975323e-02  8.03082213e-02
   4.95752171e-02 -6.81660920e-02 -7.83697367e-02  6.15532622e-02]
 [-7.07148835e-02 -3.68078612e-02  9.06838477e-03  7.12882951e-02
   2.09262818e-02  3.66109759e-02  1.34012848e-03  6.35592714e-02
   6.78815916e-02 -6.43485188e-02  3.00480649e-02  2.56232098e-02
  -5.66804782e-02  7.11233839e-02 -3.18963975e-02  4.59853336e-02
  -5.58566079e-02 -7.46844783e-02 -7.32102990e-02 -1.79560184e-02
   7.47094229e-02  2.33012214e-02  2.48658434e-02  8.07415769e-02
   7.31590912e-02  4.85638902e-02  7.39471689e-02  1.72456056e-02
  -9.17351246e-03 -1.98479407e-02  7.14262798e-02 -3.49875279e-02
  -5.13662174e-02 -3.83358411e-02  5.89677021e-02 -2.48860903e-02
  -4.02684882e-02  5.56241199e-02 -5.08815423e-02 -1.81623176e-02
   3.09735909e-02  7.98166320e-02  4.89502400e-03 -5.95522001e-02
  -4.48830351e-02 -5.46707660e-02  3.09756249e-02  4.07747924e-04
   2.95282528e-02 -4.79192249e-02  5.96284866e-03 -3.85744348e-02
  -6.33857399e-03 -3.09217498e-02 -1.12547353e-02 -2.16850229e-02
   7.61709735e-02 -5.23454696e-02  5.63701168e-02 -7.36992285e-02
  -7.54711404e-02  3.54341418e-03  5.83901629e-02  5.47510609e-02
  -2.73456722e-02  5.39492294e-02 -1.56265646e-02 -9.50030982e-03
   3.11361700e-02  6.37667105e-02 -2.52507739e-02 -4.86125797e-02
  -6.37469292e-02  1.95631459e-02  7.72861466e-02 -1.94978788e-02
  -9.70368832e-03  1.50715783e-02  5.12643978e-02  7.63243958e-02
   3.56128141e-02 -3.12860236e-02  5.28871194e-02 -4.46110219e-02
   1.09884292e-02 -3.46822739e-02 -8.02975893e-02 -7.27568939e-02
   1.11423060e-02  2.29207426e-02 -4.42066044e-03  6.92664906e-02
  -5.83601668e-02 -5.65711781e-02  7.26153776e-02  4.47395667e-02
  -1.61579028e-02 -3.39106955e-02  4.74055782e-02 -6.68317750e-02
   4.26333100e-02  2.01536417e-02  3.43754888e-04 -7.06192926e-02
   6.72753081e-02 -9.93044674e-03 -6.71549141e-02  2.39581838e-02
   2.13017017e-02  7.86492229e-03  4.27969173e-02  6.94531724e-02
  -5.00756949e-02  6.65880367e-02 -5.53840995e-02  3.91084999e-02
   6.28396124e-03 -5.69403470e-02  5.33162802e-03 -2.22429335e-02
  -5.20250201e-03  4.73082885e-02  5.85500225e-02 -3.65555286e-04
  -2.35802718e-02  8.00874606e-02  2.78646946e-02  1.92645639e-02]
 [-5.02653085e-02 -7.84184486e-02  3.61438841e-03 -7.39216357e-02
  -7.56275877e-02 -7.52161443e-03  5.07551059e-02  6.95048347e-02
  -3.65263969e-03  2.72187740e-02 -6.46770224e-02 -2.49270499e-02
  -1.87787637e-02 -6.55483305e-02 -2.13054307e-02  3.94133106e-02
  -2.93147564e-02 -2.87596695e-02 -6.60381839e-02  3.37882265e-02
  -7.81300962e-02 -3.57519910e-02 -4.98797223e-02  4.42554727e-02
   2.74676755e-02  2.99296528e-02 -6.23512641e-02  6.54450431e-02
   7.65038952e-02 -3.90281491e-02  2.63048485e-02  8.09801295e-02
  -1.20529607e-02  6.10904396e-03  6.17702305e-03 -5.34892529e-02
  -5.17455004e-02  3.25223804e-02 -1.98683999e-02  6.10158816e-02
  -6.83289468e-02  7.96139240e-04  1.01397857e-02 -5.29361777e-02
   2.01056078e-02 -9.73985344e-03  5.59755936e-02 -7.07043409e-02
  -5.75363711e-02 -1.05653629e-02  2.10627913e-02  5.68122938e-02
   2.67744362e-02 -3.50411348e-02  5.57410792e-02  7.87035897e-02
   5.13016209e-02  7.71807209e-02 -7.84171894e-02  3.17765400e-02
  -4.34416719e-02  6.38936535e-02  2.11919323e-02  2.38603130e-02
   5.88892475e-02 -4.24624011e-02 -6.34629056e-02 -6.16540983e-02
   3.87764648e-02  7.35071823e-02 -6.96666315e-02 -5.13001196e-02
   5.86735457e-03 -4.47865725e-02 -4.82142493e-02 -5.13291843e-02
  -6.03388026e-02  1.18950233e-02 -7.88270906e-02 -5.11763357e-02
  -7.54103214e-02 -7.27884322e-02 -3.80759723e-02 -6.27929121e-02
   5.86538389e-02  3.63192633e-02  4.04090807e-02 -1.46599784e-02
   5.74315861e-02 -9.44563746e-03  1.47272944e-02 -1.14720762e-02
   6.10827878e-02  1.43299922e-02 -6.31429702e-02 -5.75558841e-02
   6.67166188e-02 -7.20403716e-02  4.29896191e-02 -5.46245873e-02
   1.44998580e-02  3.28792483e-02  3.13637406e-02  2.78838947e-02
   1.70759708e-02  7.63869062e-02  7.10202754e-03 -3.16904262e-02
   7.23904371e-03  2.84783915e-02 -5.70174083e-02  3.12585458e-02
  -3.76469716e-02 -4.97128330e-02  5.35551980e-02  4.21491191e-02
  -8.38068128e-03  7.10280910e-02  6.74575046e-02 -4.21036929e-02
   3.34667861e-02  5.13687059e-02  1.90559998e-02  6.92069158e-02
  -1.45659521e-02 -6.82287291e-02  2.76391655e-02  3.12986672e-02]
 [-1.73349082e-02  1.77099407e-02  5.98431304e-02  5.04850522e-02
  -5.55144176e-02 -3.45287472e-02 -1.63848549e-02  5.67626879e-02
  -2.96370648e-02  4.55514267e-02 -8.93367827e-03  2.10295096e-02
   5.00722900e-02  8.47402215e-03 -6.53546378e-02 -4.18751165e-02
   2.62357295e-02  1.97127834e-02 -3.18808705e-02 -7.16168433e-02
   7.27866963e-02  3.95487398e-02 -2.03028321e-05  5.37571535e-02
   1.21889859e-02 -4.41031158e-03  4.62382808e-02 -7.86061063e-02
   3.65036130e-02 -6.77988380e-02 -2.85824537e-02 -6.21992648e-02
  -9.00804996e-03  6.93930015e-02 -3.46602276e-02 -4.00546864e-02
   2.59488299e-02  6.24730811e-02 -7.11807832e-02  6.53501675e-02
  -1.66496560e-02  5.19418493e-02 -6.48272187e-02  6.66577369e-03
  -5.75975031e-02 -7.20416605e-02  7.23008886e-02 -1.81968957e-02
  -4.90722880e-02  5.46613112e-02  1.28290057e-03 -2.12010220e-02
  -3.85928266e-02 -3.44437547e-02 -7.30897412e-02  2.98536941e-02
  -7.64780641e-02 -5.55968769e-02  2.76984423e-02  6.61466345e-02
  -4.25391942e-02 -3.52291800e-02  6.23077676e-02  3.89265865e-02
   2.80260667e-02  7.53143951e-02 -6.25547618e-02  7.10544661e-02
  -3.98531407e-02 -4.75963913e-02  7.88451061e-02  4.06426117e-02
   3.10260057e-03 -2.85532512e-02 -1.47292092e-02 -7.87921846e-02
   6.93641379e-02  7.29419664e-02  3.14164832e-02 -2.75514498e-02
   2.17225403e-03  7.64688328e-02  2.82944068e-02  1.39847398e-02
  -2.79813968e-02 -7.68118650e-02 -7.51978084e-02  4.59111407e-02
  -6.17581941e-02 -7.41055086e-02  2.27238014e-02  5.41637763e-02
   6.80676624e-02 -5.49698137e-02  5.93989417e-02 -4.54430506e-02
   4.15486693e-02  1.02197081e-02  4.12481502e-02  4.82383296e-02
   2.91872025e-02 -1.27628520e-02 -4.47210185e-02 -6.64661080e-02
   6.21089265e-02 -2.18646936e-02  7.69499764e-02  6.56038299e-02
   3.90592664e-02 -5.79436384e-02  1.62430108e-03 -3.34185362e-02
   3.07896286e-02 -5.59922680e-02 -7.00366348e-02  6.60308450e-03
   8.10355619e-02 -7.25173876e-02  4.20137718e-02 -6.22539893e-02
  -6.11468330e-02  7.21152052e-02 -1.80562511e-02  7.04012811e-03
  -4.95076925e-02 -3.93953659e-02 -2.29907446e-02 -3.14538814e-02]
 [-2.88871676e-03  2.62816399e-02  4.99856547e-02  5.94206154e-04
   4.97556850e-02  2.01757252e-02  7.65526667e-02 -5.89079633e-02
  -6.98380247e-02  5.16339317e-02  6.75442889e-02 -4.46007736e-02
   2.26145387e-02  7.29905590e-02 -2.21824981e-02  6.10179827e-02
  -6.94099516e-02 -2.41106041e-02 -5.30924313e-02 -6.87226653e-04
   6.07301071e-02 -4.77266721e-02  7.30449781e-02  4.49747965e-02
  -2.58859210e-02  3.81438285e-02 -2.45799832e-02  1.82767957e-03
   7.46953413e-02 -3.59821357e-02 -3.85388136e-02  4.75487933e-02
  -3.38763110e-02  3.72166187e-02  4.32607830e-02 -5.76524995e-02
  -4.35147919e-02 -4.77538817e-02  4.98704538e-02 -2.28577368e-02
  -5.20634018e-02 -4.01594415e-02  1.51745304e-02 -3.66227962e-02
   1.97912827e-02  7.32639059e-02 -1.45416632e-02  4.08794284e-02
   7.43350759e-02 -9.44161415e-03 -5.24850562e-02 -3.27472463e-02
  -2.30400190e-02 -4.52196933e-02 -6.04990013e-02  6.85163513e-02
  -4.81940806e-02 -1.73983574e-02 -7.54706711e-02  3.69998515e-02
  -3.18933055e-02 -9.24138725e-03 -7.01422989e-03  2.64286473e-02
   3.23593765e-02 -5.52758053e-02 -9.86688584e-03  1.76639482e-02
  -2.37136669e-02 -4.34312969e-03 -2.19938941e-02  5.15453443e-02
  -5.70245273e-02  3.37836593e-02 -7.15065151e-02 -7.06706196e-02
  -2.49280930e-02 -1.36775896e-02  3.16913575e-02 -4.61953320e-02
  -9.02818143e-03 -1.84372738e-02  5.16160950e-02 -4.63907048e-02
   3.08809802e-02 -3.47303115e-02  5.55490181e-02  7.79770389e-02
  -6.56950474e-02 -5.82098886e-02  3.03512663e-02  1.13590881e-02
  -3.21161970e-02  2.63745189e-02  1.82290375e-03  5.39961234e-02
  -2.68072933e-02  4.16808799e-02 -3.77251208e-03 -8.02141875e-02
  -7.80750811e-03  4.52329740e-02 -7.32571632e-03  7.16518611e-03
   2.74373889e-02 -6.15394786e-02  5.07739559e-02 -4.23520580e-02
  -1.23563036e-02 -6.65400177e-03  4.31167111e-02  4.90006581e-02
   4.76981476e-02 -6.78054765e-02 -7.67366961e-02 -7.44709969e-02
   3.38724256e-02  2.76497006e-03 -5.13638966e-02 -6.22341484e-02
   7.37240389e-02 -1.10438317e-02  5.44375852e-02 -2.96925493e-02
   4.72334549e-02 -1.71862170e-02  3.69832218e-02 -2.70172469e-02]
 [ 3.66669893e-03 -9.15573537e-03  2.59315223e-02  4.70338836e-02
  -3.52122225e-02 -6.72945529e-02 -5.33553213e-03  2.55834088e-02
  -4.77171391e-02  2.15449929e-03 -1.74961686e-02  7.02880993e-02
  -5.28537780e-02 -3.41960788e-03 -7.83340633e-03  5.29803708e-02
  -3.41640860e-02  3.88693810e-03  4.82104197e-02  2.46993229e-02
   4.48601618e-02 -7.61830211e-02 -6.65721744e-02 -5.19327745e-02
  -3.00683118e-02  5.45194075e-02  4.62850928e-03  7.20185116e-02
  -7.57772252e-02 -5.48204854e-02 -1.78046748e-02  8.08961168e-02
  -6.99481592e-02  7.17391595e-02 -3.47245298e-02 -8.22875649e-03
   3.11382115e-04  1.77030116e-02  1.87449902e-03  1.73917264e-02
  -2.70324200e-03  2.93756872e-02  4.27954867e-02  7.22015575e-02
  -7.39988536e-02  3.08413431e-02 -1.80159286e-02 -9.67462361e-03
   6.65870830e-02 -5.56482971e-02 -4.98433672e-02 -4.40245867e-03
   6.62212297e-02  4.15210426e-03 -7.67896026e-02 -7.31508136e-02
  -3.09333690e-02 -2.79561020e-02 -3.14266980e-03  6.92225322e-02
   8.51987302e-03 -1.37962401e-04 -1.07739046e-02  4.34479788e-02
  -6.06926531e-02  7.32726082e-02 -2.07358971e-02 -9.56207514e-03
  -2.55852938e-05  2.89328024e-02  6.58467785e-02  4.25490588e-02
  -2.57087611e-02  7.83245936e-02  6.68134019e-02  9.75482166e-04
   3.59967351e-02  6.32923618e-02  5.55498227e-02 -3.16976383e-02
   1.62883773e-02  5.95301315e-02 -3.51457372e-02  4.80072126e-02
   8.01798627e-02 -3.56862023e-02 -7.60511681e-02  6.86017349e-02
   2.90165767e-02  1.81309879e-02 -4.40124832e-02  3.43733057e-02
  -3.39599699e-03  1.65877715e-02 -2.76077613e-02  3.53566185e-02
  -1.17187202e-02  5.65474853e-02 -4.01673689e-02 -3.43714692e-02
  -6.35995865e-02 -2.40744054e-02  1.41911209e-02 -5.49094602e-02
  -6.89871237e-02 -2.16473527e-02 -4.42390107e-02 -6.75007626e-02
  -2.70140395e-02 -6.35340661e-02  4.35842350e-02  2.82259136e-02
  -2.66351253e-02 -1.79572329e-02  6.26819208e-02 -3.20808291e-02
   3.65330055e-02  2.89191529e-02 -3.09645236e-02  3.38502228e-02
  -1.64056569e-03  8.02720264e-02  7.01786056e-02  7.70955011e-02
   3.88430282e-02  5.27618453e-02  6.98923841e-02  8.06490332e-03]
 [ 5.77623621e-02 -7.45184720e-04  4.12984639e-02  1.81239098e-02
   6.83316588e-03 -7.13849142e-02 -4.22744341e-02  2.15863213e-02
   3.66804004e-02  6.91109970e-02  6.86285719e-02  5.27695194e-02
  -1.58249736e-02 -6.03334270e-02  6.85511008e-02  3.69641557e-02
  -4.90409993e-02  1.12968385e-02 -5.97234592e-02  5.87488636e-02
  -2.96910852e-03 -5.59812039e-02  3.97438630e-02 -5.65695912e-02
   4.12066877e-02 -1.47167146e-02 -6.38871491e-02  1.16076767e-02
   3.35463583e-02  3.72659490e-02 -7.50355050e-02  3.55663449e-02
  -5.47246821e-02 -7.11438805e-03  2.58109048e-02  3.31440270e-02
  -2.51419097e-03  2.36634463e-02  6.54065236e-02 -6.48154616e-02
   2.77719274e-02 -2.43556425e-02 -5.63399121e-02 -2.32822299e-02
   1.49271563e-02 -3.41314040e-02  3.73956561e-03  8.24853778e-04
  -4.64231372e-02  3.59456837e-02 -5.00695258e-02  4.29831445e-04
   4.52842191e-02  6.22807965e-02  6.07386753e-02  5.45004532e-02
   6.25021234e-02 -4.48470637e-02  2.75828391e-02  2.17975676e-03
   7.80508891e-02  4.94269952e-02 -4.28756401e-02  7.50496760e-02
  -3.09126973e-02  4.12638485e-03  2.35204399e-02  6.99648038e-02
  -7.08503127e-02  6.69275746e-02 -7.35092089e-02 -1.27401873e-02
  -8.06761011e-02  6.37591705e-02  2.79972926e-02 -1.94597244e-02
   1.75060555e-02  2.55001038e-02 -7.51482695e-02 -6.65940493e-02
   9.61828977e-03  5.86489961e-02 -2.36261599e-02 -3.78221758e-02
   3.41830775e-02  6.55009076e-02  2.01989114e-02  6.09604642e-02
   1.42394677e-02 -2.07587183e-02  7.98836350e-03 -3.27444412e-02
   2.69805863e-02  4.88411412e-02 -2.60727480e-02 -1.84679776e-02
  -1.61981061e-02 -3.20016779e-02 -6.26660883e-02 -3.27551141e-02
  -1.94239281e-02  2.13210136e-02  1.08139738e-02  6.98743090e-02
  -7.87751228e-02  6.78545013e-02 -7.46146441e-02  4.05670553e-02
   1.31405666e-02 -4.41551208e-02 -5.72741032e-04  5.56894317e-02
  -2.78084576e-02 -3.43188308e-02 -7.37488270e-04 -6.19494319e-02
  -3.22025046e-02 -2.49297954e-02  3.61021683e-02  5.62804863e-02
   7.06963167e-02 -8.33541155e-04  4.02943268e-02 -5.70248179e-02
  -9.79889184e-03  1.44217312e-02 -2.57792510e-02 -7.18456134e-02]
 [-3.48040871e-02  2.48706341e-03 -1.06205568e-02 -6.82015046e-02
  -6.09771237e-02 -4.68463935e-02  7.91036710e-02  7.99832419e-02
  -9.81786102e-03  7.23433271e-02 -7.62501657e-02 -5.66653162e-02
  -6.20985776e-03  7.81083778e-02 -7.21158683e-02 -4.94579710e-02
  -6.87025413e-02 -1.14104450e-02 -4.06595692e-02 -1.58511177e-02
   5.43411896e-02 -6.53368980e-02 -8.94831121e-03  2.56291851e-02
   1.36203691e-02  1.42695010e-02  3.98071334e-02 -7.19542578e-02
   9.14453715e-03 -6.18817471e-02 -1.16684586e-02  1.19879469e-02
  -7.46061653e-03  6.01649061e-02  1.25314668e-02  6.64605722e-02
  -1.95972770e-02  3.06436419e-02  7.06566498e-02  1.35830492e-02
  -1.04982629e-02  8.71629268e-03  1.00187287e-02  7.18191043e-02
   6.44636378e-02  1.91486850e-02 -3.70952487e-02 -2.72079259e-02
   1.85221434e-02  4.04391289e-02 -1.35345086e-02  5.15896156e-02
  -6.82073608e-02  6.76991567e-02 -1.10476390e-02 -6.06583878e-02
   4.98033538e-02 -5.67950383e-02 -7.84992278e-02 -7.66153485e-02
   4.53983620e-02  5.25197312e-02 -7.93327615e-02 -5.48987463e-02
   6.51227906e-02 -7.94839934e-02 -8.94278288e-04  3.01862359e-02
  -1.99004076e-02 -2.65522301e-03 -5.88305704e-02 -6.94729984e-02
  -2.17863359e-02 -7.03881830e-02  3.34739611e-02  4.31619287e-02
   2.56058648e-02  4.78994101e-03 -1.57132745e-02 -4.34626155e-02
   1.78734213e-03 -3.26992869e-02  2.39836872e-02  5.68802580e-02
  -1.60592943e-02  1.52473003e-02  2.34821662e-02  8.11002925e-02
   5.80000058e-02 -6.36226609e-02  7.58118927e-04  2.77317315e-03
  -3.44487652e-02 -8.99791718e-04 -4.82389815e-02 -4.48599420e-02
   3.76459807e-02  1.66928023e-03 -5.68272769e-02 -7.81461447e-02
  -2.60766521e-02  4.63860258e-02 -4.78839129e-02  6.44226596e-02
   7.13552758e-02 -7.66805187e-02 -7.41054267e-02 -4.97286022e-03
  -4.75851558e-02  5.52423820e-02  3.76770422e-02  1.10198334e-02
  -3.85367647e-02  3.34860682e-02  6.43518791e-02  2.38839239e-02
   4.70056757e-02  3.22559774e-02  5.85847422e-02  7.94805065e-02
  -6.16607890e-02  5.98375499e-03  5.09153977e-02 -1.76305547e-02
  -2.92032324e-02  3.97299975e-02  4.84051034e-02  3.84426042e-02]
 [-2.83698067e-02 -5.56460731e-02  7.38725439e-02 -1.93937607e-02
  -3.69039923e-02 -7.25213736e-02 -6.05051517e-02  5.54402545e-02
   4.88511994e-02  6.41446933e-02 -4.66781855e-03  1.84939727e-02
  -3.74427773e-02  5.48863038e-02 -5.49884178e-02 -7.27448240e-02
  -2.34731957e-02  7.69111589e-02 -4.78454307e-02  4.12595198e-02
  -4.64211255e-02  2.57425085e-02  2.00867653e-04 -3.34138758e-02
  -4.04990427e-02  2.04838067e-02  6.70382157e-02 -8.09990689e-02
  -3.06106135e-02 -5.78532293e-02  7.34679922e-02 -6.42438456e-02
  -6.61430359e-02  6.17479533e-03  7.98427090e-02  2.81253308e-02
   2.50153840e-02  5.64105436e-02 -2.10718624e-02  1.78674608e-03
  -4.89717498e-02 -3.68868411e-02  5.27143255e-02 -4.39055786e-02
  -4.81968448e-02 -7.48385042e-02 -7.22832382e-02 -1.72130391e-02
   6.49848804e-02 -3.19887176e-02 -4.21375372e-02  7.80146495e-02
  -4.30592783e-02 -4.06088829e-02  8.02269652e-02 -1.01145282e-02
   4.70393375e-02  2.20804289e-02  2.81933099e-02 -4.48950380e-03
   6.16813377e-02 -4.62176464e-02 -4.35404330e-02 -2.43501104e-02
  -2.46010646e-02  5.09528294e-02 -1.09002441e-02  3.06998044e-02
   2.90383548e-02 -7.46467859e-02 -7.78506026e-02 -3.00718695e-02
   1.71121880e-02 -5.65489605e-02 -5.98560199e-02  7.91650042e-02
  -4.64297682e-02  4.44254056e-02 -6.64715394e-02  2.05356702e-02
   6.72396496e-02 -9.53101367e-03  6.50949553e-02  2.31173635e-03
   4.24908102e-02 -1.67938843e-02  1.73102170e-02 -6.63369223e-02
  -4.56534140e-02 -2.34530456e-02 -4.33222204e-03 -1.27171203e-02
   5.43565825e-02 -7.25146383e-02  4.05711159e-02  2.42829472e-02
   2.17681155e-02 -1.74288526e-02  2.87346244e-02 -2.88237743e-02
  -7.63497949e-02 -5.80274910e-02  5.92985377e-02 -1.70966238e-02
  -7.84365535e-02  7.83602074e-02 -1.86357647e-03 -4.22987416e-02
  -7.69513845e-02  5.53915277e-02 -1.34194493e-02  6.86855987e-02
  -3.36048417e-02  4.90134582e-02  3.69188637e-02  5.07414341e-04
   3.93088236e-02  2.66785547e-02  3.44074219e-02  3.07344943e-02
   5.94826564e-02 -3.40252556e-02  7.72130564e-02 -3.72138694e-02
   2.91953757e-02  2.19505578e-02  5.92861250e-02  3.83766592e-02]
 [ 1.49335563e-02 -4.75517176e-02  4.08139303e-02  3.94025967e-02
  -8.91078264e-03 -1.91771910e-02 -3.31937075e-02 -6.05098307e-02
   4.54761609e-02 -6.77947253e-02  6.44662008e-02  1.02566183e-03
  -6.11255020e-02 -7.07655102e-02 -6.75299615e-02 -7.48149306e-02
  -1.30569264e-02  6.77860752e-02  2.12778896e-02  2.38810480e-03
   2.37002447e-02 -4.89594303e-02 -5.26317358e-02  5.73950335e-02
   2.78050154e-02 -6.56650141e-02  7.70778582e-02 -6.54286146e-03
   6.74541220e-02 -4.59957793e-02 -1.94153041e-02  6.63013384e-02
   3.19264531e-02 -8.01343545e-02  3.23658139e-02 -2.58618593e-03
  -2.06025615e-02  8.03069249e-02 -3.32222134e-02 -4.52319346e-02
  -6.25897646e-02  5.45941517e-02 -2.28517801e-02  2.25219280e-02
  -4.00900356e-02  4.52253595e-02 -7.67296925e-02 -1.50597021e-02
   4.94839177e-02  7.22202733e-02  2.58280188e-02  3.63924578e-02
   5.13408706e-02  7.88029656e-02 -7.18898401e-02 -5.41047007e-03
   1.55898407e-02 -1.07264742e-02 -4.51455303e-02  5.26903644e-02
   5.05726114e-02 -1.21833980e-02 -6.55205771e-02  4.47635427e-02
  -1.44057199e-02 -5.66116944e-02 -7.94412121e-02  1.38162822e-03
   5.58030680e-02  4.58571985e-02  2.79545188e-02  1.14274099e-02
  -4.71087769e-02  4.26852331e-02 -5.72801791e-02 -5.98508194e-02
  -2.48564072e-02 -6.16365671e-03 -4.84808646e-02 -3.92099507e-02
  -7.99547434e-02  5.28353229e-02  4.89701107e-02 -2.60631740e-02
   4.39666212e-03  6.33211359e-02 -7.83985704e-02  2.09850371e-02
   4.08614427e-03  3.96300554e-02 -5.45451641e-02 -3.02965231e-02
   5.92568442e-02 -5.26883453e-03 -6.51800111e-02 -2.81382315e-02
  -6.89749569e-02 -6.35282695e-03 -4.39476408e-02  5.04733622e-03
  -4.97623011e-02  1.71050951e-02 -4.53937016e-02  6.11010864e-02
  -2.74662264e-02  7.69819245e-02  4.66366112e-03  2.05811933e-02
   7.15400800e-02  7.42527470e-02  3.51319462e-02 -5.03852069e-02
  -6.93997070e-02 -1.64453089e-02 -2.54513696e-02  2.08556205e-02
   2.68692300e-02  7.40488097e-02  3.37468833e-03 -6.61699548e-02
  -7.74160326e-02 -6.14924729e-03 -7.49888197e-02  7.83872828e-02
  -2.46290080e-02  6.95292279e-02 -4.82996292e-02 -7.13848770e-02]
 [-5.99444583e-02  6.13590106e-02  7.38351569e-02 -2.09313631e-03
  -5.05855307e-02  3.45830098e-02 -1.47189423e-02  7.38524273e-02
  -1.46893710e-02 -1.70096382e-02 -2.39932612e-02  1.00044981e-02
  -7.97025338e-02 -6.01997785e-02 -1.38388574e-03  1.08250380e-02
   5.56275025e-02  1.74122080e-02  5.84388897e-02  8.03321600e-05
   1.86522752e-02 -2.95689553e-02  3.40609699e-02 -1.28826499e-02
   7.83167258e-02  6.33752123e-02 -4.39278968e-02 -6.93192929e-02
   3.11494395e-02  2.29675546e-02  3.69004160e-02  1.17104053e-02
  -7.45159239e-02 -2.15412416e-02  1.28766373e-02 -5.49632981e-02
  -7.33115748e-02  2.16762200e-02  2.27991566e-02  6.05584309e-02
  -6.72197938e-02 -6.06912449e-02  2.41445452e-02 -2.58475542e-03
   7.75520578e-02 -3.85933667e-02 -4.69771214e-02  1.88609883e-02
   2.63054073e-02  6.07338473e-02  5.21480069e-02 -8.01641196e-02
   8.19941610e-03 -5.97126856e-02 -8.14630091e-03 -6.85671121e-02
   4.43115160e-02  3.29241678e-02 -1.75862089e-02 -3.92302759e-02
   4.09441292e-02 -5.36810681e-02  6.10316023e-02  6.49414286e-02
   1.96238086e-02  9.46223736e-05 -5.23715988e-02 -2.80748978e-02
  -2.73251161e-02 -2.75605209e-02 -3.04199196e-02  4.03702706e-02
   5.16265258e-02  1.10620111e-02 -1.53062269e-02  5.65768257e-02
  -5.51778153e-02 -3.92124057e-02  4.48822007e-02 -7.59102330e-02
  -6.59815669e-02  1.91660747e-02  5.53560778e-02 -2.78752707e-02
   2.91234180e-02 -3.82513702e-02 -3.51891704e-02 -5.22945337e-02
   4.42118719e-02 -5.21356091e-02 -2.00666785e-02  3.85101363e-02
   4.62656394e-02 -4.33635861e-02 -1.38961524e-02 -5.03628105e-02
   3.45918462e-02  6.91772178e-02 -7.95324296e-02  3.14441547e-02
  -1.70143992e-02  4.98241112e-02  2.69369334e-02  7.93987885e-02
  -6.61844984e-02 -1.52483284e-02  2.45590806e-02  4.07855734e-02
   4.50499356e-03  1.20095313e-02  7.01644346e-02 -5.08699417e-02
  -4.25297357e-02 -1.27075240e-02  1.33402348e-02  1.07136294e-02
  -6.20070994e-02 -9.52515751e-03  5.10243103e-02  6.44707903e-02
  -6.80858642e-02 -7.93228596e-02  4.69857380e-02  5.91422096e-02
  -2.25788578e-02  3.42883915e-02 -4.59873490e-02 -3.41390595e-02]
 [-7.74076125e-06  1.68400496e-01 -6.33111224e-02  8.06188732e-02
   1.56790838e-01  3.14527117e-02  7.43408576e-02 -7.71234632e-02
   3.70793156e-02 -5.43628447e-02 -1.06753916e-01 -1.05755180e-01
  -4.50845063e-02 -5.38042979e-03  7.98477530e-02  3.02635133e-02
  -1.94228999e-02  6.03030324e-02 -3.12807932e-02 -5.49253151e-02
   5.93443923e-02  1.02134176e-01  6.17705062e-02  2.05993131e-02
   2.45933831e-02 -1.97114553e-02  8.75733420e-02  6.55439124e-02
   1.74481750e-01  1.12656333e-01 -1.42065613e-02 -2.53345724e-02
  -7.00553581e-02  2.31561121e-02 -7.34358802e-02 -6.51628226e-02
   1.86402202e-01  1.79514252e-02  2.52470300e-02  8.49453583e-02
   6.94702119e-02  3.45797725e-02  7.53348172e-02  7.29375407e-02
   3.70216370e-02  7.26856142e-02 -1.03772998e-01  3.18028107e-02
   5.25921062e-02  4.36188001e-03 -2.92165540e-02 -9.61798877e-02
   1.18606463e-01  6.96663931e-02  6.65267580e-04  1.43425629e-01
   6.62802085e-02  7.01714233e-02 -1.13050364e-01 -5.62949330e-02
  -1.45550951e-01 -6.35428727e-02  8.77839550e-02  2.94051394e-02
  -1.58245862e-02 -2.69044191e-03  7.20792934e-02 -8.49298835e-02
  -2.29430571e-02  2.98537910e-02  6.73596188e-02  6.35510609e-02
  -2.27580816e-02  9.43653435e-02 -7.06598386e-02  2.77825748e-03
  -1.91994030e-02  1.01547152e-01  3.64027694e-02  9.68771894e-03
  -1.09311551e-01 -9.46598407e-03 -4.88030314e-02  4.70241159e-02
  -2.96070427e-02  1.68707222e-03  1.94098223e-02 -8.03570151e-02
   9.85103697e-02  9.81566845e-04  1.19630747e-01 -2.07847375e-02
   7.95452148e-02 -8.08920637e-02  1.50739148e-01 -6.99777603e-02
   9.19783339e-02  1.90038234e-02  5.54881021e-02 -1.06242113e-01
  -3.30142118e-02  6.50450662e-02 -9.82177630e-03  8.05288628e-02
  -7.45213106e-02 -1.51768684e-01  7.41015449e-02  2.39441320e-02
   6.35955483e-02  1.45827606e-02  3.49597707e-02  5.18136583e-02
   8.07217732e-02  9.47215036e-02  4.50693890e-02 -3.78691815e-02
  -1.67904213e-01  1.07569717e-01 -8.40098336e-02  2.58568376e-02
   5.79609200e-02 -8.88226181e-02  5.79790249e-02  7.55437911e-02
   1.48692220e-01 -8.76222625e-02 -1.04079373e-01 -1.27903195e-02]
 [-4.85947169e-03  4.99151833e-02  2.69251224e-02  4.17995416e-02
   6.31682649e-02 -2.47615464e-02  1.96162269e-01 -1.05029918e-01
   1.19792826e-01  8.44827213e-04 -1.86138805e-02 -6.35105595e-02
  -1.26648098e-02  4.75775674e-02  1.48433045e-01  5.98122999e-02
  -2.19259295e-03  4.00198512e-02  4.95566018e-02 -4.62770723e-02
  -4.12135497e-02  8.56064409e-02  1.48269236e-02  1.96163431e-02
   4.98452522e-02 -4.26996872e-02 -3.48653309e-02  6.43377677e-02
   2.23160107e-02  1.85739189e-01 -5.38833849e-02 -4.27480154e-02
  -4.49016728e-02 -4.72464487e-02  1.75929964e-02 -1.46183595e-02
   8.30233172e-02  1.80172026e-02  6.86545894e-02 -5.33249192e-02
   5.67893721e-02 -4.96103428e-02 -3.73389237e-02  1.06450304e-01
  -6.17694668e-02  3.38702202e-02 -5.72207384e-02 -7.26633966e-02
  -6.34035468e-03 -4.80085649e-02 -4.35537770e-02  6.33802032e-03
   6.15616553e-02  2.58488655e-02 -8.30656886e-02  1.56657174e-01
   5.56698665e-02  2.54211649e-02 -1.29150122e-01  6.39144972e-04
  -1.13120109e-01 -1.15126714e-01  8.45762193e-02 -5.32526523e-02
  -6.38575405e-02  3.69280726e-02 -3.39174457e-02 -5.42594045e-02
   6.42577782e-02  3.63101810e-03 -2.48404033e-02  5.87394610e-02
   1.39249465e-03  4.59326357e-02  5.66411689e-02  7.07898289e-02
  -8.31152052e-02  1.36903718e-01  6.34119138e-02 -2.78599337e-02
  -5.82287423e-02 -1.14693381e-02  7.14116618e-02 -4.96758558e-02
  -1.50329899e-02 -4.20839712e-02 -6.23671226e-02  3.01102325e-02
   9.39084291e-02 -7.79565498e-02  5.70962504e-02  6.90638572e-02
   4.30080891e-02  2.87696230e-03  4.84636761e-02 -1.76705066e-02
   5.88341206e-02  1.29688838e-02  4.14146036e-02 -1.50776193e-01
  -4.85611781e-02  1.46822318e-01  2.60017104e-02  1.56455189e-02
  -1.18824467e-01 -1.76242888e-01  1.91131786e-01  4.47005853e-02
   1.31065145e-01 -1.35776788e-01  1.41165331e-01  1.19369827e-01
   1.30589411e-01  1.52589828e-01 -3.53119001e-02  7.75123388e-02
  -3.84295881e-02  4.98718433e-02 -1.20993843e-02 -4.29213196e-02
   3.68458256e-02  1.07730012e-02 -8.69531184e-03  7.47933984e-02
   1.12632528e-01 -3.26351039e-02 -9.16736946e-02 -1.09344460e-01]
 [-8.96415785e-02  4.11669239e-02  8.11908245e-02  4.49949689e-02
   1.20709976e-02  5.05283512e-02  2.56550442e-02  1.94119308e-02
   4.60879989e-02  1.18455347e-02  2.12810040e-02 -1.60120130e-02
  -1.64471194e-02  9.03024673e-02 -4.54208367e-02  4.12295610e-02
  -5.30032963e-02  3.49727161e-02  3.50532643e-02 -2.46911794e-02
   4.39642090e-03 -3.59283574e-02 -2.15074420e-03 -4.47917581e-02
  -1.95722766e-02  1.73492637e-02  9.81712341e-02 -7.17876554e-02
  -2.57138461e-02 -4.19270396e-02 -4.07842770e-02  1.66476965e-02
   5.13686463e-02  6.80294111e-02 -1.46148056e-02  5.37784919e-02
   7.09099397e-02  1.09848008e-03  7.54315555e-02  2.35856548e-02
  -6.11420535e-02  4.33899201e-02  1.17640663e-02 -2.92640757e-02
  -8.85057747e-02 -8.18944443e-03 -2.41218675e-02 -3.93976122e-02
   6.35929778e-02 -1.09756319e-03 -6.27549142e-02  3.70700881e-02
  -4.69179787e-02  3.90669033e-02 -5.86951058e-03  8.77554938e-02
  -8.86072963e-03 -2.63111703e-02  3.69028896e-02  2.13529859e-02
  -1.45251732e-02 -2.07551531e-02  6.24292381e-02  4.76075634e-02
   2.30724290e-02 -5.17776385e-02 -7.36066550e-02  4.46225181e-02
   4.75418307e-02  5.90027943e-02  9.00149122e-02 -2.14157552e-02
  -3.88322845e-02  1.79938357e-02  5.70676848e-02  5.03360517e-02
   4.46718410e-02 -9.43939611e-02  6.99722990e-02  9.15836915e-02
  -6.23979792e-02  5.24208285e-02  5.85249811e-02  2.73606349e-02
   8.22751597e-02  7.19637349e-02  1.07034100e-02  4.15276438e-02
  -6.21292815e-02 -3.92178223e-02 -1.63243338e-02 -5.29477224e-02
   4.59777936e-02  2.02225447e-02  3.45554166e-02 -4.13851552e-02
   6.42046854e-02 -3.67291085e-03  1.00027464e-01 -6.08652132e-03
   5.51055893e-02 -3.93107235e-02  7.11692870e-02 -1.31923333e-02
  -7.74641633e-02 -5.40986247e-02  1.84792243e-02 -9.82005708e-03
  -4.60954309e-02 -3.99303101e-02 -4.49494570e-02 -7.50159025e-02
   2.86686234e-02 -3.51172052e-02  5.08566648e-02  2.53586806e-02
  -1.46451034e-02 -1.09998472e-02  4.52853367e-03 -6.04177602e-02
  -2.44980156e-02  4.67091613e-02 -8.00506622e-02  5.24299359e-03
   8.11085403e-02 -7.94548988e-02  5.89528820e-03  6.39173165e-02]
 [ 6.05806848e-03 -4.68652695e-02 -5.30765764e-02  2.58840378e-02
  -6.93840384e-02 -5.14548793e-02  1.83294080e-02 -7.20637571e-03
  -2.98946146e-02  1.73775628e-02 -7.93517753e-02  5.85560799e-02
   6.83455095e-02  2.87751015e-02  1.14284223e-02  4.72500101e-02
   9.96015035e-03 -5.01543991e-02  7.82795325e-02 -7.25521743e-02
   2.31597689e-03  5.47415670e-03  4.78843600e-03 -5.28953932e-02
   4.93848436e-02 -7.39495875e-03 -6.87418282e-02  7.32056126e-02
   2.68901587e-02 -6.06378950e-02 -1.05992360e-02 -5.09804226e-02
  -6.67821243e-03  2.74481997e-02 -4.31154743e-02 -5.53580113e-02
  -7.92272680e-04 -6.51459992e-02 -1.80553608e-02  3.47720385e-02
  -8.89925957e-02  2.57826429e-02 -2.66899262e-03  5.02903536e-02
  -5.36566637e-02  6.04316182e-02 -5.66143133e-02  1.02790762e-02
  -3.30425017e-02 -7.26969494e-03  2.04166025e-03  2.09578276e-02
   3.10473086e-04  3.12790796e-02 -4.22850959e-02 -2.61130668e-02
  -1.69239119e-02 -4.33557145e-02 -5.77546023e-02 -5.82121983e-02
  -8.27106610e-02 -1.52539127e-02 -6.55601472e-02 -1.15155727e-02
  -5.60437292e-02 -2.38011144e-02  1.39787644e-02  1.44489715e-02
  -7.48132020e-02 -7.21905082e-02  4.16306593e-02 -3.81429978e-02
   7.49614611e-02  4.56918322e-04 -5.85181862e-02 -7.86560997e-02
   2.90733129e-02 -2.97976807e-02  8.22159462e-03  6.86107948e-02
  -1.45284375e-02  6.73070252e-02  3.57530005e-02  8.69999230e-02
   2.58986652e-02  3.59941050e-02 -9.61119682e-03  1.50778368e-02
   3.98919657e-02 -6.68334514e-02 -2.98325699e-02 -4.81023006e-02
   2.45895479e-02 -2.93431617e-02  3.49342860e-02  2.69299522e-02
   2.36242712e-02  3.71932760e-02  5.67516871e-02 -7.36194029e-02
  -3.39355245e-02  6.51233271e-02  4.25394401e-02 -3.69994454e-02
  -4.98086028e-02  6.46501407e-02 -2.62410138e-02  1.84921101e-02
   1.46611128e-02  3.57188061e-02 -1.30645456e-02 -8.81614089e-02
  -2.52107624e-02 -6.40902147e-02  1.08099347e-02  3.61891165e-02
  -6.64539114e-02  8.01011622e-02  8.72524455e-03 -5.61681688e-02
  -1.96558312e-02  3.08126360e-02  5.37346229e-02 -6.04974590e-02
   5.68809500e-03 -6.44909143e-02 -3.23446244e-02  7.83297792e-02]
 [-7.83562362e-02 -3.40071730e-02 -1.04108155e-02 -3.16978134e-02
  -7.32160062e-02  1.81476399e-02 -5.61506674e-02  1.38425827e-03
  -6.94707334e-02 -6.58777356e-02  3.88358310e-02  4.04135063e-02
  -4.14929911e-02 -1.76964775e-02  2.48031318e-02 -3.52399126e-02
   2.58555040e-02  1.82393640e-02  2.05912292e-02  4.30546924e-02
   5.41753545e-02  7.57289678e-03 -6.05639592e-02  6.51716441e-03
   5.60777262e-02  1.07833669e-02  7.68566132e-03 -6.88534752e-02
  -1.37019381e-02 -6.73602298e-02  3.63012403e-03  1.60333291e-02
  -1.85334608e-02  7.50853792e-02 -3.34141850e-02 -4.61370274e-02
  -7.87988752e-02 -1.84888244e-02 -2.75712125e-02  6.01474568e-02
  -7.06402212e-02 -8.46843421e-03 -7.79752135e-02  3.29764038e-02
  -1.93778835e-02 -3.29353474e-02  2.31150314e-02 -4.62467968e-03
  -6.44632429e-03 -2.10700445e-02 -7.67423958e-02 -6.15396723e-02
   7.44495168e-02  7.63285086e-02 -1.54442415e-02  7.11307749e-02
   5.53239360e-02  4.44820002e-02  3.74142155e-02  1.91059709e-02
  -4.65709753e-02 -7.48002529e-02  3.15020680e-02 -6.57039210e-02
  -1.89705230e-02 -3.14037949e-02 -1.57857761e-02  6.23507053e-03
  -5.10690659e-02 -2.37411484e-02  2.82801539e-02 -4.57236134e-02
  -2.69839875e-02  5.04201874e-02  7.33804330e-02  2.94045806e-02
  -6.66239262e-02  4.26473916e-02 -6.48503527e-02  4.38735932e-02
   1.31673291e-02  2.52777264e-02  1.79090276e-02 -3.82527411e-02
   1.69590712e-02  1.53459460e-02  6.26946166e-02 -7.14654028e-02
   6.90836236e-02 -2.51465291e-03 -3.36115509e-02  3.61520648e-02
   1.47396326e-03 -2.28848867e-02  3.65946740e-02 -1.32519156e-02
  -7.59393796e-02  5.41802123e-02  4.48440090e-02 -2.40886956e-02
  -3.38450409e-02 -6.75277933e-02  5.49263731e-02  9.34136659e-03
  -1.34308338e-02  2.50551850e-02 -2.45415419e-02  2.04322487e-02
   4.66108099e-02 -3.19483802e-02  6.22631386e-02 -7.96439201e-02
  -3.46444473e-02 -1.10490695e-02  1.76446736e-02 -3.06671970e-02
  -6.82385713e-02  1.34487227e-02 -5.44382632e-03 -9.46495682e-03
   2.48652622e-02  5.30977175e-02 -1.20378807e-02  1.95975900e-02
  -6.87928274e-02  7.23963976e-03  1.14375055e-02  5.79509139e-03]
 [ 2.99210101e-03 -1.97087973e-03  7.44309649e-02  2.69295275e-02
  -1.87496990e-02 -7.61654601e-02  2.92025730e-02  6.57118931e-02
  -2.47571804e-02 -9.32800025e-03 -2.44596042e-02  4.99524847e-02
   2.72839069e-02  1.87096298e-02 -4.33651917e-02 -4.11112905e-02
  -6.99113980e-02  2.26207450e-02 -3.15238833e-02 -1.54557824e-03
   5.57917133e-02  4.28242609e-02 -5.25545180e-02 -4.12388854e-02
   7.26145878e-02 -6.29437491e-02 -2.88081504e-02  7.53060654e-02
  -6.93499893e-02 -1.25684440e-02 -5.02499528e-02 -1.21672451e-03
  -5.30204177e-02 -7.13220835e-02  7.00142607e-02 -5.03505915e-02
   5.30538782e-02  6.78781345e-02  6.82884827e-02  7.91119263e-02
  -8.08693692e-02 -6.23709857e-02  5.64559624e-02 -3.49465907e-02
  -1.36777684e-02  3.18609923e-03  3.24501693e-02 -5.33764735e-02
  -3.16128023e-02 -3.25799286e-02 -8.04572254e-02  5.71039245e-02
   2.67576128e-02  2.78921351e-02  6.06466159e-02  7.09970817e-02
   4.12335321e-02  6.90022632e-02  5.47100976e-02  6.95431978e-03
   3.92585695e-02 -5.63921854e-02 -4.19537835e-02  4.69438955e-02
  -1.72702596e-02 -2.35093199e-02  1.21977702e-02 -6.81234896e-02
   6.42437711e-02 -1.04148909e-02 -3.46645974e-02  1.50325671e-02
  -1.58945471e-03  6.30604699e-02  3.73958051e-02  3.67643684e-02
  -5.16696572e-02  7.50119463e-02  1.75803676e-02  6.93960711e-02
  -6.97907656e-02  7.20759854e-02  6.79192767e-02  1.87202543e-03
   2.04952806e-03  3.46631557e-03  1.33428723e-03  7.43269920e-04
  -3.53443995e-02  2.14200467e-02  1.09084472e-02 -3.96328606e-02
  -8.01592246e-02  6.97377548e-02  3.08710262e-02 -7.37710148e-02
   5.66471145e-02  6.75392672e-02  5.38263544e-02 -6.51093572e-03
  -1.85422003e-02  7.75362924e-02 -6.98068514e-02  5.99912181e-02
  -3.78143042e-03  4.31371555e-02  6.41528144e-02  4.66592386e-02
   2.31892914e-02  3.76456976e-02 -1.17217377e-02  2.23366097e-02
  -5.21325544e-02  4.03766856e-02  5.70469275e-02 -7.86013529e-02
  -7.57780597e-02 -7.51671791e-02 -7.27536455e-02 -7.91400746e-02
  -2.83411108e-02 -1.29674673e-02 -6.31238446e-02  2.95171142e-02
  -7.53293484e-02 -3.38285267e-02 -3.34053673e-02 -2.74598449e-02]
 [ 1.94951743e-02  4.41006646e-02 -2.87919044e-02 -4.42128666e-02
   2.80810520e-02  3.92472520e-02  6.57289401e-02  1.08471215e-02
  -8.10457692e-02  5.54906204e-02  3.95801440e-02 -4.41177934e-03
   6.23661354e-02  4.85368744e-02  4.76507768e-02  5.25489673e-02
   6.60236105e-02 -6.10874072e-02  5.63079491e-02 -1.79697275e-02
   1.40584782e-02 -7.70650804e-04  7.09793195e-02 -5.56402728e-02
   4.39876691e-02 -2.45399922e-02 -8.00849646e-02 -3.75434905e-02
   2.59004831e-02  6.29101917e-02 -1.47179514e-02 -5.30249998e-02
   5.81888929e-02 -4.92123775e-02  7.88334236e-02 -7.93903172e-02
   2.98804939e-02  4.63990197e-02  2.53748670e-02  5.33654466e-02
   1.15605742e-02 -2.33548060e-02 -2.92959400e-02  1.24358833e-02
   2.05727965e-02 -3.12325731e-02  6.68250844e-02  7.16425255e-02
  -6.49123490e-02 -3.17279994e-02  1.18770599e-02 -3.28382105e-02
  -7.87162185e-02  6.58443049e-02  3.04395854e-02 -7.35344663e-02
  -4.04725075e-02 -5.38960919e-02  6.80650696e-02  1.07306242e-03
  -2.67632790e-02  5.73828593e-02  2.81986073e-02 -7.61988610e-02
   2.20141038e-02  7.07409456e-02 -1.49456635e-02 -2.19068900e-02
  -3.05521563e-02 -7.28445351e-02  1.43164694e-02 -6.06499538e-02
   1.18927062e-02  2.91428342e-02  1.69245154e-02  4.98997495e-02
   6.84803054e-02  3.17662880e-02  7.91011825e-02  7.41222873e-02
  -6.79028630e-02  1.43474713e-02  4.13663089e-02  3.91491875e-02
  -5.10226935e-02 -2.49953903e-02  4.49239686e-02  4.40136418e-02
   4.69967052e-02  5.63103631e-02  8.09344277e-02 -1.05663538e-02
   2.94561759e-02 -4.47361581e-02 -8.03350508e-02  7.30915591e-02
  -5.99823594e-02 -3.26643996e-02 -5.96571267e-02 -7.87503719e-02
   7.07077608e-02 -5.22638820e-02  7.52005205e-02 -3.64965945e-02
   2.04077363e-03 -5.69280982e-03 -4.73888516e-02  6.21237829e-02
  -1.57843456e-02  3.80184576e-02  3.96930799e-02  2.71423832e-02
   5.79808652e-03  6.65940866e-02 -5.67915291e-03 -5.32182083e-02
  -7.80214369e-02  2.17383727e-02  1.44739449e-03 -4.92087230e-02
  -5.74798137e-03  6.94607124e-02  3.46651375e-02 -6.60704449e-02
   2.71121785e-02  5.41201308e-02 -3.15544382e-02  6.43454120e-02]
 [-6.28189966e-02  4.80624065e-02  1.62652731e-02 -5.77478111e-03
   5.68562075e-02 -5.41720912e-02  6.71522692e-02  1.40271112e-02
   4.95467409e-02 -3.96767184e-02 -6.46718740e-02 -3.83633375e-02
   4.35685515e-02 -5.84731996e-03 -7.01230541e-02  7.23478273e-02
   6.42260835e-02 -1.97114125e-02 -6.81180954e-02  8.01436603e-04
   5.77462837e-02 -5.49208671e-02 -7.30737522e-02 -5.98847866e-04
  -6.18053414e-02 -4.26791646e-02  2.34089717e-02 -5.73091879e-02
   4.58160862e-02  1.37126520e-02  5.33045009e-02 -7.81917050e-02
  -2.77584046e-03  2.69302428e-02 -6.62204698e-02  1.74661204e-02
   6.17279634e-02 -2.74663605e-02  6.45674244e-02  7.04053566e-02
   7.37737343e-02  2.81696022e-02 -4.58190665e-02 -7.71106556e-02
   2.21895799e-02  5.45231923e-02 -4.39447388e-02  3.68564576e-03
  -3.11516225e-02 -5.50209433e-02 -3.62332836e-02  1.56673491e-02
   5.69748506e-02  1.01121888e-02 -3.68355177e-02  6.69019297e-02
  -5.52711412e-02 -3.48030999e-02  7.88499042e-02  6.18610308e-02
  -2.72628441e-02 -6.79187402e-02 -8.53513181e-03 -2.21828073e-02
   5.56165203e-02 -6.75105453e-02 -1.42408907e-03  2.29638070e-02
  -2.03898214e-02 -1.28870010e-02  7.93638602e-02  7.86805376e-02
  -7.26949349e-02  1.36773959e-02 -7.59296864e-02 -5.59486598e-02
  -6.17047995e-02  1.41031742e-02  3.21811363e-02  2.88663954e-02
  -8.33362341e-04 -7.32824206e-04  3.23911309e-02 -6.47829175e-02
   1.08366832e-02  1.87923387e-02 -2.57962495e-02 -3.85401696e-02
  -1.07916221e-02  6.46710023e-02  5.30688241e-02 -3.09483558e-02
   7.12152198e-02  5.31325713e-02 -4.71247286e-02 -4.71359082e-02
   1.46141276e-02 -2.59160101e-02  3.77633497e-02  6.68388829e-02
  -6.29290342e-02 -6.97640777e-02 -6.26264811e-02  7.01960698e-02
  -4.49961051e-02 -2.79612839e-03 -1.80198327e-02 -1.29584223e-02
   2.14056000e-02 -4.45991866e-02 -5.25985733e-02  4.29080427e-03
  -4.82714698e-02  3.69961038e-02  3.66303176e-02  5.38755879e-02
   4.64073047e-02 -4.01509553e-03 -1.95899121e-02  3.49464566e-02
   7.64525607e-02 -3.74915302e-02  6.90100417e-02 -6.63680211e-02
   6.98583946e-02  5.28749898e-02  4.48623300e-03  5.67728356e-02]
 [-7.26694837e-02 -5.22233322e-02  2.06217468e-02  7.43312165e-02
   6.63724467e-02  3.46053094e-02 -3.01521048e-02  3.56674269e-02
  -1.87073313e-02  5.94298542e-03  8.04630443e-02  3.35195959e-02
   4.94333357e-03  1.08562708e-02  1.72684863e-02  4.49134484e-02
  -2.64322087e-02  7.53492042e-02  5.27388602e-03  1.80479512e-02
   3.49837989e-02 -4.06189263e-03  6.15927503e-02 -6.59132004e-02
  -3.03369574e-02  4.28526103e-02  1.21638104e-02  3.55873629e-02
   5.78554198e-02 -1.87099203e-02  4.18805480e-02 -3.98284458e-02
   7.05894306e-02  6.70174733e-02 -3.03159766e-02 -4.36271653e-02
  -5.72148561e-02  1.17168278e-02  8.74464214e-03 -3.16490792e-02
   2.08513886e-02 -1.93075314e-02  6.79608360e-02 -2.76768580e-02
   4.48501036e-02 -7.48649389e-02 -4.04696167e-03 -2.93828435e-02
   2.22383067e-02  1.61856711e-02  1.87303051e-02 -6.95907101e-02
  -1.70690492e-02  4.09248322e-02 -5.13839722e-03  3.33198532e-02
   7.67596066e-04 -5.08056581e-02 -3.82627025e-02  3.96519452e-02
   7.08504394e-02  7.62514547e-02 -3.47188227e-02  1.09583214e-02
   2.48157382e-02 -6.76584244e-02  5.81870899e-02 -3.86543013e-02
  -2.97121555e-02 -1.55542418e-02  5.43095693e-02  1.05614737e-02
  -7.85592347e-02  7.50619248e-02  7.08984211e-02  4.76353541e-02
   1.13295540e-02 -6.38050586e-02 -5.11858091e-02 -5.09467721e-03
   6.94574937e-02  4.00946587e-02  6.27422109e-02  2.59019434e-03
  -4.84115966e-02 -9.80678201e-03  4.78856489e-02  1.19643733e-02
   6.63256124e-02 -3.01105827e-02 -1.16894618e-02  2.89370939e-02
  -3.69070098e-02  7.22778216e-02  6.45353869e-02  4.31584641e-02
   5.02607301e-02  6.09156117e-02 -6.39330745e-02 -1.83925033e-02
  -4.12109606e-02  2.64958143e-02 -5.31872474e-02  5.66280559e-02
   4.32296693e-02  4.31770310e-02  3.78879830e-02  6.97857812e-02
  -3.04366648e-02  3.16115841e-02 -5.14657907e-02  6.04228154e-02
   5.34804910e-03  2.22248882e-02 -1.29414052e-02  8.02648142e-02
  -5.73845096e-02 -2.97201239e-02  4.22016010e-02  1.97231323e-02
  -4.86200452e-02 -2.26664394e-02  3.31241637e-03 -7.07276464e-02
  -2.17849761e-03  4.16974947e-02 -8.10115039e-02 -6.99819997e-02]
 [ 7.31809437e-03 -7.37938285e-03  6.44913316e-03 -2.64336951e-02
  -6.32034019e-02 -5.76881208e-02 -2.11694241e-02 -7.25626796e-02
   7.63198212e-02  6.57321438e-02 -4.54457402e-02  5.13455495e-02
   5.53134307e-02 -3.42961662e-02  6.90787062e-02  6.21246770e-02
   7.65874982e-04  5.58531657e-02 -3.04789580e-02 -6.51224703e-03
   1.13445222e-02 -7.66334459e-02  2.27291360e-02  7.93280080e-02
  -3.58055010e-02 -3.75557914e-02  1.14754438e-02 -6.72398508e-02
  -3.68283801e-02 -6.98809177e-02 -4.63040695e-02  2.49486491e-02
   6.28724024e-02  2.90556028e-02 -1.68019235e-02 -4.82415929e-02
  -4.48588207e-02 -8.08010250e-02 -3.85141969e-02  3.35248187e-02
   4.91564348e-02  1.67722255e-02 -6.49593174e-02  4.59716991e-02
   5.86967841e-02 -4.46615890e-02 -3.25371139e-02 -4.99448180e-03
  -3.72746885e-02 -7.91558549e-02 -1.81837678e-02 -6.70138970e-02
  -5.15067875e-02  2.10060179e-02  2.11720765e-02 -2.82827094e-02
   1.00008771e-02 -6.75185025e-03 -5.13547882e-02  1.80480853e-02
   2.85893157e-02 -2.33274624e-02 -5.82468621e-02  7.62067810e-02
   4.26598638e-02  2.72603706e-02  7.04772696e-02  4.64272872e-02
  -3.44930291e-02  4.30570319e-02  3.36677656e-02  9.01756436e-03
   1.35352612e-02 -1.38100013e-02 -1.23437718e-02  4.53364849e-03
  -6.56518489e-02 -1.91990249e-02 -1.64246783e-02  5.56648895e-02
  -4.76888865e-02  7.47139528e-02  7.58311376e-02 -5.48499823e-03
   1.95716172e-02 -1.00434422e-02 -3.20167802e-02 -3.91877480e-02
  -6.63316846e-02  3.36906239e-02  2.87762210e-02  6.61019981e-03
  -4.33505327e-02 -5.53427339e-02  1.80337802e-02 -6.22101128e-02
   7.20282272e-02  7.57583752e-02 -4.98500168e-02 -3.35102938e-02
   2.14370862e-02 -2.22606957e-03 -4.66561429e-02  5.19321188e-02
  -1.54434666e-02 -8.92338902e-03 -7.25039095e-03  6.65278509e-02
   1.57773271e-02  6.40935078e-02  7.46265724e-02  6.14173338e-02
   6.98901489e-02 -7.88322091e-03 -2.37785876e-02 -6.86096027e-02
  -5.42780459e-02  4.10325080e-02 -5.18856272e-02 -1.23708099e-02
  -8.01265836e-02  5.48933670e-02  7.28139356e-02 -7.47363195e-02
  -6.67887628e-02  5.54724112e-02 -5.14527783e-02 -5.51777966e-02]
 [ 6.90496191e-02 -1.15083158e-02 -7.92639405e-02  4.55699340e-02
   7.33446255e-02  2.10914686e-02 -4.56369743e-02 -1.63284838e-02
  -5.54188304e-02 -5.66047430e-03  6.36287555e-02  7.98208788e-02
   1.20052770e-02 -4.52431291e-03 -1.50806233e-02  8.01294297e-03
   2.11668536e-02  1.26816109e-02 -2.97739431e-02 -6.28418773e-02
  -2.12985091e-02 -5.43394685e-03 -2.43684612e-02 -2.00340338e-02
  -4.49518859e-03 -4.33581695e-02 -4.31690216e-02  5.54629937e-02
  -1.70744061e-02 -4.81630117e-03 -2.61010565e-02  7.07048252e-02
  -2.31171772e-02 -5.29855713e-02 -2.94698030e-03  1.96815729e-02
  -2.35376507e-02  5.80890402e-02  7.38373622e-02  6.06134459e-02
  -7.79748112e-02 -6.21006936e-02  2.11601406e-02  5.26889935e-02
   3.81626263e-02 -7.59702995e-02  3.92287076e-02  5.26071414e-02
  -6.66716322e-02  1.69615448e-02  4.29653674e-02  4.86718640e-02
   1.82253420e-02 -4.91909683e-02 -4.04201038e-02 -7.17762858e-02
  -7.50921816e-02  1.46073177e-02 -5.83907589e-02  3.47510576e-02
  -7.49879107e-02  3.09089497e-02 -5.16083091e-03 -2.51204707e-02
  -1.97462998e-02  1.83694288e-02  7.00096563e-02 -7.66603053e-02
  -6.69277906e-02  6.44439235e-02  4.99560311e-02  3.73163223e-02
   5.95201775e-02 -6.39528185e-02  6.30451068e-02 -6.62389770e-02
  -4.46129926e-02  6.15112260e-02  3.15810293e-02 -4.54430133e-02
  -2.87356675e-02 -4.49511409e-03  1.26771256e-02  1.76254287e-02
   2.23340541e-02  5.44514284e-02 -2.23265700e-02 -5.31999543e-02
   2.37220377e-02  1.82408318e-02 -2.41899490e-02 -1.47165209e-02
  -2.45672204e-02  2.05251873e-02 -6.23261407e-02  7.88219795e-02
   3.57128084e-02  4.34634089e-02  4.70382497e-02 -5.16533703e-02
   5.62462136e-02 -2.90921144e-02 -3.71169671e-02  2.29871050e-02
   6.03324398e-02 -2.04661079e-02  1.90154091e-02  7.85718635e-02
   1.36369020e-02 -2.00912766e-02  3.12908962e-02  5.30838594e-02
  -2.04835720e-02  6.75948188e-02  2.81061903e-02 -5.61633334e-02
  -7.00136200e-02  1.59577504e-02  4.14168760e-02  3.52736190e-02
  -7.45108724e-03 -3.06827575e-03  4.75221500e-02 -1.13717914e-02
  -3.96329351e-02 -4.19812649e-02 -2.58722678e-02  7.66973272e-02]
 [ 4.03403863e-02  6.79695085e-02  7.85133243e-03 -6.27892911e-02
  -4.25810814e-02 -6.05187044e-02  5.94983473e-02  6.75091222e-02
  -4.06591445e-02  7.13635162e-02  7.45359585e-02  1.46435797e-02
   5.32923862e-02  5.89156225e-02 -7.72191435e-02  6.30659834e-02
   5.64099774e-02 -7.67388195e-03  6.11039624e-02 -3.36066596e-02
  -5.67302555e-02 -7.74457157e-02 -1.39176995e-02  8.34532827e-03
   1.70940161e-02 -2.05313563e-02 -5.80029190e-03  7.39736333e-02
   3.64090279e-02 -4.85247448e-02 -4.12705615e-02 -6.95545450e-02
  -4.27365303e-05  5.77328131e-02  3.45220342e-02 -2.90878192e-02
  -2.27344781e-03  6.75961599e-02 -1.61846504e-02  6.98471144e-02
  -5.29392362e-02  2.74248794e-02 -1.42588243e-02  4.69524190e-02
   7.77908489e-02 -7.64814094e-02 -7.25509971e-02  4.37399298e-02
  -6.82405084e-02 -2.63105482e-02  7.29501024e-02  2.46202648e-02
   2.49367356e-02 -7.51461089e-03 -4.50518169e-02 -6.46038353e-03
  -7.60507062e-02 -7.84210190e-02  4.53999639e-03 -6.85743093e-02
  -1.65958405e-02 -4.26180363e-02  3.34330574e-02 -4.11568321e-02
   1.72516033e-02  1.24745592e-02 -6.38334081e-02  6.63874671e-02
   6.40338734e-02 -4.61537391e-03  5.84046617e-02 -4.44166921e-02
   1.41715482e-02  6.98231384e-02  1.75945461e-03 -2.17891596e-02
  -2.91018412e-02  7.27313831e-02 -5.21358028e-02 -3.31470259e-02
   2.35483274e-02  2.74454951e-02  4.10148129e-02  3.73185501e-02
   1.47154927e-03 -9.59441066e-03  6.21074215e-02 -4.70730960e-02
  -5.52513413e-02  6.61640838e-02  2.07845122e-02 -3.32483202e-02
   1.28894970e-02 -4.25274931e-02  1.54012740e-02 -3.65855508e-02
   5.99894300e-02 -3.24724652e-02 -1.71424001e-02 -8.08145255e-02
  -2.36920863e-02  5.20114377e-02 -1.52732730e-02 -8.09081942e-02
   3.26494873e-02  5.69617376e-02 -5.23123890e-03  5.11439964e-02
  -1.30521134e-02  7.25291446e-02 -2.41722576e-02  6.23573139e-02
   2.65417397e-02 -1.07985288e-02  4.07887101e-02 -3.71624120e-02
   5.26682660e-02 -5.07158786e-03 -2.88431905e-02 -2.57184096e-02
  -7.35429153e-02 -1.43329874e-02  7.10582808e-02 -7.53886625e-02
   3.02217230e-02  7.88662508e-02 -1.54799968e-02  4.74476740e-02]
 [ 7.45481625e-02  6.99679628e-02  6.10199496e-02  1.53882802e-02
  -1.80605799e-02 -1.74801201e-02 -5.15714549e-02  4.38133180e-02
   4.75525483e-02 -7.46940449e-02  5.16355857e-02 -1.56473368e-02
  -7.52265304e-02  7.89050534e-02 -6.33821115e-02  6.30487874e-02
  -4.69845831e-02  7.43075684e-02  3.04481536e-02 -6.21618815e-02
  -1.35402530e-02  4.31666598e-02 -7.15861917e-02 -3.20131034e-02
   1.50964633e-02 -1.45828798e-02  5.67608550e-02  5.47028705e-02
  -6.74668625e-02  1.13780349e-02  2.33675539e-02 -6.49671331e-02
   5.75687662e-02 -5.68183437e-02 -6.54139072e-02 -1.20946541e-02
  -8.04723874e-02 -5.11352420e-02  4.82494906e-02  5.23638353e-02
  -4.12323326e-03  4.48406860e-02  1.76206157e-02 -8.74553621e-03
   2.72193700e-02  7.32725635e-02  6.40930310e-02  5.14504686e-02
   4.68755290e-02 -1.11948475e-02  7.38756582e-02 -6.28208742e-02
   3.95010859e-02 -5.28606437e-02 -4.00841758e-02  3.49581242e-04
  -5.16653806e-03 -2.31731050e-02  4.60933074e-02  6.94497451e-02
  -6.52712137e-02  5.76834753e-02  3.61038521e-02  4.84385118e-02
   7.70717338e-02  1.60618275e-02  5.62201962e-02 -5.59579208e-02
   7.97361061e-02  4.09832746e-02 -1.93696842e-02  1.02174133e-02
   4.50889245e-02  2.96873450e-02 -3.80419753e-02  6.25212416e-02
  -9.96674597e-03  8.26869160e-03 -7.16682002e-02 -4.59459051e-02
  -8.34615529e-03  6.16902635e-02  1.09863952e-02 -5.95882051e-02
  -5.27909286e-02  4.81142178e-02  3.39327380e-02 -2.70328932e-02
   5.02112135e-02 -5.02545387e-02 -5.46816140e-02 -2.51473896e-02
  -1.57549679e-02  8.06183144e-02  6.11934587e-02 -7.03031346e-02
   5.66994473e-02 -2.45626383e-02  7.96002969e-02 -3.60885262e-03
  -5.51187992e-03 -6.97239712e-02 -4.30954024e-02 -6.86858520e-02
   2.55103707e-02  6.91840425e-02  7.70654902e-02  7.51915202e-02
  -6.02371991e-04 -6.50098696e-02 -2.58684568e-02 -3.40539329e-02
  -1.31813511e-02 -9.73130018e-03  5.89211956e-02 -3.72344665e-02
  -1.24583319e-02 -4.50595357e-02 -1.60396323e-02 -4.68604118e-02
   3.41925472e-02  2.92606875e-02 -7.41546229e-02  4.65205088e-02
   4.13600206e-02  5.57629988e-02  4.09063846e-02  3.55126709e-03]
 [ 6.34145215e-02  1.60232484e-02  5.70989177e-02  9.39764082e-03
   4.46543917e-02  1.84109733e-02  8.67345929e-03 -5.93355522e-02
   4.01413962e-02  5.89556992e-03  2.01830938e-02 -6.38124272e-02
  -1.29709393e-03 -3.48291658e-02 -8.97927582e-03 -1.49808750e-02
   6.39755279e-03  2.71086767e-02  4.62912098e-02  1.29561126e-03
   3.03729624e-02 -1.90696865e-03 -5.76419011e-02 -1.22753307e-02
   5.90766147e-02 -2.77698971e-02  4.36420739e-02  6.10314310e-04
   7.69160315e-02  4.62038741e-02 -4.21851277e-02 -5.02252392e-02
   4.52054963e-02  1.07797459e-02 -7.96289667e-02  7.22350404e-02
   8.74932110e-03  1.10623017e-02 -7.71906450e-02 -6.27969727e-02
   5.18626198e-02 -1.25627816e-02 -2.47389860e-02 -7.65504241e-02
  -6.24926463e-02  3.37507576e-03  4.71971110e-02  5.60343266e-04
   3.58181447e-02  2.32397988e-02 -7.63233155e-02 -6.07526824e-02
   6.79645464e-02  4.88011539e-03  7.97004029e-02  7.23497793e-02
   2.22239196e-02  4.24116105e-03  4.15350869e-02  8.66154581e-03
  -2.02360228e-02  7.10413679e-02  7.96135888e-02  1.68231875e-03
   2.54412368e-02 -3.11702266e-02  9.60459560e-03  7.29408637e-02
   6.22274354e-02 -1.96573623e-02 -1.66191161e-03 -3.05093378e-02
  -7.82494694e-02 -1.67394653e-02 -2.36288495e-02 -2.43076421e-02
   2.89300159e-02  1.08298957e-02 -5.23204878e-02 -6.37469441e-03
  -7.04797879e-02 -1.55717880e-03  6.17656186e-02  5.00421301e-02
  -5.56275994e-03  3.18942294e-02  7.99106881e-02 -7.71364197e-02
   5.13134152e-03 -4.44774888e-02 -7.78944045e-02  4.42577228e-02
  -2.81988382e-02  6.23752847e-02 -4.68034633e-02  3.23750600e-02
  -6.98156506e-02  1.47306770e-02  1.81945339e-02  4.81928959e-02
   2.33856738e-02 -2.23714150e-02 -7.16590956e-02  1.23086944e-02
   7.45625421e-02  1.51936784e-02  6.66229352e-02 -5.55863567e-02
  -4.11027446e-02 -3.43547799e-02  4.06772420e-02 -4.18863334e-02
   3.75428721e-02  1.79660320e-03  7.96502158e-02 -6.53353781e-02
  -7.33396932e-02  2.34496444e-02 -5.76461181e-02  2.12883726e-02
   1.53668225e-03  2.37809643e-02  7.33572990e-03  5.33628240e-02
  -2.29445100e-03 -1.97489671e-02 -5.90829328e-02 -7.78012723e-03]
 [ 2.32009888e-02 -1.68307573e-02  2.37094313e-02  2.66467109e-02
   6.79791197e-02 -1.21733248e-02  1.77085251e-02  4.30226102e-02
  -3.55251320e-02 -2.67011262e-02 -7.89277405e-02 -6.09402359e-03
  -6.14185557e-02 -4.98389937e-02 -6.56254590e-03 -2.23229937e-02
  -2.36076154e-02 -3.59236188e-02  4.22764421e-02  7.94146284e-02
   6.49025068e-02  7.05280975e-02 -6.61561638e-03 -1.99487507e-02
   6.39806315e-02 -8.09224322e-02 -8.68266821e-03 -3.76246944e-02
  -2.22795978e-02 -7.13333488e-03  5.21980971e-03  5.48856780e-02
   8.00319538e-02 -3.32975537e-02  4.27080169e-02  7.63834640e-02
  -3.95431891e-02  2.42111087e-02 -2.25862078e-02  4.49201837e-02
  -3.14793289e-02  2.70141363e-02 -2.19152458e-02  1.91273764e-02
   4.04256508e-02 -5.46050146e-02  3.64785343e-02 -1.11780763e-02
  -2.17077620e-02 -1.11168176e-02  3.06694433e-02  4.07974422e-03
  -7.28854313e-02  2.14263946e-02  3.64105403e-03 -9.56913084e-03
  -1.11394227e-02 -6.45123944e-02 -6.35056794e-02  6.78894445e-02
   5.39203212e-02 -6.58436120e-03 -5.75122759e-02  3.58860269e-02
   5.76124117e-02 -3.61693650e-03  5.95066324e-02  1.29711628e-02
  -7.79554099e-02 -5.85551932e-02  1.24517083e-03 -4.12002094e-02
  -8.65522027e-03 -8.32554698e-03  4.68158722e-03 -1.38354897e-02
  -4.49813493e-02  7.88698420e-02  1.98971778e-02  7.26961121e-02
  -6.52093068e-02 -6.30713403e-02 -8.05499777e-02  5.31738326e-02
  -3.50157246e-02 -8.08357596e-02  3.01860198e-02  5.45959249e-02
   3.53441834e-02  1.77832842e-02 -6.53625652e-02  1.86423734e-02
  -4.33565080e-02  1.19463727e-02 -1.56787559e-02 -3.52690928e-02
   3.70524749e-02 -2.03091800e-02 -7.19611347e-03 -5.73800206e-02
  -2.36313455e-02  6.54710084e-03  2.44276971e-02  2.51512975e-02
   3.74759063e-02 -7.96218887e-02  5.85557148e-02  5.64071909e-02
  -7.17776194e-02  3.96616161e-02 -2.26810612e-02 -4.72515300e-02
  -2.90602446e-02 -3.67872864e-02 -1.26359761e-02  7.88208768e-02
   6.76160529e-02 -6.65440410e-03  6.08066097e-02  7.65909031e-02
  -9.58241522e-03  1.70751661e-03  1.28639117e-02 -7.43890405e-02
  -9.66010243e-03  4.37702984e-03 -2.89966390e-02 -7.89718553e-02]
 [ 6.01851717e-02  2.20220909e-02 -4.29209694e-02  4.30408865e-02
  -2.46679336e-02 -1.79734603e-02  2.79255658e-02 -7.17767328e-02
   7.59435967e-02 -6.98251650e-02 -1.90056860e-04  6.21264428e-03
   3.37055326e-02  5.23749664e-02 -8.53215158e-03  6.92789033e-02
   2.84725726e-02  3.60639170e-02  6.38989359e-03  5.50667420e-02
  -3.57542746e-02 -2.03668661e-02  7.42004141e-02  3.94141451e-02
  -5.29892035e-02  5.31091467e-02  7.52242580e-02 -7.50443041e-02
   4.97851148e-02 -5.53527102e-02  1.06316730e-02 -6.67521209e-02
  -7.96203613e-02 -2.30170265e-02 -3.39596421e-02  3.65741625e-02
   8.78001004e-03 -2.24026479e-02 -7.79039413e-03  5.04151210e-02
   7.85300508e-02  3.27730179e-03  5.08538857e-02 -2.65602022e-03
  -4.73343171e-02  6.55667409e-02 -1.90379582e-02 -2.14275122e-02
  -6.36380687e-02 -1.61211789e-02 -8.35838169e-03 -5.48172742e-02
   4.56788763e-02  2.22223923e-02  3.80149037e-02  4.86425683e-02
   8.45576823e-03 -5.89002818e-02 -5.07586077e-02 -1.27748400e-02
   2.54159048e-02 -3.69984992e-02 -1.79770216e-02  5.06498143e-02
   7.60047659e-02 -2.80611478e-02 -1.23312250e-02 -3.66034769e-02
   7.50001296e-02 -2.77881511e-02  2.15752795e-02  5.33386990e-02
   2.62901932e-03  5.80445901e-02 -5.00702411e-02 -7.08249211e-02
  -5.11176810e-02  4.91981879e-02 -5.45432121e-02 -6.75953180e-03
   3.22276652e-02  2.03423649e-02 -5.14754802e-02 -3.95546742e-02
   4.70762625e-02 -2.23117173e-02 -7.86523819e-02  4.38908264e-02
   6.99444190e-02 -7.10905716e-02  1.05802342e-02  6.49107024e-02
   3.09844837e-02  5.57494983e-02  2.50046924e-02 -3.01302113e-02
  -5.21606952e-02 -3.84967923e-02 -2.78232098e-02  4.94369864e-03
   1.29391775e-02  4.27140519e-02  4.44696918e-02  7.03921840e-02
  -3.71438079e-02 -8.64822417e-03  4.18057665e-02  4.38928977e-02
   5.19032851e-02 -1.75686106e-02 -6.56374767e-02  6.43198267e-02
   1.58268511e-02  1.51541904e-02 -6.36665523e-02 -8.20425153e-03
   1.51716098e-02 -1.70541555e-02 -7.00004846e-02  5.00383899e-02
   2.23133788e-02 -4.79294136e-02 -5.14885932e-02 -5.26608601e-02
  -7.17851818e-02  3.80549878e-02  1.22463480e-02  6.93729743e-02]
 [ 6.25337437e-02 -2.55009308e-02  5.41293845e-02 -6.54247552e-02
   1.35091767e-02  3.33468691e-02  2.45692730e-02  2.28670537e-02
   1.35212839e-02  2.48518586e-02 -4.70449775e-02 -5.43224663e-02
   6.89082667e-02 -7.66168758e-02 -8.31461698e-03 -6.28322214e-02
  -5.50448820e-02  5.23853078e-02 -6.39349222e-03  6.05860874e-02
   7.02271834e-02 -5.16844466e-02  7.18452260e-02 -1.30938441e-02
   5.40749654e-02 -2.83591524e-02 -4.98256907e-02 -1.16753057e-02
   5.32091185e-02  4.02718931e-02  6.89430907e-02 -6.29854202e-02
  -5.24843186e-02 -6.17892742e-02  7.50749484e-02 -1.25846863e-02
  -9.40643996e-03  2.53842846e-02  6.65464178e-02 -6.48534819e-02
   4.07901183e-02  8.17306340e-03 -7.29541630e-02  5.71957231e-03
   8.39906931e-03 -4.68912981e-02 -1.09577999e-02  4.70765904e-02
   1.03911236e-02  5.73431775e-02 -3.29589210e-02 -4.48660143e-02
   6.87041208e-02  5.35175875e-02  7.08888248e-02 -9.66348499e-03
   7.50990734e-02 -7.20194727e-03 -7.66240060e-04  6.38805106e-02
  -3.97058427e-02  5.21921590e-02  7.19349012e-02 -4.81794998e-02
  -3.37270983e-02  1.43731311e-02 -2.64391303e-02 -4.54994999e-02
  -4.98428829e-02  1.32255778e-02  6.36928901e-02 -7.73232654e-02
   2.47415751e-02 -6.34600222e-02 -1.40886307e-02  1.03776678e-02
   2.25238800e-02  6.85554072e-02 -6.35752082e-03  6.10974208e-02
  -6.98193088e-02 -2.11145617e-02  2.91501656e-02 -4.75369841e-02
   3.29102501e-02  4.03577760e-02  3.15056890e-02  1.91534236e-02
  -2.72357538e-02 -7.18463510e-02  7.00484142e-02 -5.32536358e-02
   4.42858115e-02 -1.61597580e-02 -6.32582456e-02  3.06776986e-02
   6.75935969e-02  4.96408865e-02  6.81064203e-02 -7.19261393e-02
   1.22743100e-02  5.09401336e-02 -3.77678163e-02 -1.66298002e-02
   6.01334050e-02  8.58618319e-03 -3.66085768e-03 -4.46410328e-02
  -4.79079299e-02  5.06040230e-02  1.61252022e-02  7.24330768e-02
   6.98594525e-02  6.97383955e-02 -1.58234686e-02  1.10137463e-03
   5.32570407e-02  7.07597062e-02  3.89145166e-02  3.17244232e-02
   1.22178420e-02  6.67260513e-02 -8.08208883e-02 -3.48598175e-02
   2.20592991e-02 -4.95881960e-02  2.36861408e-03 -2.91389897e-02]
 [ 1.76976770e-02  2.21640095e-02  3.08945999e-02 -2.11015083e-02
   9.75538045e-03 -7.37879872e-02  6.04210719e-02 -4.68877591e-02
   3.06813344e-02  1.47773251e-02 -2.50377804e-02 -7.21717179e-02
   5.44420108e-02  3.03011239e-02 -8.04344267e-02 -7.06531331e-02
  -6.21196106e-02  1.25644803e-02  6.15316853e-02 -4.85815108e-03
   7.03646913e-02  5.83412573e-02  7.43700489e-02 -6.82882741e-02
  -7.15576112e-02 -2.78314315e-02 -1.63455009e-02  4.91970554e-02
   2.48751640e-02 -3.27689201e-03 -1.78541243e-02  7.06201792e-03
  -4.45648991e-02  3.69727015e-02 -5.34456670e-02 -2.04816386e-02
  -1.14724785e-03  2.96654329e-02 -2.38439105e-02 -2.20174082e-02
  -2.78671086e-02 -4.82285991e-02  2.10870206e-02 -2.88357064e-02
  -5.82219735e-02 -7.58475587e-02  5.82269058e-02 -2.04067677e-03
   4.14183810e-02 -4.68070023e-02  3.14759836e-02  3.99600640e-02
   4.94183078e-02  3.22417393e-02  7.97741488e-02  2.90734693e-02
  -3.37458365e-02 -3.62767763e-02 -5.87926880e-02  4.67295721e-02
   3.65228951e-02  4.45708707e-02 -6.42199218e-02  1.98112354e-02
   2.78216228e-02 -4.47855890e-03  6.75432384e-04 -8.22649151e-03
  -2.55988054e-02  5.14678285e-02 -2.23474950e-02  7.50347152e-02
   5.17596677e-02  3.86071950e-02  2.70599872e-02 -3.68233733e-02
   5.18352911e-02 -3.28798294e-02 -5.85275367e-02  7.52242655e-03
  -1.46474093e-02 -2.39202380e-02  2.29235217e-02 -5.43220192e-02
   7.47528002e-02  3.14432830e-02  6.31229058e-02  4.91069779e-02
   3.04427594e-02  4.70981970e-02 -7.29595199e-02  1.15166530e-02
   6.47545531e-02  5.61101958e-02 -4.60872501e-02 -3.18749137e-02
   3.18228528e-02 -5.38548231e-02  7.47526661e-02  5.47706410e-02
   1.89863220e-02 -5.35759665e-02 -4.54456247e-02 -7.07655698e-02
   1.41928419e-02  3.84840891e-02 -6.52304292e-03 -1.57175511e-02
   6.51165023e-02  2.42082253e-02  2.12791711e-02 -5.67808673e-02
  -5.45916148e-02 -5.05749136e-02  6.87335059e-02 -1.52231082e-02
   5.24210110e-02 -2.05155760e-02 -4.53267694e-02 -7.09469989e-02
  -1.50706246e-02 -3.05164754e-02 -6.30578995e-02 -7.76013508e-02
  -7.79049993e-02 -6.79094791e-02 -5.15742004e-02 -3.24241035e-02]
 [-1.25324726e-02 -2.65394561e-02 -2.25303955e-02 -5.64559251e-02
  -8.07940811e-02  5.91536090e-02 -6.93057626e-02  5.06376103e-02
  -2.71259509e-02  2.01836154e-02  4.02126238e-02  1.00723356e-02
  -7.73791671e-02 -6.34742156e-02  5.08004352e-02 -7.30149820e-02
   3.94423380e-02  6.20177165e-02  2.93428153e-02 -5.88588417e-03
  -1.06732920e-02  5.87058589e-02  3.87594253e-02  5.02542332e-02
   2.97681019e-02  2.23189294e-02  6.40473887e-02 -6.40394539e-02
  -5.60917631e-02  2.71817222e-02  3.30900177e-02  6.87958226e-02
   2.41419151e-02  3.92656997e-02 -8.03714022e-02  4.78811786e-02
   2.42825821e-02  7.95871764e-03  2.39679888e-02  7.37160072e-02
   3.15899253e-02 -1.14105418e-02 -2.50688195e-02  4.98478785e-02
  -5.65677881e-03  5.88800237e-02  3.11243534e-02  7.28350952e-02
  -8.05393755e-02  7.29770586e-02  6.47481605e-02 -7.74972141e-02
   2.66912207e-02 -5.41326031e-02  4.58899811e-02 -2.17335597e-02
   6.45984486e-02  3.48983184e-02  6.87739179e-02  7.40514770e-02
  -3.67821231e-02 -1.13227516e-02 -2.66474634e-02 -1.50223225e-02
   4.40126881e-02  2.01557651e-02  7.23941997e-02 -1.30451173e-02
  -3.94595303e-02  9.90830362e-03 -7.43255764e-03 -2.71346122e-02
  -3.43499631e-02  2.45990157e-02 -1.58174559e-02 -6.21917211e-02
  -3.96524295e-02  1.45364627e-02 -1.66560188e-02 -3.57648134e-02
  -7.46491253e-02  1.96761042e-02 -1.55879259e-02  5.50662801e-02
   5.69584891e-02 -4.96771932e-03  4.13877144e-02  2.01282650e-03
  -6.61088303e-02 -7.88097829e-03 -9.51723009e-03 -1.64807737e-02
  -1.56604052e-02  7.50245079e-02 -6.14081137e-02 -4.15097587e-02
  -4.13306467e-02 -4.43118401e-02 -7.99698830e-02 -3.09643522e-02
  -4.12451886e-02 -2.10020691e-02  4.02178243e-02  3.29129547e-02
  -5.93340248e-02 -1.28318518e-02  8.06264654e-02 -7.30680674e-02
   6.45647869e-02  4.05135825e-02  4.65898886e-02 -6.68509752e-02
  -5.00766262e-02 -7.88108259e-02 -7.67510384e-03 -3.39855738e-02
   8.01814273e-02  4.75690290e-02  3.31680477e-02 -7.49108866e-02
   3.57851163e-02  5.84395975e-03  7.82385245e-02  1.73930973e-02
  -7.42558241e-02 -7.05865771e-02  1.85369402e-02 -3.63629833e-02]
 [ 5.55183068e-02 -3.29011194e-02  5.52440956e-02 -4.61275131e-02
   4.00392562e-02 -6.77108541e-02  2.61343196e-02 -1.12001449e-02
  -2.09492780e-02  6.99941441e-02  3.48586217e-02 -5.38745522e-03
   8.88753682e-03 -1.34322494e-02  4.83409539e-02  1.83989629e-02
  -1.54449418e-02 -7.04432279e-03 -7.29612187e-02  6.07278571e-02
  -3.88778746e-04 -5.01229018e-02 -2.55065411e-02  4.92274091e-02
  -4.76235785e-02 -4.06279303e-02  3.51514593e-02  4.22969609e-02
   6.31235167e-02  2.21482143e-02  1.21985227e-02  7.76642188e-02
  -3.45363282e-02  4.06176075e-02 -5.92570007e-02  4.73286137e-02
  -6.57813177e-02 -8.06504190e-02  7.74334371e-03  4.75563854e-03
   7.27465227e-02 -6.22225478e-02  1.92995667e-02 -3.13857123e-02
  -7.56648481e-02  6.93059787e-02 -4.15052325e-02  4.41373810e-02
   2.11235508e-02  2.10721940e-02  5.34583554e-02  7.44457617e-02
  -2.68824622e-02  1.77027807e-02  4.30097133e-02 -2.58804485e-02
   6.18991479e-02  5.02127483e-02  4.72597256e-02 -5.51009253e-02
   6.71449378e-02 -2.99953260e-02  6.37112334e-02  1.69826224e-02
  -1.44102797e-02 -3.97725776e-02  2.62076482e-02 -3.80631872e-02
  -1.18480548e-02 -7.85326213e-02 -1.85557008e-02  7.59345666e-02
   6.11084923e-02 -7.82634318e-03  6.88306615e-02 -3.69794890e-02
  -7.92584494e-02  6.36554882e-02  1.82151496e-02 -3.23897973e-02
  -4.17643264e-02 -8.46327096e-03  1.58907101e-02 -1.14647299e-02
  -6.14952147e-02 -7.54431635e-03  3.62227634e-02  3.44293565e-03
  -6.66156411e-03 -3.76801156e-02 -1.84929669e-02  6.92546368e-04
  -4.38631326e-03  7.52107427e-02  4.44647595e-02  4.27038968e-02
  -2.16971487e-02 -2.48174220e-02 -6.24771714e-02  7.78641328e-02
  -5.26718237e-02 -1.14321485e-02  5.41629866e-02 -6.62587583e-04
   2.37828791e-02 -5.90321496e-02 -2.10193209e-02  7.40891621e-02
   7.94961974e-02 -3.48749012e-02  5.90296909e-02  7.96041265e-02
   4.13221568e-02 -2.51560658e-03 -6.01752996e-02  7.58686438e-02
   5.59255555e-02  5.51977530e-02 -6.18721172e-02  7.46719763e-02
  -2.41335779e-02 -1.91437751e-02  2.11281776e-02 -6.85590655e-02
   7.43013993e-02 -6.91766143e-02 -5.95583282e-02 -4.00938652e-02]
 [-4.94347811e-02  3.86389531e-02  5.17744683e-02  6.34616166e-02
   2.20106896e-02  7.99640119e-02 -6.16431143e-03  3.79564017e-02
  -5.80529720e-02 -7.23460168e-02  7.40392879e-02  4.87450548e-02
  -5.86088374e-02  7.93062672e-02 -1.46695338e-02 -3.39793861e-02
   1.30044948e-02  1.47219971e-02 -4.92192619e-02 -5.74543774e-02
   3.35655063e-02 -2.94232070e-02  5.07477671e-03  6.31032661e-02
   6.38110116e-02  2.08514594e-02  1.15631232e-02  5.35479859e-02
   7.35473931e-02 -8.58013984e-03 -6.96084425e-02  4.50703427e-02
  -2.49734763e-02  5.63792065e-02 -7.30138570e-02 -7.83139020e-02
   1.82996262e-02 -1.83124542e-02 -4.67634946e-03  6.02733307e-02
  -4.75446228e-03 -1.89161897e-02 -7.04382826e-03 -7.88399950e-02
   5.19316718e-02  4.66214940e-02  1.26131242e-02  2.78726965e-03
  -4.37585898e-02 -9.70394630e-03  6.36680424e-03  2.06240024e-02
  -7.11255670e-02 -5.09640947e-02  5.57132773e-02 -9.86054912e-03
  -2.28857771e-02 -3.31400633e-02 -3.17658074e-02 -3.67300026e-02
  -8.14456716e-02  5.42107448e-02  4.46543172e-02 -4.70410511e-02
   7.75917992e-02 -5.68197668e-03 -8.14467669e-03 -5.15726097e-02
   1.38439871e-02 -3.33796442e-02 -5.97835109e-02  1.01421252e-02
  -7.68681243e-02 -2.98704021e-02  9.08020139e-03 -3.66071537e-02
   1.56077743e-03 -5.42366020e-02 -5.61810285e-03  2.07189173e-02
  -5.41108623e-02  3.18769999e-02 -6.83597475e-03  7.90869519e-02
  -8.25025514e-02  8.07339922e-02  1.17252916e-02  4.57494929e-02
   5.09692058e-02 -3.26752886e-02  8.07238519e-02 -2.24256516e-03
  -6.77872822e-02  2.77839750e-02  4.93640564e-02  5.42097464e-02
  -2.58681662e-02 -1.39817260e-02  7.43963048e-02  4.58946228e-02
   4.95648906e-02  1.17533728e-02  3.96398231e-02  5.92392311e-02
  -2.67856345e-02  5.12802526e-02  5.40097132e-02  2.56130248e-02
  -7.14706555e-02 -2.86096819e-02  4.21005525e-02  5.72809502e-02
   1.91549137e-02  5.34628034e-02 -5.26035577e-02 -5.16499691e-02
   4.38804030e-02  8.78757890e-03  6.17591217e-02  6.42305836e-02
  -7.65116662e-02  5.22197299e-02  6.73409849e-02 -6.07494339e-02
  -7.45672360e-02 -2.46712044e-02 -6.62652478e-02  7.30078891e-02]
 [ 5.73414974e-02  7.54622594e-02  5.63892350e-02  7.45622367e-02
   4.27013077e-02  8.07817951e-02  1.04825526e-01  4.47882898e-02
   2.32546106e-02 -3.74090187e-02 -4.42486294e-02 -6.96948767e-02
   4.87031881e-03 -7.22584687e-03  6.90048933e-02 -2.02425793e-02
  -7.23405182e-02 -2.57997029e-02 -8.94380733e-03  6.10675886e-02
   3.04674506e-02  8.69677588e-02 -2.24774666e-02 -6.26645237e-02
  -5.85569926e-02 -5.88760674e-02 -5.66078871e-02  7.94484988e-02
  -4.00181711e-02 -4.07300033e-02  6.50003925e-02  6.34649917e-02
   2.27722470e-02  3.56537849e-02 -1.01648271e-02  4.92710527e-03
   4.80665341e-02  7.49170259e-02  6.73258230e-02  8.07954371e-02
   2.38286443e-02 -6.44467399e-02 -3.09697334e-02 -5.42510347e-03
   5.32707374e-04 -8.12132955e-02 -2.33344026e-02 -1.55417593e-02
  -1.18708760e-02  3.90838832e-02  9.48639959e-03  5.82824051e-02
   9.92249548e-02  7.32739940e-02 -2.77868559e-04  5.64069003e-02
   2.94142663e-02 -5.17254844e-02 -5.56929670e-02  5.08017950e-02
  -4.74840477e-02 -4.78149205e-02  6.61572367e-02  5.11302724e-02
   1.98566020e-02  7.80761242e-04 -4.84191813e-02  3.02680209e-02
  -4.22462709e-02  1.23743042e-02  7.01490939e-02 -7.01254308e-02
  -7.07581639e-02  3.55550349e-02 -5.26652820e-02  6.34013414e-02
   7.76901320e-02  6.61172951e-03  6.24794886e-02 -8.73529240e-02
  -8.94062072e-02  5.68520427e-02  2.28439048e-02  1.21903643e-02
   1.20730354e-02 -7.61353299e-02 -4.93652634e-02  5.39989397e-02
   9.91074368e-02 -1.00705549e-02  7.06056282e-02  1.04384124e-03
   9.71875638e-02 -4.42532040e-02  9.17762667e-02 -3.65416110e-02
  -3.18004861e-02  4.57170010e-02 -3.92532386e-02  6.45083040e-02
  -3.19240130e-02 -1.20176282e-02 -3.34067568e-02  4.90031913e-02
   2.87017897e-02 -8.31636786e-02 -5.09680994e-02  8.57393146e-02
  -3.31640989e-02  6.04961142e-02 -2.63224021e-02  6.09541237e-02
   4.02676202e-02 -1.07050166e-02 -9.05819330e-03  1.39567629e-02
  -3.95384543e-02 -5.45089170e-02  1.43858185e-02 -7.36858472e-02
   4.92853187e-02  4.98700961e-02  5.84086031e-02  6.19805828e-02
   3.13397534e-02 -1.02278581e-02 -4.74308012e-03  8.91634449e-03]
 [-2.57456042e-02  9.17228758e-02  1.66536588e-02  1.39075473e-01
   7.85682350e-03 -5.30195646e-02  7.87433982e-02 -4.68425751e-02
   9.33914334e-02  2.98457239e-02 -4.00982723e-02 -1.26326546e-01
  -4.67969589e-02  1.04588255e-01  6.16523586e-02  1.43168867e-03
  -6.25945181e-02 -9.23836417e-03  3.16900834e-02 -2.78429538e-02
  -1.83781534e-02  1.19334660e-01 -1.51571855e-02  7.36794695e-02
  -5.47599681e-02 -1.95011310e-02  1.29562691e-01  1.29871592e-02
   7.15743750e-02  5.19375987e-02  2.01761350e-02  7.41102472e-02
  -1.54853789e-02 -1.96821004e-01  3.33798379e-02 -5.11734337e-02
   1.65057614e-01  1.46580338e-01 -7.35070035e-02  2.61758771e-02
   1.85183048e-01  1.80475675e-02  3.36125344e-02  3.24714780e-02
   9.65077654e-02 -6.75466955e-02 -5.67494109e-02 -9.86227170e-02
   7.14735463e-02 -5.80572449e-02  1.76462382e-02  6.08542413e-02
   1.12422973e-01  4.41376343e-02 -4.67217900e-02  6.53262064e-02
   2.36554798e-02  1.99168660e-02  3.23808827e-02 -2.69140601e-02
  -4.46621366e-02 -1.60959274e-01  9.14782956e-02  8.45216960e-03
  -6.82365820e-02  6.56148121e-02  1.08896844e-01 -6.31773919e-02
  -5.32695763e-02 -1.07204169e-03 -9.36238468e-03  7.50510767e-02
  -1.01914696e-01 -8.89684260e-03 -3.12126111e-02 -7.25163426e-03
  -2.41428316e-02  1.99645504e-01  6.54847845e-02 -1.83489501e-01
  -1.68403551e-01 -3.59713435e-02 -7.88129270e-02 -1.00537375e-01
   1.20350510e-01  3.13971192e-03 -8.24150443e-02  5.99851832e-02
   1.62724778e-01 -2.45436858e-02  8.01608041e-02 -7.18408376e-02
   4.41470072e-02 -3.76060121e-02  1.24748513e-01 -2.36249100e-02
   1.15954019e-01  2.15706285e-02  1.19015910e-01 -6.25980422e-02
   2.33904868e-02  1.50787190e-01  7.86490291e-02 -7.09062368e-02
   5.54126455e-03 -5.25276512e-02  1.86954632e-01  1.22993909e-01
   5.17150201e-02  5.32509461e-02  1.58656791e-01  1.18830442e-01
   2.13803351e-02  7.09706033e-03  1.43620327e-01  1.91216692e-02
  -1.63034767e-01 -4.09178995e-02 -6.15578964e-02  4.62895110e-02
  -4.25901785e-02  1.74415633e-02  6.22540936e-02 -2.08809339e-02
   7.76330009e-02 -1.33248076e-01 -8.14511925e-02  1.25954717e-01]
 [-4.23735119e-02  1.30057648e-01 -1.44570740e-02  1.85649276e-01
   1.17613278e-01 -1.46422843e-02  1.17625989e-01 -6.97238818e-02
   1.82205707e-01  6.51653681e-04 -5.33889867e-02 -1.21161386e-01
  -5.08362204e-02  2.14385197e-01  1.13381878e-01 -6.65774047e-02
  -1.18957259e-01  3.95616628e-02  6.51990697e-02  6.54432848e-02
  -6.93200529e-02  3.79003547e-02 -1.39919166e-02 -3.63348871e-02
  -1.49796262e-01 -1.48009837e-01  5.53138517e-02 -2.59870905e-02
   1.38618238e-02  1.79733366e-01 -7.65027851e-02 -2.54412740e-02
  -6.36929497e-02 -9.12663117e-02 -7.93578327e-02 -5.90296313e-02
   7.85119608e-02  1.94202065e-01 -5.31390160e-02  4.60228808e-02
   9.07024294e-02  5.30715920e-02 -2.27768738e-02  1.16009284e-02
   5.54962037e-03 -1.20922988e-02 -1.47163391e-01 -1.33393347e-01
   5.32820225e-02 -1.03203639e-01 -3.91091593e-02 -4.22080047e-03
   1.76560432e-01 -2.48534307e-02 -1.57015488e-01  1.62619799e-01
   1.23274907e-01 -4.67234179e-02 -7.92490691e-02 -3.16684581e-02
  -1.58384785e-01 -9.85708311e-02  3.39843854e-02  7.08720013e-02
  -2.54105218e-02 -5.88950105e-02  1.21037133e-01 -4.86050770e-02
  -1.78410888e-01 -5.26500642e-02 -3.86461169e-02  7.31180683e-02
  -1.89086884e-01  9.48536582e-03 -1.22554839e-01 -1.33920470e-02
  -6.84043095e-02  1.61727667e-01  5.77236712e-03 -3.94914933e-02
  -1.37727693e-01 -8.31042305e-02 -6.55581504e-02 -1.94372442e-02
   4.55518477e-02  3.55444103e-03 -1.04774222e-01 -9.68874246e-03
   1.47996262e-01 -3.79815698e-02  1.47052243e-01 -4.89881039e-02
   3.70773748e-02  2.73879003e-02  1.99678987e-01  3.51058431e-02
   1.09925210e-01  9.81718823e-02  1.64631188e-01 -1.60346720e-02
   6.85001537e-02  1.15133785e-01  1.39807798e-02 -5.08357882e-02
  -1.14129938e-01 -5.36325481e-03  1.30869389e-01  1.85215637e-01
   1.21875338e-01  2.58801151e-02  1.65923104e-01  7.86009729e-02
  -2.96761915e-02  7.74910077e-02  8.90046805e-02 -1.09016001e-02
  -1.76593825e-01 -1.77276717e-03  2.98292749e-02  6.37366027e-02
  -4.60087210e-02 -5.17405756e-02 -1.12182975e-01  7.52963573e-02
   1.12081781e-01 -5.26504740e-02  2.51533166e-02 -3.12125050e-02]
 [-4.46496308e-02  8.71386603e-02 -6.26658574e-02  1.57605499e-01
   9.30619314e-02 -7.07375705e-02  7.21865147e-02 -1.75316125e-01
   1.65319607e-01  5.78050017e-02  3.29413940e-03 -1.49766818e-01
   3.59702446e-02 -3.77940596e-03  1.14826582e-01 -4.63953800e-02
  -1.83714896e-01  5.81029058e-02 -5.11422306e-02 -5.08916713e-02
  -5.17674349e-02  1.43022984e-01  2.24448070e-02  5.16847149e-02
  -1.69619694e-02 -1.11595459e-01  2.94698346e-02 -2.16488987e-02
   1.75059792e-02  1.01638041e-01 -9.41122009e-04  5.58283404e-02
   3.28920521e-02 -1.79465771e-01 -1.76332891e-02 -6.15195632e-02
   4.07942496e-02  7.57563859e-02  3.99037963e-03  1.53546274e-01
   1.05782628e-01 -2.16148216e-02  5.48111321e-03 -1.38073549e-01
  -3.24285254e-02 -6.87991753e-02 -1.64949313e-01 -6.83709513e-03
   3.45104523e-02 -1.38786197e-01 -7.99896866e-02 -5.44857606e-02
   8.65663961e-02  1.23000443e-01 -1.79878678e-02  7.36121088e-02
  -6.01425068e-04 -1.98370442e-02 -2.55692769e-02  5.14918081e-02
  -6.18324615e-02 -1.69969171e-01 -1.56933535e-02 -4.69948053e-02
   6.98547140e-02  1.00089815e-02 -1.04152691e-02 -1.03711467e-02
  -2.28442885e-02  3.97133715e-02 -4.15847115e-02 -5.10048047e-02
  -2.97884997e-02 -3.73087525e-02 -5.43961907e-03 -6.75236154e-03
   7.82587565e-03  2.63865963e-02 -5.87730184e-02 -2.59357085e-03
  -5.00891730e-02 -2.39223558e-02 -1.68124344e-02 -1.27415448e-01
   6.22803420e-02 -3.36342342e-02 -3.41633568e-03 -8.01989660e-02
   8.08691606e-02 -7.85855576e-02 -2.29514316e-02 -4.26493511e-02
   1.44401461e-01 -2.21253764e-02  1.60323396e-01  1.12550773e-01
   8.46855715e-02 -2.89406162e-02 -1.36852749e-02  1.05540715e-02
   3.01974211e-02  6.14727847e-02  9.36129410e-03 -5.14811277e-02
  -2.30665524e-02  5.95076010e-02  1.91197291e-01  1.17456011e-01
   1.01251066e-01  7.15708919e-03  2.06436843e-01  1.10968940e-01
   3.72595675e-02  1.61062300e-01 -5.54145724e-02  8.50036070e-02
  -6.88291937e-02  7.39072412e-02 -4.60111583e-03  4.86917347e-02
   6.61827996e-02  4.97348234e-02  6.50615385e-03 -2.08887625e-02
   9.97922122e-02 -3.95215377e-02  6.25101402e-02 -3.02323531e-02]
 [-1.01366647e-01  1.35931194e-01 -8.15811828e-02  4.31833677e-02
   1.78682074e-01 -4.75250520e-02  1.14628375e-01 -9.90437940e-02
   1.91307917e-01  7.84242526e-03  5.60303517e-02 -8.02408382e-02
   4.27036472e-02  9.66688469e-02  6.16735518e-02 -7.59615153e-02
  -4.60431799e-02  1.32494885e-02 -1.68509427e-02  2.02978565e-03
   1.25228483e-02  1.35626048e-01 -6.26056939e-02  2.79791951e-02
   4.85434271e-02 -8.96411166e-02 -1.39137702e-02 -6.24894537e-02
   3.81263793e-02  8.18858296e-02  4.68928888e-02  6.96677342e-02
   3.22053488e-03 -7.81514794e-02 -3.76715814e-03 -1.18004521e-02
   1.58409849e-01  1.54969350e-01 -5.85913248e-02  8.11653659e-02
   5.13861934e-03  5.36352098e-02 -5.27739115e-02 -3.29488777e-02
   4.48518246e-02 -3.09538208e-02 -1.04534008e-01 -1.13949187e-01
  -4.44578454e-02 -4.69889268e-02 -4.42129597e-02  2.90472042e-02
   9.22352150e-02  4.17577252e-02 -1.35537654e-01 -7.60280644e-04
   3.35264243e-02 -4.97523472e-02 -2.80669667e-02  4.37033623e-02
  -1.57341585e-01 -1.18149795e-01 -4.37038019e-02 -4.76125441e-02
   4.81454656e-02 -9.65486467e-03 -4.59363647e-02 -1.08066037e-01
  -3.41966785e-02 -6.49475977e-02 -1.78807806e-02 -1.76100731e-02
  -1.24255285e-01  6.37398660e-02 -1.00071639e-01  1.30592668e-02
   1.01333726e-02  4.40268666e-02  2.90837046e-02  1.02839638e-02
  -1.15875065e-01  2.27889102e-02 -5.01645021e-02 -1.00260124e-01
   6.33794814e-02  2.52589881e-02 -6.16531307e-03  8.39311406e-02
   9.88312140e-02 -1.41587621e-02  5.43606728e-02 -2.81977821e-02
   7.22318664e-02 -1.04041234e-01  5.74844815e-02  7.13277385e-02
   1.56457171e-01 -2.73668021e-02  5.61876297e-02  3.29608731e-02
   5.20942882e-02  9.63052437e-02  3.02725080e-02 -1.09192953e-02
  -4.51538041e-02 -6.96842521e-02  5.33227064e-02  7.46663585e-02
   1.03861868e-01 -3.58019769e-02  7.43746310e-02  4.53724973e-02
  -2.50788517e-02  1.23556398e-01  9.11356136e-02 -9.15977079e-03
   1.48602258e-02 -2.16821413e-02 -2.18396187e-02 -9.23215691e-03
   4.27786298e-02 -3.54849338e-03 -1.05936445e-01  6.83068633e-02
   1.19968049e-01 -1.34989455e-01 -3.42883021e-02 -9.31263119e-02]
 [ 7.16072097e-02  1.69564798e-01 -4.26930785e-02  2.04456478e-01
   3.36297750e-01  4.15443666e-02  9.93163362e-02 -1.18793584e-01
   3.12136382e-01  2.53987759e-01  1.01337530e-01 -1.15323775e-01
  -5.57557121e-02 -4.74832673e-03 -6.47984520e-02 -1.04176611e-01
  -1.24843255e-01 -1.21184485e-02  1.10591456e-01  6.05228133e-02
   1.50840133e-01  1.30732313e-01  3.01831961e-02 -1.54655397e-01
   1.77071430e-02 -1.43077657e-01  1.24161683e-01  7.59069920e-02
   7.58304298e-02  1.25401273e-01 -9.29407254e-02 -1.91243112e-01
  -9.97518077e-02 -5.87873124e-02 -4.49331515e-02  7.33943135e-02
   2.86913365e-01  2.40740657e-01 -2.33946979e-01  1.30656943e-01
   1.44579217e-01  1.35414243e-01  5.38689792e-02 -1.28925994e-01
   1.26156762e-01 -5.15966825e-02 -9.09864008e-02 -1.56866252e-01
  -7.51854852e-02 -1.62605256e-01 -8.64828657e-03 -1.08559370e-01
   4.28741612e-02 -1.79423392e-01  2.42342167e-02  2.27064192e-01
   9.96610522e-02  4.61043157e-02 -1.20048530e-01 -1.89610884e-01
  -1.82827324e-01 -1.20416902e-01  1.32081613e-01 -8.05729032e-02
   7.51196891e-02 -1.09386072e-01 -1.24954939e-01 -9.84388590e-02
   1.11521870e-01  1.89581774e-02 -3.04337461e-02  2.32201964e-02
  -7.08043054e-02 -4.43832986e-02 -1.16208941e-01 -1.85704216e-01
  -6.94702147e-03  1.59808204e-01 -2.07566116e-02 -1.46485195e-01
  -8.11132193e-02 -1.37443542e-01 -7.20775947e-02 -1.43359527e-01
   5.32060005e-02  7.96312168e-02 -8.82426053e-02  8.99756327e-02
   1.51594758e-01 -3.64207588e-02  2.64846645e-02  9.13063511e-02
   2.84946382e-01 -7.15042204e-02  3.28316167e-02  4.98422347e-02
   9.13223848e-02 -1.03156172e-01  2.57892311e-01 -1.33135542e-01
   1.38747199e-02  1.65948957e-01 -1.62757337e-01  4.58789542e-02
  -6.56301528e-02 -8.60079303e-02  2.96373665e-01  1.40357867e-01
   3.61069918e-01  3.60522419e-02  2.81999648e-01  1.11549534e-01
   2.18440089e-02  9.24902856e-02  2.50809273e-04  1.26390368e-01
  -7.02537075e-02  2.23002315e-01 -6.80924207e-02 -4.77694720e-03
   9.81909856e-02  4.20085452e-02  3.72505970e-02  1.03409477e-01
   2.33472332e-01 -6.24328703e-02 -8.58343951e-03 -9.01137665e-02]
 [ 9.05305222e-02  1.26553133e-01 -1.74916238e-01  8.82829949e-02
   1.80845514e-01  1.27491541e-02  4.79374677e-02 -2.22163931e-01
   1.75965875e-01  1.78275585e-01  1.66434810e-01 -8.09420496e-02
  -7.35878795e-02  7.55130574e-02 -9.04663578e-02  3.75312045e-02
  -1.66177489e-02 -1.26985133e-01  5.90524003e-02  2.14683726e-01
   6.29569888e-02  1.08958334e-01 -2.96390057e-03 -1.13236822e-01
  -2.87248194e-02 -1.45849064e-01  2.71517217e-01  9.75152757e-03
   8.91846046e-02 -1.09720759e-01  1.40724787e-02 -2.76468754e-01
  -2.74698939e-02 -9.70648527e-02 -7.38468627e-03  7.46979490e-02
   3.20763618e-01  1.29169226e-01 -8.94920751e-02  1.69328630e-01
   1.97544500e-01  2.23499313e-01  1.33780167e-01 -2.17341542e-01
   1.67519510e-01  1.70997143e-01 -1.17437944e-01 -1.27274588e-01
  -9.26301349e-03 -3.08438689e-01 -6.97138812e-03 -1.45798743e-01
   1.82195455e-01 -2.66614646e-01 -2.91734785e-01  9.06439498e-02
   5.42083904e-02 -1.03273585e-01 -2.36106411e-01 -2.91642904e-01
  -2.71146059e-01 -2.18699306e-01  1.75246909e-01  2.54097395e-03
   5.93160391e-02 -3.70966159e-02 -4.95820306e-02 -3.47285926e-01
   2.84662712e-02 -9.26503986e-02  1.47183612e-01 -6.74876496e-02
  -1.29292324e-01 -1.29968598e-01 -1.96483694e-02  1.37561588e-02
   1.37050390e-01  2.90154457e-01 -1.09401263e-01 -1.42205179e-01
  -7.38240555e-02  6.88992674e-03 -1.56905174e-01 -1.53019086e-01
  -1.34505928e-01 -4.78336141e-02  1.00845760e-02  9.05109569e-02
   2.01283425e-01 -1.03808634e-01  1.68026518e-02  6.80065006e-02
   2.32759759e-01 -6.34830892e-02 -3.06984875e-02  2.02994838e-01
   1.54436186e-01 -1.83070630e-01  1.50534183e-01  1.08677298e-02
   9.30521861e-02  8.14720690e-02 -4.41363528e-02 -7.54262358e-02
  -6.49216250e-02 -7.22540990e-02  2.59992927e-01  9.01286453e-02
   3.25715274e-01 -5.32913534e-03  3.73610258e-01  6.05284087e-02
   9.50983763e-02 -3.38080935e-02  8.37794468e-02  1.14319950e-01
  -2.60610163e-01  2.57524818e-01  1.01796016e-01 -5.55018112e-02
   7.96397775e-02  7.40721151e-02  4.13630810e-03  8.76142755e-02
   3.20102751e-01 -1.23661071e-01  1.17930919e-01 -5.82916327e-02]
 [-3.83837558e-02  2.26176172e-01 -8.74255225e-02  1.46582499e-02
   2.12234125e-01  1.01185113e-01  1.69031754e-01 -2.12661311e-01
   2.01596588e-01  1.56501740e-01  1.12202488e-01 -9.90999341e-02
   8.84167179e-02  1.76948920e-01 -9.13860500e-02  5.94017059e-02
  -1.19359031e-01 -2.54407078e-02  1.39652996e-03  1.92075580e-01
  -1.30690530e-01  1.55327588e-01  5.07545620e-02 -2.02264920e-01
   1.59231629e-02 -1.15615420e-01  2.40813851e-01 -2.03054976e-02
   1.49317488e-01  5.84456250e-02  1.36223035e-02 -2.32434109e-01
  -1.61555365e-01 -5.55358045e-02 -4.25938442e-02  1.24625042e-01
   3.05422574e-01  1.90504089e-01 -2.46725548e-02  2.21250713e-01
   8.11851099e-02  9.69759002e-02  4.98203002e-02 -4.45576245e-03
   1.05026074e-01  9.15010199e-02 -1.36802405e-01 -1.39878586e-01
   5.35114035e-02 -3.24298412e-01 -1.10699600e-02  8.12318083e-03
   2.54414111e-01 -1.72270507e-01 -3.01985979e-01  7.45299906e-02
  -1.31154284e-02 -7.76395202e-02 -2.51464218e-01 -2.55964577e-01
  -3.18649352e-01 -3.62560712e-02  8.60466957e-02 -3.20494547e-02
   8.86167809e-02 -1.13164246e-01 -1.30754650e-01 -4.20781046e-01
   1.48932310e-02 -1.33388338e-03  1.09512933e-01 -7.09416866e-02
  -1.65093958e-01  1.04033090e-02 -6.50601164e-02  9.07921270e-02
   1.42814755e-01  1.80675209e-01 -6.48673698e-02 -3.96238640e-02
  -1.72792479e-01 -7.60282502e-02 -1.87558994e-01 -1.49906844e-01
  -3.89149673e-02  2.82647833e-02 -4.58632372e-02  9.67787504e-02
   8.50169659e-02 -1.06086746e-01 -6.52633086e-02  5.27727231e-02
   1.92570373e-01  2.15880144e-02  2.06978008e-01  2.36775801e-02
   1.55741051e-01 -2.62333989e-01  2.51093984e-01  1.33553175e-02
   9.92470831e-02  1.59073755e-01 -2.73031473e-01  5.90882376e-02
  -7.28959367e-02 -1.07827879e-01  4.43111986e-01  1.68858767e-01
   1.97489649e-01 -1.14096604e-01  4.14015979e-01 -2.67324294e-03
  -9.69121885e-03  5.95613979e-02  4.47229929e-02  8.89794715e-03
  -2.84137338e-01  2.18005419e-01  7.39979520e-02 -5.80264814e-02
  -2.19149538e-03  9.26093534e-02  9.43904817e-02  2.01159194e-02
   4.37009633e-01 -1.74485818e-01  4.20878604e-02 -5.68690002e-02]
 [-3.99669372e-02  1.28939703e-01 -1.48467258e-01  5.32520302e-02
   3.64151686e-01  3.34572718e-02  2.16468185e-01 -8.69428813e-02
   1.43760115e-01  1.48018777e-01 -9.65343043e-03 -1.52470425e-01
   2.26411484e-02  2.85411000e-01  9.48685780e-02 -5.35810441e-02
  -1.77212790e-01 -7.06251487e-02  1.62860416e-02  9.28145796e-02
  -8.01989734e-02  1.44210666e-01  5.47957681e-02 -9.63319987e-02
  -6.85001239e-02 -2.78428555e-01  1.62071943e-01 -8.05386975e-02
   1.31948382e-01  1.91223800e-01  1.11127943e-01 -1.45777598e-01
  -3.56556140e-02 -1.38629496e-01 -3.15565579e-02  9.91791338e-02
   2.18678132e-01  2.16608763e-01  1.32594213e-01  1.37228251e-01
   5.40683456e-02  1.33362830e-01  2.13782676e-02 -7.35370675e-03
   1.23124450e-01  1.03129685e-01 -1.21380441e-01 -1.22733474e-01
  -4.60414216e-02 -7.66501948e-02  1.66647825e-02 -3.41902897e-02
   2.41891310e-01  7.40872324e-02 -1.25268310e-01 -1.32363671e-02
  -8.30176100e-02 -1.14914037e-01 -1.81757733e-01 -1.74077407e-01
  -1.28817648e-01 -3.01360041e-02  2.79685427e-02 -7.52245560e-02
   3.89642455e-02  1.12716503e-01 -2.11273842e-02 -2.37734973e-01
   6.08766405e-03 -3.19965333e-02  1.28380135e-01  2.11825520e-02
  -6.43285513e-02 -1.25503406e-01 -1.22579105e-01  1.09545134e-01
  -2.14899834e-02  3.43214989e-01 -1.05881460e-01  9.74512324e-02
  -1.17136769e-01 -2.03138515e-01 -4.45045941e-02 -1.39239699e-01
  -5.79823554e-02 -8.07534531e-02 -7.90079534e-02  1.83459334e-02
   1.80108517e-01 -4.54216301e-02 -3.71045098e-02 -4.89943773e-02
   1.85351983e-01 -3.44582535e-02  3.92056286e-01 -1.12097695e-01
   2.31978714e-01 -1.58757836e-01  1.35108173e-01 -9.53119341e-03
   2.46834248e-01  1.77807316e-01 -3.01405545e-02  5.46581522e-02
  -2.07182005e-01 -5.77366017e-02  2.99253672e-01  2.35266611e-01
   2.47499079e-01 -1.73454836e-01  5.04174948e-01  6.36759475e-02
   8.93792808e-02  2.09529400e-01  9.23420712e-02 -8.39440748e-02
  -2.31453031e-01  1.70416966e-01 -2.89501646e-03 -1.02394581e-01
   2.92884633e-02 -9.33242440e-02  1.72446191e-01  1.41638760e-02
   4.50516790e-01 -1.57368034e-01 -1.41412690e-01 -7.37234019e-03]
 [ 5.40328547e-02 -2.57764131e-01  1.52366152e-02  9.71051529e-02
   1.94554925e-01  2.33943716e-01 -6.42425800e-03  1.81777924e-01
   7.87465349e-02 -1.61160395e-01 -2.34561905e-01 -1.57424837e-01
  -2.18276814e-01  2.29624718e-01  2.24613532e-01  1.55590877e-01
   2.21907999e-03 -6.07587658e-02  5.08969277e-02 -4.09134701e-02
   2.04427298e-02  2.55349934e-01  4.66157496e-02  1.51010662e-01
   6.26036972e-02 -1.38996378e-01 -1.64860442e-01 -3.75789665e-02
   2.60362923e-01 -7.52674602e-03  1.60983965e-01  2.16923207e-01
  -1.29126057e-01 -3.59486789e-02 -2.73971781e-02  9.54237357e-02
  -1.65778577e-01  1.00294407e-02 -1.11315735e-01  8.57001394e-02
   3.42896432e-02  7.51217604e-02  2.33905837e-02 -8.69599171e-03
  -7.56717846e-02  1.47364303e-01 -1.79669801e-02  1.58871096e-02
   1.68166950e-01 -8.41200724e-02 -3.18289474e-02  3.11740767e-02
  -9.68569592e-02 -6.82598650e-02  6.33688793e-02 -1.29880369e-01
  -2.57737897e-02  1.35978624e-01 -1.69963330e-01 -2.04567939e-01
  -1.14164926e-01 -5.97514026e-02  1.96348920e-01  1.07558869e-01
   1.59214288e-01  1.16434723e-01 -7.77649879e-02  2.71589398e-01
   1.15597740e-01  6.02763332e-02 -3.98197658e-02 -6.96734414e-02
   1.47848547e-01 -1.47045478e-02 -7.76273524e-03  9.17653292e-02
  -1.35968164e-01  2.10624382e-01 -1.28331587e-01  8.26119781e-02
  -9.48324427e-02 -3.45271409e-01  7.44546056e-02 -1.00451484e-01
  -1.87952325e-01 -2.63725854e-02  2.68843584e-02  4.57018614e-02
   1.97478518e-01  2.53422886e-01 -2.79123247e-01  1.71617508e-01
   2.72803921e-02 -9.91884340e-03  5.71409836e-02  3.29234898e-02
  -1.99517444e-01 -2.50759423e-01 -2.79640079e-01 -1.32146394e-02
   5.54646254e-02 -1.87944829e-01  2.07577422e-02  1.05508044e-02
  -7.94708431e-02  2.19187185e-01  1.22063853e-01  9.51137394e-02
   1.94294959e-01  2.94643909e-01  5.55818617e-01 -9.84048024e-02
   7.70535991e-02 -1.04244307e-01  3.33359808e-01 -1.37297317e-01
   6.11157902e-03 -2.06222720e-02  7.21176863e-02  1.55612323e-02
  -7.96630383e-02 -2.79727697e-01  1.22871011e-01  6.86438754e-02
   4.12772417e-01  4.02522758e-02  1.14971228e-01 -7.60831237e-02]
 [-3.57875556e-01 -2.16868799e-02  7.23541453e-02  1.92177147e-02
   3.02672505e-01  2.16423973e-01  2.82000870e-01  1.43997937e-01
   2.42458582e-01 -2.85480618e-01 -2.58632869e-01 -6.53769597e-02
  -1.04475439e-01  2.42228746e-01  2.00754300e-01  2.61932820e-01
  -2.21058309e-01  1.28020085e-02 -3.73850949e-02  2.09063694e-01
  -1.67214662e-01  1.96341544e-01 -2.81606108e-01  1.21984668e-01
  -1.03294931e-01 -1.98229715e-01 -1.68988019e-01  4.54039350e-02
   2.79088497e-01  1.98214129e-01 -3.10305133e-02  2.10586905e-01
   1.32485786e-02 -3.40689793e-02  5.30302413e-02  2.55585134e-01
  -4.07915227e-02  2.95536757e-01 -1.41959442e-02  6.76581711e-02
   1.95619762e-02  8.49969909e-02  1.77163482e-01  1.83617905e-01
   2.32697144e-01 -1.53037399e-01 -2.68840700e-01 -1.46445185e-01
   2.22068384e-01 -3.26841027e-01 -1.92730054e-01  2.47761533e-01
   2.19776824e-01 -2.99331337e-01 -1.89307451e-01 -8.64552986e-03
   2.24952802e-01  1.35483280e-01 -1.75785080e-01 -7.51489699e-02
  -3.89220685e-01 -2.66609579e-01  1.48052096e-01  9.62942988e-02
   3.08734983e-01  2.46680781e-01 -5.39565226e-03 -5.74886892e-03
  -2.54063934e-01  5.08437827e-02 -1.24614045e-01 -6.04952686e-02
  -3.62380207e-01 -8.13206285e-02 -5.16700838e-03  1.26329407e-01
   8.52806047e-02  4.06651795e-01 -2.96268594e-02 -1.00511257e-02
  -1.29831016e-01 -3.78901690e-01  2.97298636e-02 -2.14905530e-01
  -1.58047378e-01 -5.50714135e-03 -2.42947578e-01  7.51877502e-02
   2.25363269e-01  2.98292488e-01 -2.08940014e-01  1.31281018e-01
   2.50107288e-01 -6.08713701e-02 -3.20610078e-03  6.47938028e-02
   4.53382544e-02 -3.08181733e-01 -1.86141785e-02 -2.46791039e-02
   4.31967573e-03  7.76018724e-02 -6.81166723e-02  4.08155918e-02
  -2.15566412e-01 -5.77302687e-02  5.30342519e-01  3.33862722e-01
   1.69797674e-01  2.15833977e-01  5.70993006e-01  6.65595904e-02
  -1.48226038e-01  2.88333029e-01  2.83563673e-01 -1.19258180e-01
  -3.51858765e-01  3.03360552e-01 -1.11081656e-02  3.89452204e-02
  -6.81540146e-02 -1.62371516e-01  1.81175470e-01 -1.15848646e-01
   3.15227687e-01 -2.16066435e-01 -4.93900552e-02  1.27992764e-01]
 [-3.24643403e-01  3.61238867e-01  1.20301098e-02 -4.19233367e-02
   1.97697207e-01  1.10777751e-01  2.47139722e-01 -1.20098189e-01
   1.29315704e-01  2.66205128e-02  2.49468465e-03 -4.39144224e-02
  -2.01928187e-02  2.15575367e-01 -9.44479406e-02  7.36974850e-02
  -1.75416678e-01  2.90269762e-01  1.89936280e-01  1.83091834e-01
   1.11609541e-01 -4.39316686e-03 -2.86954403e-01 -2.51765177e-02
  -1.28661245e-01 -1.76671401e-01  8.22490156e-02 -7.46458918e-02
  -9.74820927e-02  3.15829396e-01  6.50393292e-02  6.86078668e-02
   1.79546311e-01  3.04440670e-02 -4.00690362e-03  1.32611454e-01
   1.25669047e-01  2.99111009e-01  1.37344226e-01  1.93181336e-01
   2.51645278e-02  1.01162396e-01  7.96281099e-02  6.77409321e-02
   1.51345015e-01 -1.92792356e-01 -1.92560077e-01 -9.63416472e-02
   9.80612040e-02 -2.20424131e-01 -1.76498257e-02  3.29442844e-02
   3.09859574e-01 -2.99136549e-01 -3.52224886e-01  1.11387439e-01
   1.24380246e-01  1.60941809e-01  8.62929225e-02 -1.20329425e-01
  -2.39365906e-01 -1.23377308e-01  4.50446717e-02 -6.40385523e-02
   2.11917669e-01  6.38255328e-02  4.39835042e-02 -2.20558837e-01
  -1.23464763e-01  4.10373583e-02  2.53317691e-02  1.60631500e-02
  -1.62257239e-01 -4.62437272e-02  3.44573669e-02  1.42879784e-01
   4.69050035e-02  3.39492410e-01  1.50738629e-02 -8.64404216e-02
  -1.68896765e-01 -1.31948009e-01 -7.42400661e-02 -1.81895643e-01
   3.50780413e-02 -1.71647295e-02 -1.32287890e-01  5.35738058e-02
   2.45198876e-01  6.60528168e-02 -5.53634278e-02 -1.72792450e-02
   3.31890255e-01 -6.05603121e-02 -9.80992243e-03  1.60434097e-01
   2.81283557e-01 -5.98195344e-02  2.31470555e-01 -6.88521340e-02
   8.98255222e-03  1.68353304e-01 -1.44838810e-01 -3.58221903e-02
  -2.67451525e-01 -1.51488155e-01  3.25567722e-01  2.29323775e-01
   1.43239513e-01  3.01184207e-02  1.04415804e-01  5.77285304e-04
  -2.16837659e-01  2.17087850e-01  1.17055997e-01 -4.03896570e-02
  -2.64367044e-01  2.08641112e-01 -2.91793933e-03 -5.00732288e-02
   1.48212045e-01  2.63593823e-01  6.49915040e-02 -9.80283599e-03
   1.00637846e-01 -1.88181624e-01 -2.50164070e-03  1.59941271e-01]
 [-1.05241545e-01  3.41782898e-01  6.09299727e-02 -5.30640222e-02
   9.25384760e-02  5.39253280e-02  2.06830725e-01 -2.49297634e-01
   1.23717681e-01  2.64342964e-01  1.90397531e-01 -1.12209516e-02
   2.85714678e-02  1.03372872e-01 -2.00609997e-01  1.03455007e-01
  -2.15788275e-01  2.37909749e-01  1.35472268e-01  1.97096229e-01
   4.77991700e-02  6.94962218e-02 -2.22063109e-01 -2.34883368e-01
   1.14001045e-02  2.16804221e-02  3.07437778e-01  3.20843756e-02
  -5.47056235e-02  2.60004193e-01  9.02378187e-03  4.10596654e-02
   1.35247663e-01  3.40310857e-02  1.38700160e-03 -1.01216651e-01
   3.25122029e-01  4.13481206e-01  1.60870612e-01  1.48370758e-01
   4.09006216e-02  4.79540266e-02  1.86763942e-01  1.20130882e-01
   1.77570373e-01 -4.61729653e-02 -2.59129047e-01 -1.70107186e-01
  -2.08553463e-01 -2.44123802e-01 -5.10393865e-02  4.11069244e-02
   2.71160722e-01 -2.07269296e-01 -2.00244144e-01 -1.19819648e-04
   9.40336958e-02 -8.34212638e-04 -5.48021588e-03 -1.27466947e-01
  -2.44122028e-01 -1.01349309e-01 -2.92458758e-02  3.69415805e-02
   2.07185283e-01  2.44368543e-03 -3.21323462e-02 -3.27585578e-01
  -3.06341574e-02 -4.91808914e-03  4.24783714e-02  9.08070058e-02
   1.82352681e-02 -5.10527715e-02  1.53351426e-01  1.32984087e-01
  -2.24266294e-02  2.81732589e-01  1.89035125e-02 -3.33642475e-02
  -2.62048632e-01 -1.66762531e-01  6.97443588e-03  8.16863477e-02
  -5.37659135e-03  2.94017568e-02 -1.15423046e-01  8.34824517e-02
   1.71815157e-01 -9.27634537e-02 -3.42642516e-02  1.25833571e-01
   4.25650746e-01 -7.15284199e-02  8.99081603e-02  9.47222486e-02
   1.35175824e-01  1.22685358e-01  4.34221417e-01 -3.25650461e-02
   1.06513724e-02  2.23617598e-01 -1.27848849e-01  6.76350221e-02
  -1.57547668e-01 -1.99426413e-01  2.43115336e-01  1.84133992e-01
   1.36138633e-01 -1.94095060e-01  1.09044708e-01  5.46959676e-02
  -1.50748417e-02  2.60423005e-01 -6.87903091e-02  1.11583546e-01
  -7.61505812e-02  2.64306396e-01  1.20321371e-01  4.14259210e-02
   2.51427412e-01  2.15711892e-01 -2.28630185e-01 -3.04558482e-02
  -1.59712121e-01 -1.53454140e-01  3.75350384e-04  1.27691239e-01]
 [ 1.14948777e-02  2.34166309e-01  5.74194780e-03  3.48591626e-01
   9.58464742e-02  3.11480731e-01  3.05652022e-01 -1.69362277e-01
   2.20203564e-01  2.31915146e-01  9.78898332e-02 -7.07439259e-02
  -7.19512906e-03 -3.16855647e-02  7.40983188e-02 -1.74537133e-02
  -9.60089341e-02  1.97802112e-02  2.15536472e-03 -2.79514515e-03
  -1.93089500e-01  1.90374911e-01 -1.80896834e-01  2.62181531e-03
  -1.02198541e-01 -1.29977554e-01  1.12721346e-01  6.69318959e-02
   1.15782946e-01  2.32667878e-01  4.24057022e-02 -5.60123101e-02
  -1.84509918e-01 -5.75490110e-02  3.47700603e-02  2.29706496e-01
   4.16893333e-01  3.84044409e-01  6.84994226e-03  2.57626832e-01
   1.80495963e-01  6.73512891e-02  1.37972414e-01  7.72494152e-02
   1.14775196e-01  2.29495466e-02 -2.85219431e-01 -1.24842912e-01
  -1.02930015e-03 -7.95697272e-02  1.39290774e-02 -1.31743938e-01
   2.89390951e-01  1.44242856e-03 -2.43926868e-01  2.52069831e-01
   4.99199294e-02  5.89849837e-02 -7.23607168e-02 -1.99747011e-01
  -2.37660483e-01 -1.97250098e-01  1.10625893e-01 -4.08060588e-02
   2.82408446e-02 -1.65562183e-01 -8.95260796e-02 -4.71692592e-01
   1.23045444e-01  1.61598977e-02 -2.19457552e-01 -5.97057045e-02
   2.79411813e-03 -5.17659113e-02 -9.05366316e-02 -9.85081401e-03
  -1.72072008e-01  3.86749923e-01 -2.51265559e-02 -1.99214503e-01
  -3.98587972e-01 -1.20384961e-01 -7.07674176e-02 -7.96103552e-02
  -1.34785935e-01 -2.18667239e-02  1.19197652e-01 -3.36245298e-02
   3.25348586e-01 -5.01263551e-02  4.57948372e-02  8.23788568e-02
   3.58301818e-01 -3.71489450e-02  6.17910810e-02 -1.59667939e-01
   1.56429052e-01 -1.68324113e-02  3.44744861e-01 -1.19453073e-01
   5.89253008e-02  3.98424238e-01 -2.02793300e-01  7.11083636e-02
  -1.56795472e-01 -2.47563139e-01  4.40362662e-01  2.47301266e-01
   2.48819694e-01 -2.71378726e-01  1.06047347e-01  2.23862544e-01
   1.29692808e-01  3.36308420e-01  1.23963803e-01  2.60248240e-02
  -1.17067814e-01  1.06606171e-01 -8.27712491e-02  2.53398418e-02
  -1.09839000e-01 -3.60547029e-03 -1.47647470e-01 -6.83686212e-02
   1.48316175e-01 -1.40888557e-01 -1.48663595e-01 -1.85643315e-01]
 [-1.42141894e-01  1.80871636e-01  4.36977670e-02  3.77197564e-01
   1.84886068e-01 -6.76001459e-02  2.10368410e-01  3.78612280e-02
   8.84914845e-02  9.07462984e-02 -1.52921602e-01 -1.45926356e-01
  -1.03910238e-01  7.90748000e-02  1.07540362e-01  6.72328100e-03
  -7.47536495e-02 -2.64232215e-02 -8.45694616e-02 -9.23708081e-02
  -1.57736883e-01  1.88873410e-01 -6.65656254e-02 -1.85086131e-02
   1.01677282e-02 -1.23351999e-01  1.88187480e-01  4.90108021e-02
   4.03231345e-02  2.23245233e-01  1.57186445e-02  2.78727949e-01
  -1.81516126e-01  8.70862603e-03 -3.51657793e-02  3.17811608e-01
   1.08295701e-01  1.83166534e-01  1.04524076e-01  1.57384783e-01
